
//<![CDATA[

// a few things don't have var in front of them - they update already existing variables the game needs
lanesSide = 3;
patchesAhead = 50;
patchesBehind = 10;
trainIterations = 200000;

var num_inputs = (lanesSide * 2 + 1) * (patchesAhead + patchesBehind);
var num_actions = 5;
var temporal_window = 0;
var network_size = num_inputs * temporal_window + num_actions * temporal_window + num_inputs;

var layer_defs = [];
layer_defs.push({
    type: 'input',
    out_sx: 1,
    out_sy: 1,
    out_depth: network_size
});
layer_defs.push({
    type: 'fc',
    num_neurons: 36,
    activation: 'tanh'
});
layer_defs.push({
    type: 'fc',
    num_neurons: 24,
    activation: 'tanh'
});
layer_defs.push({
    type: 'fc',
    num_neurons: 24,
    activation: 'tanh'
});
layer_defs.push({
    type: 'fc',
    num_neurons: 24,
    activation: 'tanh'
});
layer_defs.push({
    type: 'regression',
    num_neurons: num_actions
});

var tdtrainer_options = {
    learning_rate: 0.001,
    momentum: 0.0,
    batch_size: 128,
    l2_decay: 0.01
};

var opt = {};
opt.temporal_window = temporal_window;
opt.experience_size = 40000;
opt.start_learn_threshold = 10000;
opt.gamma = 0.97;
opt.learning_steps_total = 10000;
opt.learning_steps_burnin = 1000;
opt.epsilon_min = 0.0;
opt.epsilon_test_time = 0.0;
opt.layer_defs = layer_defs;
opt.tdtrainer_options = tdtrainer_options;

brain = new deepqlearn.Brain(num_inputs, num_actions, opt);

learn = function (state, lastReward) {
    brain.backward(lastReward);
    var action = brain.forward(state);

    draw_net();
    draw_stats();

    return action;
}

//]]>
    
/*###########*/
if (brain) {
brain.value_net.fromJSON({"layers":[{"out_depth":420,"out_sx":1,"out_sy":1,"layer_type":"input"},{"out_depth":36,"out_sx":1,"out_sy":1,"layer_type":"fc","num_inputs":420,"l1_decay_mul":0,"l2_decay_mul":1,"filters":[{"sx":1,"sy":1,"depth":420,"w":{"0":0.017296179946775403,"1":0.06448449667859651,"2":-0.08085025504976229,"3":-0.05589510518813032,"4":0.05251045747918059,"5":-0.07338384929401012,"6":-0.027984053005184348,"7":0.11821927190897193,"8":-0.0660628551341748,"9":-0.08403455774800897,"10":0.0016054412680775562,"11":0.15759334494892882,"12":-0.009697618845527703,"13":-0.09691537659396687,"14":0.08756639106097554,"15":-0.021576911797023094,"16":-0.08414277002100762,"17":-0.08467534387080239,"18":0.030898436479810876,"19":-0.09086864316754528,"20":-0.09830051520639818,"21":0.012549762714412164,"22":-0.01380018782271458,"23":-0.10392701675105431,"24":-0.04439291393319486,"25":0.002439076687128456,"26":-0.0254067818487038,"27":-0.1542293268742721,"28":0.05686861247006324,"29":-0.06521936732675732,"30":-0.05466027936885434,"31":-0.0891978943492482,"32":-0.0830888943391846,"33":-0.00253599642523813,"34":-0.16547001814725573,"35":0.003838993839416353,"36":0.019658749959330295,"37":0.0015007980375000972,"38":-0.08788896654690176,"39":0.01118085653132143,"40":0.03695195324920873,"41":-0.05535053964592655,"42":-0.019996762656442908,"43":-0.00004725090956416267,"44":-0.09552588440451248,"45":-0.01822605713289751,"46":-0.024426746760177406,"47":-0.03592921227996238,"48":-0.017629157753911853,"49":0.026194418272683526,"50":-0.04442804076943575,"51":-0.055070862169563355,"52":-0.01188456561480562,"53":0.08124695417808157,"54":-0.026806399244573394,"55":-0.04582091951419254,"56":-0.0015601837922669096,"57":-0.021015667331783852,"58":-0.034332736251761975,"59":0.1069992665792534,"60":0.041742013138734546,"61":0.076489396128022,"62":0.024605983680112523,"63":0.027057777260257584,"64":-0.024376200199631826,"65":-0.05793277518954622,"66":0.06570049608864001,"67":-0.03429327465203898,"68":-0.015401487474447258,"69":0.028148532438292895,"70":0.009312256467164864,"71":-0.018660334298571543,"72":0.0628727386509168,"73":0.057279166491904204,"74":0.07280368937914869,"75":0.010391338117935014,"76":-0.07872603260337104,"77":-0.005411969833904435,"78":-0.08194917923813365,"79":-0.06859173414983229,"80":0.1066823218370575,"81":-0.019089011309351603,"82":-0.06719341138714023,"83":-0.1341884373317122,"84":-0.03208626366078837,"85":-0.09487261677033132,"86":-0.0014393101268171114,"87":0.05609094458719471,"88":0.016416647676689395,"89":-0.14961028481164731,"90":0.026536138755507234,"91":-0.1037322150362051,"92":-0.12421134201424543,"93":0.025628909495869146,"94":0.12581538620808524,"95":-0.11104414667546268,"96":-0.1306633227699681,"97":-0.05732802504005267,"98":0.021023472312969933,"99":-0.06649584414035883,"100":-0.03181409382416482,"101":0.03716227584508635,"102":0.028272615918445917,"103":-0.10104917690110635,"104":-0.05014859287771702,"105":-0.04186902751731538,"106":0.007810644774028074,"107":0.061729228300380044,"108":-0.10908556495802095,"109":-0.0008382277356042496,"110":-0.08316981918510864,"111":0.01336900216242542,"112":-0.03041990894126196,"113":-0.021083519447995358,"114":-0.0665556369308184,"115":0.007881495935678303,"116":0.021489554008081547,"117":-0.01620178590213648,"118":-0.08403609714588502,"119":0.004581526112602571,"120":-0.03027538465237976,"121":-0.025382154929182336,"122":0.12982434670012924,"123":0.12081546267418578,"124":0.01427748035891996,"125":0.03304664799100955,"126":-0.008899803668207988,"127":-0.009272918402016508,"128":-0.04820547982912931,"129":0.01649790228439576,"130":0.04338927260615813,"131":-0.06889760349073883,"132":-0.055071550677770705,"133":0.06313257775102256,"134":-0.06765520109990261,"135":-0.006486685208777261,"136":0.02917277281099283,"137":0.11222904742133105,"138":-0.10448030495782526,"139":0.05019633779511925,"140":-0.08750971989723327,"141":-0.07417569240709011,"142":0.02057131914277439,"143":0.024240327608890704,"144":0.08705679022588685,"145":-0.08445187225483351,"146":0.06810212913962152,"147":0.10240161224486229,"148":-0.07182153927254302,"149":-0.06616026713799517,"150":0.026926601491418338,"151":0.058302382040545005,"152":-0.13033194730427522,"153":-0.0029704273610451624,"154":0.000984387092443753,"155":-0.14416143833477457,"156":0.012138562078627561,"157":0.025697249779678064,"158":0.016682140513073464,"159":-0.10087731568872961,"160":-0.077719166931827,"161":0.058717735880089446,"162":-0.07712785646142219,"163":0.10669663471177127,"164":0.05180991032526733,"165":0.028961502793186624,"166":-0.08273881326989094,"167":-0.16484953107012915,"168":0.07448951537355578,"169":-0.12575040727725684,"170":-0.055488152553671115,"171":0.006587070880769674,"172":-0.0354233528840829,"173":-0.050399158768009336,"174":-0.12701588814026848,"175":0.03308345899174304,"176":-0.04734065022993334,"177":-0.029978313900307387,"178":0.006951020874648038,"179":0.040578311045199725,"180":-0.11603187431614177,"181":-0.19551374997432602,"182":0.058146350402939376,"183":0.025835967884896366,"184":-0.1307300155188378,"185":0.015935297114141996,"186":0.15279900853626383,"187":-0.122467667049288,"188":0.0016303819343338696,"189":0.10778384173099488,"190":-0.018095600709504087,"191":-0.07644163162291052,"192":0.17457983538483496,"193":0.165845792920567,"194":-0.055962307003825464,"195":-0.02529173816599469,"196":0.0701884171482811,"197":0.020927410499305923,"198":-0.02762349932865033,"199":0.06092343812908975,"200":0.09549615471456026,"201":-0.10641484150520684,"202":-0.025499220760824223,"203":-0.06126497942740771,"204":-0.016273418546004906,"205":-0.06517930968445201,"206":0.07001677290111001,"207":-0.0019362635606995585,"208":-0.1205173991327988,"209":0.04517367923607438,"210":0.09292354262346196,"211":0.03691771719830516,"212":0.038475065553508596,"213":0.0468056525174205,"214":-0.09357076061478692,"215":-0.14504278104397686,"216":-0.036617108005921994,"217":-0.03134993064751402,"218":0.025905573412398863,"219":-0.006700458122881295,"220":0.010916611995723746,"221":-0.15362218628405735,"222":-0.10810454633519044,"223":-0.016789518842541366,"224":0.03419340340671443,"225":0.018104919965693467,"226":0.0942056483397838,"227":0.0017009496160096489,"228":-0.06336729032082991,"229":-0.22052987119329245,"230":-0.031620864571350306,"231":-0.033439453018163555,"232":-0.03389505310847585,"233":-0.07586080910001601,"234":-0.04617043230122476,"235":0.04162107387353048,"236":-0.11850462679253251,"237":-0.0651622583455624,"238":0.013494906193331538,"239":0.0867396164443853,"240":-0.15191609425177993,"241":0.02503051273076696,"242":0.06302037747697603,"243":-0.12743989949381357,"244":-0.04519703353996136,"245":-0.04143849059559714,"246":0.03987006827190853,"247":-0.11225025632432943,"248":0.16339266945414627,"249":0.01243126352335936,"250":-0.10233485466820727,"251":-0.06827519760778326,"252":0.07742309852273288,"253":-0.013911079522581821,"254":-0.06611589509050686,"255":0.2598160710442613,"256":-0.16049828057263021,"257":-0.10115006434255543,"258":0.011519884658460575,"259":-0.10826440833446521,"260":-0.08424109413836788,"261":0.06522702086881857,"262":0.2059201310620593,"263":-0.15358043376649147,"264":-0.0429911438622001,"265":-0.08906492260007817,"266":0.03319931106627739,"267":0.05073234554557477,"268":-0.15035632117803316,"269":0.2828873167032894,"270":-0.15697656180020786,"271":-0.07642160098574612,"272":-0.2192595155238937,"273":-0.04877658397026714,"274":-0.012615333471004528,"275":-0.037429949614433376,"276":0.11509825228168241,"277":-0.17588447978600247,"278":-0.3017238254391005,"279":-0.2250338975887873,"280":-0.034731975289353276,"281":-0.13819328159730507,"282":-0.09854598482389984,"283":0.08220293792517204,"284":-0.09320750414550709,"285":-0.1326236272063399,"286":-0.2599837941585324,"287":-0.1183041085710973,"288":-0.10916531514222517,"289":-0.1880574766694197,"290":0.11039084696449478,"291":0.04799909116913603,"292":-0.19671691494348292,"293":-0.27602827304767574,"294":0.015416119605403332,"295":-0.054119422510722305,"296":-0.12843799352982077,"297":0.17312996534234412,"298":0.0690239765574826,"299":-0.11974017019615296,"300":-0.10028385609793336,"301":0.2025518794750946,"302":0.028828632934235914,"303":-0.1288714860783854,"304":0.048193522925892976,"305":0.0212621652317154,"306":-0.030461014015773766,"307":0.005793172043996582,"308":-0.10431408505782412,"309":-0.07405508622135175,"310":0.02995829784345045,"311":-0.017304056706418196,"312":0.12915237325167564,"313":-0.05446915917752704,"314":-0.024558598834641444,"315":0.06433473849060253,"316":0.014950050487008091,"317":-0.03473815344620103,"318":0.004951223039691553,"319":0.022884795120869373,"320":-0.06306096963716404,"321":-0.08296630204942473,"322":0.016978747761263024,"323":-0.12744742477181345,"324":-0.032916185480923024,"325":-0.13812965290728862,"326":-0.00768856025540421,"327":-0.04569852050502996,"328":0.03700001533420428,"329":0.09192251175252712,"330":-0.23096982250948228,"331":-0.11151243925195498,"332":-0.0285408244312288,"333":-0.011165923392272932,"334":0.03633123601359944,"335":-0.10178592445599516,"336":0.08824168111809913,"337":0.052908050809109215,"338":-0.17391744533353526,"339":0.13440542523430776,"340":0.010197931552137902,"341":-0.015100776695230394,"342":-0.027921890822022236,"343":0.028399832233324866,"344":-0.06960352804946779,"345":-0.11121060778988308,"346":0.12496387588279467,"347":0.13091547928183103,"348":-0.03961768507568972,"349":0.058862555502097874,"350":0.00014036139818496125,"351":-0.09777993521237285,"352":-0.11445861764019209,"353":0.08533588732934878,"354":0.09238241465192504,"355":0.05424587753695025,"356":0.06649250845470392,"357":0.012385350198115768,"358":0.009201967095786622,"359":-0.06721814910010727,"360":0.02051577142596855,"361":0.1103140095452603,"362":-0.013985948356535913,"363":0.003533256547700717,"364":0.03937461829515711,"365":-0.06528382496620272,"366":-0.022011097236440954,"367":-0.005074520011246756,"368":0.2031527384947992,"369":0.00842396668336041,"370":-0.017240544484076328,"371":-0.002158757599409582,"372":-0.014020185118571244,"373":-0.07143781207429646,"374":0.06711961441095814,"375":0.1048641462483221,"376":0.010297842917037885,"377":-0.0016643690734773385,"378":0.007003087603866071,"379":-0.10080013099276616,"380":-0.12650693651414432,"381":0.07472655608170399,"382":0.107821209109677,"383":-0.03822360738591464,"384":-0.04293763384753991,"385":-0.08256940517237361,"386":0.0630108938115562,"387":-0.040844032055967594,"388":0.07118370182531104,"389":0.18208615535196943,"390":-0.0199749042910157,"391":-0.08560164299838115,"392":0.007234354212466916,"393":-0.0750316423181332,"394":0.019075280293507486,"395":0.04311261896177783,"396":0.017054596093760428,"397":0.064625082678484,"398":0.06505288734894246,"399":-0.013968802286944037,"400":-0.003632215252616732,"401":-0.05954001440353582,"402":-0.0349278951183861,"403":0.05080091411641938,"404":-0.0012764876875353613,"405":-0.02708712841405955,"406":0.03177666895223873,"407":0.03756655978800356,"408":0.010912737652591797,"409":0.06712110513142618,"410":0.046011073020351324,"411":0.012236243732721723,"412":-0.08026095105512145,"413":0.029964760587219023,"414":-0.04147412785534544,"415":0.043550688289409216,"416":0.040281457117506345,"417":-0.03516271921094027,"418":0.045844417432172845,"419":-0.021943231762221634}},{"sx":1,"sy":1,"depth":420,"w":{"0":0.12183024870686866,"1":0.039119322313390714,"2":0.1675362217080526,"3":-0.006461556536091077,"4":-0.047206689151599195,"5":-0.04684974780475278,"6":0.02146782148111398,"7":-0.0037701277220196124,"8":0.14020007179686989,"9":0.052769141293883895,"10":0.05816559222723694,"11":-0.03443660781257071,"12":-0.1228748660543642,"13":-0.018801651718154185,"14":0.1349711506933713,"15":0.09286168308374768,"16":0.10507271291262,"17":-0.006500733944620041,"18":-0.02156566259175369,"19":-0.013063936224017606,"20":0.027271231453839386,"21":-0.08189337410933611,"22":0.09961354239271508,"23":0.0798744284768783,"24":0.055549700360620416,"25":-0.04001426829574184,"26":-0.06705902129835985,"27":0.08915124739655066,"28":0.07201538129680927,"29":0.07327129067075443,"30":0.01722929887745769,"31":0.012817232538617183,"32":-0.09671307048795887,"33":-0.07778626644600747,"34":-0.03781387259791078,"35":-0.009273834830119607,"36":0.15938437234613337,"37":-0.015523764824462775,"38":0.01993649727297668,"39":-0.059630780100319004,"40":0.0418205984659358,"41":-0.07831332077424197,"42":-0.07218078989706447,"43":0.07067103962188871,"44":-0.06364659655662679,"45":0.06088149649536897,"46":0.016492448189560974,"47":0.0006496519356913755,"48":0.016215787358317794,"49":0.08244581298690173,"50":0.1515015031216023,"51":0.002498496057816628,"52":0.015989917819262744,"53":-0.02972576402953635,"54":-0.16294316008908524,"55":-0.07866312970126153,"56":-0.11797790477986905,"57":-0.006491756308696849,"58":-0.17188128675005077,"59":-0.11092984796720275,"60":-0.12947290983579535,"61":0.043298934369094086,"62":0.027194283974660307,"63":0.11285228798608295,"64":0.11246456137801086,"65":-0.03213452141888473,"66":-0.0724947642451316,"67":-0.1458428627067651,"68":0.014065566519084511,"69":-0.01848365448002062,"70":-0.0640604249972281,"71":0.0489994630067844,"72":-0.08357400263885843,"73":-0.06011377998281309,"74":-0.1008946355568361,"75":-0.005777040141790547,"76":0.066143531825843,"77":0.0444058405367962,"78":0.03654165028995131,"79":-0.04910663633833031,"80":-0.004481991922643171,"81":-0.07740218600253715,"82":-0.012340700998419643,"83":0.0877825264016829,"84":0.11242526281156627,"85":0.054936762603498335,"86":-0.06814960729077327,"87":0.011091103613258298,"88":-0.028461507172764824,"89":-0.04788337380044756,"90":0.03515221545323552,"91":-0.004159569492343401,"92":0.17159498981782165,"93":-0.08671448346700777,"94":0.025332789771872588,"95":-0.06530560342049437,"96":0.010453440812790503,"97":-0.05445610741772249,"98":0.10160100720382736,"99":0.095323414630512,"100":-0.02025032259856359,"101":0.045823971429016945,"102":-0.05052068798908992,"103":-0.06664205864581396,"104":0.051406946963912424,"105":0.09095511026514311,"106":0.06553270697802392,"107":-0.09625606825272,"108":0.010516289396861654,"109":-0.03621700368287856,"110":-0.04391027974678611,"111":0.11952442147171241,"112":-0.057729504943989034,"113":0.02064312483894871,"114":-0.027719754208682185,"115":0.03831371450344711,"116":-0.09742203118314738,"117":0.017693675030989318,"118":0.05812454119551256,"119":0.029932317541551387,"120":-0.021371922621076078,"121":-0.17477002749999931,"122":0.051249156394184196,"123":-0.04124499855928142,"124":-0.037783890277989236,"125":0.08485144600319046,"126":-0.009216769232339092,"127":-0.04636977599567591,"128":-0.03329524691714672,"129":0.04319491800979866,"130":-0.04116919606148092,"131":-0.09261107972412737,"132":0.05894422471845008,"133":-0.04936298691792847,"134":0.07901948042521544,"135":-0.07307119217539944,"136":0.06698350413240318,"137":-0.16476166432209585,"138":0.03008076183186743,"139":-0.023243449329512098,"140":-0.05443958180609122,"141":-0.058483193454436554,"142":0.006791576244160158,"143":0.24214656320548755,"144":0.06940058395226748,"145":-0.04195251660366448,"146":-0.039749717008358214,"147":-0.024100496219522358,"148":-0.0247273705164729,"149":-0.023780090585397352,"150":-0.0006150206009056559,"151":0.033355831281488495,"152":0.012878968311632964,"153":-0.04655032271414309,"154":-0.1003828630182796,"155":-0.05379333411662086,"156":-0.06434733068415643,"157":0.206298694803006,"158":-0.020935800131934027,"159":0.02141440614996558,"160":0.05533669409896306,"161":-0.04754012302007472,"162":-0.017925957923221485,"163":-0.03800313103047046,"164":0.16108095187000454,"165":-0.010750692590871018,"166":-0.033734378503965504,"167":-0.040228477734193226,"168":-0.029608124612064704,"169":0.05705900635332083,"170":-0.03296959329810418,"171":0.1451416500336794,"172":-0.019784838204969197,"173":-0.0430704080517571,"174":0.02524208188305839,"175":-0.09039611559681467,"176":-0.06903782067327223,"177":0.0013991304125373374,"178":0.1200219540945426,"179":0.011044630775361695,"180":-0.10717154795781084,"181":-0.14794732997405288,"182":-0.003611679526914959,"183":-0.14128606219714995,"184":0.0486853599690592,"185":0.06861779039830447,"186":-0.05472435452810512,"187":-0.06227318800584416,"188":-0.05511346062793104,"189":0.01392439414929104,"190":-0.00496644806937486,"191":0.17786452350109944,"192":0.10448503723084705,"193":-0.030414427850057664,"194":0.05944834829980716,"195":-0.09255883411782961,"196":-0.035209672774527766,"197":-0.07064652346864837,"198":-0.057575457695567336,"199":-0.015394676748503904,"200":-0.1361650735092789,"201":-0.032153792158396664,"202":-0.09672805251128178,"203":0.024512874107598198,"204":-0.06971395375620891,"205":0.07558447399214319,"206":0.06341923903011991,"207":-0.0028290894975815713,"208":0.026104672384037554,"209":-0.03691619309305459,"210":0.014573537579544828,"211":-0.060683004111343634,"212":-0.04377813341810195,"213":0.15618593691408603,"214":-0.035657627723875616,"215":-0.017265839771076406,"216":0.005931244469229108,"217":-0.07062166614825142,"218":-0.11367549653996,"219":-0.1894610114648254,"220":0.1581433400824361,"221":0.029974926830124822,"222":-0.033287069498045836,"223":-0.006918875147199277,"224":-0.07585415486532322,"225":-0.10973689941553975,"226":-0.021604540408320563,"227":0.03718231281802008,"228":0.03912202935866345,"229":0.08540360167569132,"230":0.07735689947762292,"231":0.03786161792530573,"232":0.014212319023491708,"233":-0.20639740417549912,"234":0.029667603437303302,"235":0.07554285614488503,"236":0.07291433803434048,"237":0.0800457666445425,"238":-0.05704965089414584,"239":-0.04971863115643274,"240":-0.10022401834868097,"241":0.22178336197867451,"242":0.17070963650897242,"243":-0.06664557930556186,"244":-0.014769050519686359,"245":0.06298613232726757,"246":-0.04450496122516671,"247":-0.18938783573549242,"248":0.18484840608263992,"249":0.05020188496147436,"250":0.05883666589124183,"251":0.08336206562946206,"252":-0.04144766476048578,"253":-0.07572246398863065,"254":-0.07949051145422535,"255":0.13981362521416715,"256":0.1527602440594228,"257":0.06460546849559339,"258":0.07664090822309738,"259":-0.05091304559966844,"260":-0.1514776906344625,"261":-0.2761531528317203,"262":0.24347831079096252,"263":0.09459062237395682,"264":0.11920159941964405,"265":0.091884078044773,"266":-0.0035607837561940315,"267":0.018685516281912545,"268":-0.2415345679464303,"269":0.07821883877267735,"270":0.17533739685986574,"271":0.11304100900011169,"272":0.05802488629031271,"273":-0.1026439475475159,"274":-0.06422777468487005,"275":-0.3565684741848103,"276":0.18789001593135202,"277":0.06370697770659302,"278":0.11286489264119806,"279":-0.04628949488045745,"280":-0.03909918313947338,"281":-0.08545352766212114,"282":-0.34755207728071547,"283":0.45725464637514207,"284":-0.06222164201665719,"285":0.09586232924639645,"286":-0.06195595746043365,"287":-0.07154412372001089,"288":-0.10559492828522948,"289":-0.3098811814798302,"290":0.2536366677839149,"291":0.10096758955956336,"292":0.0900277244138486,"293":-0.04807022774052403,"294":-0.005696765639969872,"295":-0.11124266005619866,"296":-0.21816798510459717,"297":0.5235754063372945,"298":0.18572689267385797,"299":0.1481293652971219,"300":-0.01081726637206609,"301":-0.08994876572494392,"302":-0.1878219114416438,"303":-0.4554823741683863,"304":0.18834755350367957,"305":0.14761128571811924,"306":0.14536385024388782,"307":-0.007059866570404071,"308":-0.10333594509234409,"309":0.020133196648496634,"310":-0.6702218424144158,"311":0.3223746630810867,"312":0.21026437268606823,"313":0.06814566475349913,"314":-0.03584923268680946,"315":0.02891406382282748,"316":-0.10419385652189474,"317":-0.5313766213353572,"318":0.33621480098195317,"319":0.1456253497480445,"320":0.131963558845787,"321":0.07488926646729502,"322":0.06606575705637958,"323":-0.10047082609853372,"324":-0.649083807724348,"325":0.09757242691561929,"326":0.07407299283243848,"327":0.06984843429830365,"328":0.08444697076832851,"329":0.008255775186027962,"330":-0.008213909201788902,"331":-0.4887990369188917,"332":0.30577209876215433,"333":0.17881566788978215,"334":0.07419507451622552,"335":0.0958373967940119,"336":0.10050897817170744,"337":-0.09504039261171897,"338":-0.7575759252140906,"339":0.17482968701051296,"340":0.22773430539721962,"341":0.06242125759162495,"342":-0.013135258410013688,"343":0.001893845309774429,"344":-0.07189712069840208,"345":-0.748951002703544,"346":0.16541492575061909,"347":0.08142328201257211,"348":0.1099918782267706,"349":-0.03523433979337537,"350":0.0783623302397938,"351":0.050877173567868694,"352":-0.653052404989636,"353":0.08701731459939817,"354":0.04279653388101749,"355":-0.001845437329289499,"356":-0.1119017557323209,"357":-0.09815904086200905,"358":-0.01194456427750789,"359":-0.5574152264150533,"360":0.1562825398630403,"361":0.11759831793898716,"362":0.05515722295211844,"363":0.003955603527559515,"364":0.004263129927672742,"365":-0.06463276970950867,"366":-0.43675567432977996,"367":0.0886430560237756,"368":0.09532782951741958,"369":-0.044153694168715056,"370":-0.06363662192286632,"371":0.03359197124206349,"372":0.06357553130657166,"373":-0.2874565981661054,"374":0.11842857199835297,"375":0.04089800109233213,"376":-0.10370671661269691,"377":0.0749630515551323,"378":0.008018289990940265,"379":0.08131073294282794,"380":-0.374904943192762,"381":0.17773554101963718,"382":0.08145718364790824,"383":0.039494534622102326,"384":-0.036079677167531694,"385":-0.015489917713810995,"386":-0.007071053065980311,"387":0.010011333610082208,"388":0.14349424880252895,"389":-0.12274206988283268,"390":-0.0022862128962487707,"391":-0.084323177647306,"392":0.003954297576997139,"393":0.03025785020344735,"394":-0.03382907971918914,"395":0.29302853809140617,"396":-0.10750582677793351,"397":0.041466224154674,"398":0.19093073955082004,"399":0.061273257172016246,"400":0.13362893325698935,"401":-0.00042685902383832435,"402":0.25970836179920825,"403":-0.16291245622739164,"404":-0.04993774644300057,"405":-0.03314990661316228,"406":-0.04080073126070184,"407":-0.010859982903674318,"408":0.216935401345751,"409":0.2361833612847809,"410":-0.20270239465879708,"411":0.002868842939761028,"412":-0.12130435844769911,"413":0.08266815650323252,"414":0.13460802455623364,"415":0.16475360836323813,"416":0.05613597143649153,"417":-0.21507538298725212,"418":0.06939215904142519,"419":-0.040787591212752036}},{"sx":1,"sy":1,"depth":420,"w":{"0":0.006058822822475927,"1":0.09505939632700273,"2":-0.1689136342728346,"3":-0.18648802133220546,"4":-0.0688706126861535,"5":-0.09458205337725573,"6":-0.05723376792726195,"7":-0.03325960520468294,"8":0.21157227018925442,"9":0.02573291431422605,"10":0.004150603139878243,"11":0.10137425650985686,"12":0.11784549634106103,"13":0.12786220794407918,"14":-0.02044921402160075,"15":0.10091364048002315,"16":0.02737479377703438,"17":-0.07131241164014618,"18":0.006981142793058859,"19":0.04758103986333369,"20":0.06193453617630959,"21":-0.07575179732748294,"22":0.060485606304573385,"23":-0.07519758272656986,"24":0.06696546307229141,"25":0.07622816203716086,"26":0.10419316240424144,"27":0.05631649462971674,"28":0.06742650265020944,"29":0.047211161114010934,"30":0.027430380146771106,"31":-0.05772020416383829,"32":0.1361448813253651,"33":0.05397746604514778,"34":0.003690354445530599,"35":0.010441474207495765,"36":0.19246057857528467,"37":-0.12677602325322698,"38":-0.04588638245144671,"39":-0.020047203158454624,"40":-0.037726039444789604,"41":-0.05833254046546958,"42":-0.06976594817705287,"43":0.11869615916343419,"44":-0.013222497708814257,"45":-0.0035863381213106452,"46":-0.008111182298673025,"47":-0.02725236180760912,"48":0.02133414445619877,"49":-0.018593933601214092,"50":0.05781813776125709,"51":0.039784334702785626,"52":-0.1522571371298609,"53":0.04069895152167316,"54":0.02063668813118399,"55":0.16524362499755135,"56":0.1008255065744585,"57":0.19570090334810675,"58":-0.06349827856062246,"59":0.09313766044397417,"60":-0.020234939253756003,"61":-0.16142688564408855,"62":-0.02397205421511719,"63":-0.03415665126430479,"64":0.01779903518104187,"65":-0.056764248595166725,"66":0.02133805210304187,"67":0.03116722017869319,"68":-0.18839963700167897,"69":0.07343792639578682,"70":0.10922857679575992,"71":-0.028043472149778252,"72":0.016420884300096274,"73":0.15585311551524417,"74":0.11482711494673688,"75":0.10764410758015956,"76":-0.020661073134584297,"77":0.07592572589715765,"78":-0.017039628468540593,"79":0.10104663327448038,"80":0.09350564819945892,"81":0.042683895531503785,"82":-0.17398960001238187,"83":-0.04304789064531529,"84":0.0013385883416655606,"85":0.0030466913018384182,"86":0.005480639596682358,"87":0.11200738964756053,"88":0.04358935329385999,"89":-0.10653781245263542,"90":0.074485568379759,"91":-0.009864048134805771,"92":0.01074891330772697,"93":-0.04975630156420844,"94":0.14019553514436695,"95":0.10942159789263169,"96":-0.11372438548014067,"97":0.018684118695079906,"98":-0.023657201534271484,"99":-0.11123052874172218,"100":-0.04183099268551231,"101":0.11981817670454524,"102":0.07127957658093143,"103":-0.1431711106571251,"104":-0.027976441092024757,"105":-0.06645816284690634,"106":-0.10546457679599976,"107":0.017397164285853278,"108":0.15678391242381137,"109":0.16670206958511324,"110":0.08212857702578143,"111":-0.07024415262011073,"112":-0.052116768297994644,"113":0.049246784665247276,"114":0.02499344101116751,"115":-0.06852263892302757,"116":0.11251252075763858,"117":-0.11645170164101443,"118":0.08890914113620384,"119":-0.07812634792396538,"120":0.051431157403230864,"121":0.07070830141516378,"122":0.023013812497485478,"123":0.007455268972839948,"124":-0.0035107966425106094,"125":-0.09307241873051632,"126":-0.04271700420932962,"127":0.11188239331155571,"128":0.007773203417534964,"129":0.030090182676763423,"130":-0.04282771141933607,"131":0.023293962834105942,"132":-0.025247074096100088,"133":0.025230582540527954,"134":0.028527368820252533,"135":0.01687032861969595,"136":0.13228163117620392,"137":-0.0001451823823800474,"138":0.15003200694945365,"139":0.10938082985592747,"140":-0.017178558644599072,"141":0.034925589449422735,"142":0.042103564560670916,"143":0.12930667235043394,"144":0.047839268121356956,"145":0.17353457888698606,"146":-0.004052825164724831,"147":-0.06594129175495182,"148":-0.09176400651280252,"149":-0.006081813096566454,"150":0.16559435374784578,"151":0.13020104359554377,"152":-0.00040460623791936076,"153":0.06731013040682612,"154":0.0396483421595044,"155":0.006942626869491258,"156":-0.07838216522107201,"157":0.000604112594285805,"158":-0.07195684757133865,"159":-0.037034957460949085,"160":0.0076233367074172555,"161":-0.08438561965316989,"162":-0.00017494461101102683,"163":0.06276202360524119,"164":0.05723301540392635,"165":-0.07758509417389202,"166":-0.1399885886137951,"167":0.00948203503832191,"168":0.023236947598684082,"169":-0.005901318816431802,"170":0.018978913105508203,"171":0.04878060324683747,"172":0.08052138275876991,"173":-0.011827460290775929,"174":0.07396227353375542,"175":0.09009496011116254,"176":-0.047713411516096704,"177":-0.016735137116125627,"178":0.07005952397563234,"179":-0.12368526206835051,"180":-0.02147178517436734,"181":-0.17006163495383436,"182":0.08457633001244845,"183":-0.16961858858896894,"184":-0.007534205177535644,"185":0.07185148141413901,"186":-0.0872783579592612,"187":0.011297157525565496,"188":-0.14239070605532025,"189":0.09117362697494459,"190":-0.13859450701086026,"191":0.03153920986531773,"192":-0.03980669933636643,"193":-0.04126492620160673,"194":0.027641141727078114,"195":-0.030593193980192127,"196":-0.030956408698371504,"197":-0.04819482332494266,"198":-0.04457981109956446,"199":0.16690842044853202,"200":-0.0008273538067761517,"201":-0.0034669019722406704,"202":-0.0756202738835693,"203":0.024722199499096358,"204":0.0012291901807494304,"205":-0.012479862392811129,"206":-0.0800843655640773,"207":0.016341756849865514,"208":-0.01612977156937526,"209":0.05811318283495964,"210":0.024880297558523456,"211":-0.013179862843736132,"212":0.06923552177702452,"213":0.04678617048595743,"214":0.03653783847154975,"215":0.08016804199719008,"216":0.05128227671808562,"217":0.0609444340766889,"218":0.05888626102847107,"219":0.09620956343227957,"220":0.054161109041288964,"221":-0.016075634928182526,"222":-0.015585816701119956,"223":0.08913221530085566,"224":-0.018630452772822017,"225":-0.10872166749141282,"226":0.002964988019476255,"227":0.06141709138140576,"228":0.053608800839546056,"229":0.005785347399700004,"230":0.04046615394355167,"231":-0.016821766644513715,"232":-0.10246174525996496,"233":0.08709208823559099,"234":0.11414490233837528,"235":0.03989054883853141,"236":-0.06589150140109475,"237":0.056296728665715265,"238":-0.03078550623379878,"239":-0.008063241351451676,"240":-0.012047305214262035,"241":0.025088450554993494,"242":-0.05186630261855156,"243":0.06402058309899078,"244":-0.15256847067205867,"245":-0.1304423351514381,"246":0.04352577350426897,"247":-0.13694522288234884,"248":0.4288042528692959,"249":0.007104897920729548,"250":0.1734224596192471,"251":-0.16824201198066024,"252":-0.05904733595980826,"253":-0.07338703264286463,"254":0.05727541893478166,"255":-0.03875995686964845,"256":0.1284194544550163,"257":-0.01342413814211133,"258":0.023227845034225272,"259":-0.07210618600908049,"260":-0.10134073537581663,"261":-0.11000460913490256,"262":0.11034545819250988,"263":0.13964333509109864,"264":-0.039080010991721655,"265":-0.0038650170093039323,"266":-0.001745739940383462,"267":-0.024131418905495788,"268":-0.14844202773914145,"269":0.12210948929117632,"270":-0.029820088090713612,"271":0.05262645655341429,"272":-0.06815414871748897,"273":0.045597586824202174,"274":-0.08781606078581698,"275":0.0591308741863686,"276":-0.36043757913125385,"277":0.04768359828379877,"278":0.010069983349601361,"279":-0.12693234583159893,"280":-0.03849572886474588,"281":-0.07914771172606268,"282":-0.01098016362032625,"283":0.10904453978768038,"284":0.10116071926252138,"285":0.04283540615305619,"286":-0.1289733343455777,"287":-0.011284386674626702,"288":-0.19663577416549965,"289":-0.10223795577925375,"290":0.12347995891046597,"291":0.05011484570465792,"292":-0.0046768032392459,"293":-0.05669486665120631,"294":-0.024170685460949456,"295":-0.00025915642419632766,"296":-0.22887317288814574,"297":0.4386014283097095,"298":-0.005855135586011411,"299":0.021192403625208626,"300":0.15293655623916338,"301":-0.11251968796078617,"302":-0.059415077923540977,"303":-0.1065646607366286,"304":-0.2467523138513172,"305":0.15755019032759726,"306":-0.028121570914852494,"307":-0.07387321247732989,"308":-0.05125922284766125,"309":0.010551258776617528,"310":-0.022120123501115932,"311":-0.36152180034794307,"312":-0.08337416153376874,"313":-0.03827478591676853,"314":-0.023199567936201246,"315":-0.0909146731250428,"316":0.014269672523142419,"317":-0.01794394859781511,"318":-0.4016530872456726,"319":-0.13093148480222797,"320":-0.21560089446896347,"321":-0.06448772862931672,"322":0.00461318940178421,"323":-0.03690293391995607,"324":0.042562099712449626,"325":-0.6934566184805014,"326":-0.03939470037856265,"327":-0.13161776177582446,"328":0.09728383666132648,"329":0.09748748408531012,"330":0.018020517993634255,"331":-0.06565992437659138,"332":0.06310264186164147,"333":-0.3110773056245724,"334":0.004995538702793623,"335":0.07986432704725796,"336":0.10618596341876743,"337":0.10917160637253748,"338":0.0201688756178963,"339":0.05772092826064117,"340":-0.3789419480494447,"341":-0.09903671407580657,"342":-0.08691423000943096,"343":-0.008244542296531878,"344":0.06022252447656892,"345":0.20608939445686306,"346":0.11195406006192005,"347":-0.537030055054458,"348":-0.1401102290517856,"349":0.04042685193383177,"350":-0.012686343712214315,"351":0.058749148042242585,"352":0.09725795377603404,"353":0.4755142241078559,"354":-0.5120998169429472,"355":0.0490698741671025,"356":-0.08437998616079724,"357":-0.017952522462298937,"358":0.18682992423627656,"359":0.038102080016100166,"360":0.471541201442314,"361":-0.5763102876578197,"362":-0.10748669707723021,"363":0.1656999052691164,"364":0.0061711795914830584,"365":-0.013822970193790135,"366":0.09603717731809443,"367":0.46107290498777587,"368":-0.8259628496922735,"369":-0.03036725915058436,"370":-0.09828586745890638,"371":-0.0010423437621744026,"372":0.16616480655797183,"373":0.20563791653587568,"374":0.520492152216556,"375":-0.8223128708754706,"376":-0.02740199741967171,"377":-0.12204239164554528,"378":-0.11473038933151451,"379":-0.017599805539770634,"380":0.2390834586571755,"381":0.013534082701180093,"382":-0.8284964562252813,"383":-0.1508385306549694,"384":0.013226869033790058,"385":0.005470132414802299,"386":0.04110404129773986,"387":0.06928232664123643,"388":-0.0636932314941589,"389":-0.9978718771181248,"390":-0.0008769996926236208,"391":-0.02362577629836073,"392":-0.027150839302237124,"393":0.06882901546970205,"394":-0.012421230938413248,"395":-0.011659697848276087,"396":-0.816600725362414,"397":0.019902741885547023,"398":-0.02621132035373302,"399":-0.00531117522335852,"400":-0.03127007257693955,"401":-0.05854439801516918,"402":-0.015710971954999504,"403":-0.7548202258160646,"404":0.02851259302133168,"405":0.040718817687983654,"406":0.07908869536471255,"407":0.006678554659214935,"408":0.043284957511078775,"409":-0.07514449027871035,"410":-0.9098808131800016,"411":0.03156731003388158,"412":0.16473755361523185,"413":0.12809528419896993,"414":-0.007388936567083023,"415":-0.11945536745808258,"416":0.09224057773665262,"417":-0.9042170275034531,"418":-0.00615704671471285,"419":0.20925034820766653}},{"sx":1,"sy":1,"depth":420,"w":{"0":0.05287784351052842,"1":-0.08549917536758735,"2":0.03464023515344934,"3":0.12868194778396155,"4":-0.045937622428632675,"5":0.11773503634131387,"6":0.039693645825141025,"7":-0.027370957660944075,"8":0.026044208641111764,"9":-0.09699164729560349,"10":0.14590884526755624,"11":-0.11921698152653569,"12":0.12602007181007424,"13":-0.08359232987778133,"14":0.030479746841358218,"15":0.06310123380739714,"16":-0.11898030085281922,"17":-0.06669911936929887,"18":-0.10693758283730644,"19":-0.09570421293448744,"20":0.07642526100129805,"21":0.04546798432377041,"22":-0.018274605725487045,"23":-0.008859727617189905,"24":-0.016161404755663408,"25":-0.08423344996756459,"26":-0.0026414506178296247,"27":-0.052375044467882555,"28":0.03708866404696586,"29":0.022273770279010452,"30":-0.053228985485186606,"31":-0.08527815705272186,"32":-0.04198897171756609,"33":0.0763344506640079,"34":-0.1580803765192544,"35":0.007968351063908289,"36":-0.020208128048105355,"37":-0.015670305519592902,"38":-0.035476572287425026,"39":-0.03687995566102221,"40":0.0826871923394555,"41":0.005873487139744624,"42":0.16389578073403013,"43":0.026800146356729563,"44":-0.06504324486064135,"45":-0.02960339261300695,"46":-0.09738012947923169,"47":0.12793301097870577,"48":-0.04070489137752456,"49":0.14309423660314716,"50":0.01368481333882609,"51":-0.002508752432517551,"52":0.024895303084800088,"53":-0.11512785136468726,"54":-0.004337172987672583,"55":-0.1222777195248182,"56":0.04551215931129758,"57":0.10170421088797398,"58":0.032809454423056335,"59":0.026348219840780302,"60":-0.04239247102056849,"61":0.005596429749255434,"62":0.0435746776016492,"63":0.003690431178415386,"64":0.022173762147386183,"65":-0.0480879731018518,"66":-0.07194181538180146,"67":-0.07031502126534038,"68":-0.04516195436498946,"69":-0.08912981006949551,"70":0.038183697250804546,"71":-0.04270929059350121,"72":-0.15449925626148836,"73":0.026751409804000828,"74":-0.10465272485092535,"75":-0.07919255187794275,"76":-0.028613779997646773,"77":0.030781398253380124,"78":0.04569645342376974,"79":-0.043790245882391866,"80":-0.017644170973849838,"81":0.021288033830767897,"82":-0.06393998051193549,"83":-0.05742947362721252,"84":0.1148245266124056,"85":-0.07136865991535264,"86":-0.006651388493494394,"87":0.06323605365319869,"88":0.07829507025123346,"89":0.025706823557290467,"90":-0.06353224511473456,"91":0.03198445850014015,"92":-0.04446588993309752,"93":0.018912246184055688,"94":0.07482903196066817,"95":-0.00008452153490535967,"96":-0.07391360373291832,"97":0.020434883976644783,"98":0.028156312217566936,"99":-0.05909729244985738,"100":0.0010250063096001842,"101":0.029010951298774634,"102":-0.0240457081791233,"103":-0.028136279272186586,"104":-0.011600534000141022,"105":0.021312157443701626,"106":-0.08435255024612995,"107":-0.025657228712048286,"108":-0.13630294751183888,"109":-0.18282331743848712,"110":0.02284610091679361,"111":-0.11360017191923212,"112":-0.0008542072128851479,"113":-0.064344360357128,"114":-0.028794002704728493,"115":0.04294085974088884,"116":-0.10363962107014604,"117":-0.027176579973516708,"118":0.006303083203957064,"119":-0.012523393830111496,"120":0.0014920618519362512,"121":-0.02295840736039021,"122":-0.013643441747771958,"123":-0.0319020144796945,"124":-0.115380719263271,"125":0.09944972166878917,"126":-0.029707150633663453,"127":0.014102519961393603,"128":0.004424709535531828,"129":-0.03622216217031261,"130":-0.07459598933903314,"131":0.08240909706566689,"132":0.13187958096639044,"133":-0.008998472633882378,"134":-0.09082845448698885,"135":-0.11280637661047234,"136":-0.2008336430214124,"137":-0.009297626745695902,"138":0.08923582473724914,"139":0.0973566305762535,"140":-0.017130678381826386,"141":-0.007492831869870173,"142":-0.007220928373191195,"143":-0.09657924143204695,"144":-0.0844339720148257,"145":0.036012717451688145,"146":-0.02860016137829075,"147":-0.047020483750303065,"148":0.002693970538656343,"149":0.09706736361675217,"150":-0.023636872643135534,"151":-0.09556097534466869,"152":0.06426937243842436,"153":-0.05340279832799057,"154":-0.08194813536991083,"155":-0.08649440876045511,"156":0.14022598027758285,"157":-0.03999837266275339,"158":-0.01982471523410969,"159":-0.14898728453227775,"160":-0.05774365292301321,"161":-0.04938292447433519,"162":-0.02751520682444004,"163":0.13790097983643726,"164":0.012930053542136907,"165":0.07731189089686892,"166":-0.07708672914384428,"167":-0.04936821106680668,"168":-0.08581566251369982,"169":-0.18471598871821887,"170":0.032502650391865735,"171":-0.11131412600891313,"172":-0.07970670743240153,"173":-0.1258934285818529,"174":-0.03780518012098676,"175":-0.010807737399828267,"176":-0.14359061380776017,"177":0.027227730537941253,"178":-0.218653659739103,"179":0.03724821323965905,"180":-0.05946613336454299,"181":0.08325059123659026,"182":-0.05213161801648737,"183":0.0009841328694954906,"184":0.02435311745535285,"185":-0.055312941803123294,"186":-0.13716110781488763,"187":-0.02446533015538515,"188":0.056067541450576734,"189":-0.0037001225587504896,"190":-0.13979417250367507,"191":-0.020725033445022693,"192":-0.21790085756942612,"193":-0.08752435856060002,"194":0.10152410473077728,"195":0.08019202461130351,"196":0.025301214971619933,"197":-0.044917994318853495,"198":0.025562409291761713,"199":-0.08644193276241628,"200":-0.029608312399618017,"201":0.14218891639679737,"202":0.12060450273073414,"203":0.027473478943262616,"204":-0.020076629017430195,"205":-0.027971960672085773,"206":-0.048038360314351485,"207":0.029191058209926065,"208":0.007997465117480382,"209":0.06884604430707149,"210":0.07054928316406842,"211":-0.09309611619535553,"212":0.04376788159369661,"213":0.04825124768949271,"214":0.10455691770542845,"215":0.08136921335002278,"216":-0.019266408023380616,"217":-0.05512398609071998,"218":-0.06549440952116993,"219":0.15438134528078154,"220":0.11888619200264834,"221":-0.022280067010512897,"222":-0.047119940265324574,"223":-0.18505710027225145,"224":0.014814943115543653,"225":-0.040005164742678546,"226":0.023319957087458543,"227":0.017644295302938835,"228":0.006546053623123707,"229":0.01828297252050846,"230":-0.08010984554859746,"231":-0.03357394160609304,"232":0.00826457406356128,"233":0.016390236010668857,"234":0.0422964249994223,"235":0.06004508422655233,"236":0.0010014908580322538,"237":-0.08218466781120946,"238":0.07458629774943157,"239":0.02773592218492616,"240":-0.057956735194086076,"241":0.08867471269056953,"242":0.029119332911189174,"243":-0.002034926588048511,"244":-0.04199407112821821,"245":0.06612796183219767,"246":0.04188568509743836,"247":-0.0036218329426179552,"248":0.12631160700849994,"249":0.16001079419901745,"250":-0.1412792705084169,"251":-0.0936929353499342,"252":0.012088658899506308,"253":-0.02672724309341989,"254":-0.16108940041495948,"255":0.27304338603726747,"256":-0.016548246955870625,"257":0.08244880187106622,"258":-0.21958540764754023,"259":-0.010481090921562559,"260":0.04348089813507379,"261":-0.11832898672467346,"262":0.19740995697759406,"263":-0.006268512524198349,"264":0.009218586859024073,"265":-0.003289600195788473,"266":0.08207218655732039,"267":-0.004164126496355658,"268":-0.09729674531584623,"269":0.03163963417620673,"270":-0.029077527325971218,"271":0.0002887175809056719,"272":-0.023835068933926156,"273":-0.0735787171428022,"274":-0.04478628567581685,"275":-0.13305553110438242,"276":-0.0007077297814921963,"277":-0.034189050697460484,"278":0.032501453010095764,"279":0.04354123822772209,"280":-0.0002708869269998119,"281":-0.04636952876852137,"282":0.006596266169282514,"283":-0.019316502458327663,"284":0.0890235276376119,"285":-0.04496153014905296,"286":-0.037632577836448876,"287":0.04119367001626711,"288":0.009039679243508892,"289":-0.1426447818982547,"290":-0.05308324149645402,"291":0.04805882238115066,"292":-0.03118221762179261,"293":-0.01217990321445053,"294":0.024713579670519858,"295":0.013882771999081327,"296":-0.14350920519209295,"297":-0.16019098144099317,"298":-0.06761108834889112,"299":0.07443897675655957,"300":-0.12850302248858725,"301":0.020647444321673276,"302":-0.017616459377302156,"303":-0.07801204624122014,"304":0.09180511364160206,"305":-0.006225621213510208,"306":-0.006462326034702022,"307":0.0211266524514408,"308":0.041722340247411845,"309":0.06437693005454381,"310":-0.03898190372634342,"311":-0.03228181066732906,"312":0.06921300606671833,"313":-0.08405157032688874,"314":0.04732784953422604,"315":0.05223880878695599,"316":0.08856885584590417,"317":-0.024592145638000974,"318":-0.05613557921721056,"319":0.0932457221341635,"320":0.12605491644203842,"321":0.048727019550694535,"322":0.005854208682100619,"323":-0.017282504997209867,"324":0.012166081391517671,"325":0.014727025647845783,"326":0.06325605681419608,"327":0.042521046361248274,"328":0.023111414351072883,"329":0.005978349487518769,"330":0.011758352881598133,"331":0.01942027535760893,"332":-0.14685646284713053,"333":0.19435032752327785,"334":0.034115445399124075,"335":-0.03580316458287221,"336":0.14817737566435354,"337":-0.010715194196387586,"338":0.046322911757293424,"339":-0.044842936585430315,"340":0.09559860826655081,"341":-0.05283858869345988,"342":-0.047032193725900666,"343":-0.08039541192963606,"344":-0.009994986897377316,"345":0.11661051252515257,"346":-0.03231761327437347,"347":0.13375942580778108,"348":0.08071795820935779,"349":-0.07556345354360212,"350":-0.048040237639559356,"351":0.03942697148090569,"352":0.02328937375363288,"353":0.201707253735119,"354":0.22157617780070202,"355":0.046020637324749154,"356":-0.15228253078889248,"357":-0.08044047987444353,"358":-0.10443855175393987,"359":0.06473065209484095,"360":0.20032794258591438,"361":0.11504598295204015,"362":0.149003269973468,"363":-0.044677498499020876,"364":-0.07563124592238958,"365":-0.18664038459588414,"366":0.29224440385962097,"367":0.17720708973662755,"368":0.16010490712029313,"369":0.12057682210947795,"370":0.0607959949159214,"371":-0.05612031889004602,"372":-0.09034150595869685,"373":0.30641352029023305,"374":0.11001505564527062,"375":0.10337021872744594,"376":0.0012528378482039263,"377":-0.028318183551826963,"378":-0.009557419408663732,"379":-0.11805546912785882,"380":0.29162414207995163,"381":-0.09681005935684314,"382":0.09180979936283716,"383":0.01046401333361386,"384":0.025361149821803878,"385":-0.05405709478284763,"386":-0.06232071427394508,"387":0.288793284059644,"388":-0.043210435836955836,"389":0.3860379392758359,"390":-0.0754261450843742,"391":-0.11918750039305742,"392":0.04813666159160882,"393":0.0580590891489205,"394":0.15746610628314764,"395":-0.0012337616229812622,"396":0.2115139217209997,"397":0.008138432964157054,"398":-0.0785040875990736,"399":0.04428097625830062,"400":0.013355786101421477,"401":0.13377981959433505,"402":0.17580272471603725,"403":0.2883316706988455,"404":0.008487080482716125,"405":-0.07961148538658945,"406":0.06525939059810437,"407":-0.11262528520084102,"408":0.1141982264402763,"409":0.062065321881000855,"410":0.22503122283134228,"411":-0.03689146458298565,"412":-0.17096027773524203,"413":0.0495102295785637,"414":-0.0668960662936042,"415":0.1970108796849359,"416":0.11361984181469179,"417":0.1886020965240332,"418":-0.00976718089759215,"419":-0.1115673541916186}},{"sx":1,"sy":1,"depth":420,"w":{"0":0.05830239962477282,"1":0.00038751684877544844,"2":0.0007266478349258491,"3":0.05699684415987411,"4":0.04920098685841506,"5":0.010612886861989477,"6":0.1088241397815002,"7":-0.002011104066935425,"8":0.17961053520351966,"9":-0.07035538907034547,"10":0.11324061180673024,"11":0.017481673658499456,"12":0.13597476958612548,"13":0.053259620277154356,"14":-0.01202561296159106,"15":0.10979948619750916,"16":0.012776576798580824,"17":0.11825235959931296,"18":0.07368715720720675,"19":0.03856186534093291,"20":0.023629986247583987,"21":-0.04646030982670741,"22":-0.0006647886867371435,"23":0.018776014373313245,"24":0.13094131173913787,"25":0.02991136467341204,"26":0.03890075309738602,"27":0.10139840943046821,"28":0.042819904345541754,"29":0.047837554490926346,"30":-0.12262906965256573,"31":0.04489009442527862,"32":-0.02682613325950053,"33":0.04765011128132688,"34":0.07297281371474104,"35":-0.08234541257925378,"36":-0.06074689874372043,"37":-0.06202656980672731,"38":0.0964690252371519,"39":0.049618570806191135,"40":0.054195396931232105,"41":0.024556212543226295,"42":-0.06538046147270365,"43":0.0014985103946913191,"44":-0.12612781054520308,"45":0.04468500136213183,"46":-0.013074620454601244,"47":0.049709484944052175,"48":0.09567260778188674,"49":0.051025224617622926,"50":0.003327216358384022,"51":0.061908806055414635,"52":0.10922995888063561,"53":0.010729710507745632,"54":0.07357429913009446,"55":0.07001775130405409,"56":0.034409697132144444,"57":0.016202847526086594,"58":0.02274577892468513,"59":0.14619237894697185,"60":0.07515811096223707,"61":0.12293973854312842,"62":0.06170001156736858,"63":0.11932408323316655,"64":-0.018685227412722303,"65":0.03699592091647425,"66":-0.01883092633109758,"67":-0.07788850283844317,"68":0.09138091447459183,"69":0.1122801019004029,"70":0.06273677630493296,"71":0.004635025211931876,"72":0.0020615500511441064,"73":0.10686195424728315,"74":-0.17841327277747712,"75":0.006255315818929976,"76":0.11619095552041286,"77":0.03172843591828454,"78":0.0670246288436802,"79":0.2039822908480838,"80":-0.04691727016196955,"81":-0.005915618463620344,"82":0.11978165493262434,"83":0.15434333766534958,"84":0.04835526770108114,"85":0.07149832611048255,"86":0.10319948727997326,"87":0.005327194469398105,"88":-0.1405102498781634,"89":0.008788668811653008,"90":0.1370599984931183,"91":0.049185471559564584,"92":-0.007315158552960617,"93":0.0722061012397827,"94":-0.05155995353358881,"95":-0.04364007951018679,"96":0.01641577372768935,"97":0.0943655703856114,"98":0.07747268626065403,"99":0.03610117885488668,"100":0.09694784194632358,"101":-0.14823001411396808,"102":-0.1350585278303822,"103":0.015397876961527966,"104":0.02896374504425767,"105":-0.03226958067537964,"106":0.022525398159847786,"107":-0.057718870559785876,"108":-0.10533793679398369,"109":-0.09052609153895601,"110":-0.06164896533285283,"111":0.047096071839857874,"112":0.04535472560001387,"113":0.0046077217115270035,"114":0.002782333877665785,"115":-0.02226269987611195,"116":-0.09725946200912272,"117":0.04152619546945788,"118":0.05962291580268637,"119":0.056849164061581706,"120":-0.05178810591279709,"121":0.060369866940128206,"122":0.013393170259987965,"123":-0.04696119811322129,"124":0.04024798093272623,"125":0.05160182883680678,"126":0.06050425241348956,"127":-0.10418844503691166,"128":0.07497695765118431,"129":-0.05131535260639507,"130":-0.10748496312784031,"131":0.02695096834732336,"132":0.11050186374402196,"133":-0.047397773854756305,"134":-0.0033259415483732485,"135":0.09724261179747141,"136":-0.05310915143502475,"137":0.003126552294328541,"138":0.010299503118654936,"139":0.08710180600228729,"140":0.07473212734492911,"141":0.08138039639454801,"142":-0.08639402565940715,"143":0.02783015531282467,"144":-0.0878254483438727,"145":0.011700060030596598,"146":0.009270356909094592,"147":0.07130214569573713,"148":0.024875014227159906,"149":0.0924281949688934,"150":-0.006223539615115483,"151":-0.22860317968531652,"152":-0.017329887549958966,"153":-0.031894304038287594,"154":0.02791116439669008,"155":0.045823260557601615,"156":0.03769663109194189,"157":0.010202786995321018,"158":-0.188649707131244,"159":0.0738547054113861,"160":-0.00572691387467603,"161":-0.047305053930350546,"162":0.1410569453803166,"163":0.009746431756746258,"164":-0.06888945363133707,"165":-0.09309541487829513,"166":-0.0171728074740297,"167":-0.01992394341693295,"168":-0.07076165579640888,"169":0.059094720011153234,"170":0.10451072777081243,"171":-0.062475267813311176,"172":-0.15390681749039217,"173":-0.02955682200508835,"174":-0.027025406416398532,"175":0.03278476878753702,"176":0.08381621102951084,"177":0.044607535962070254,"178":0.00985446330400508,"179":-0.06367800833719556,"180":0.01753850922951327,"181":0.0071387182276507095,"182":-0.02129713438400287,"183":0.036829236715707196,"184":-0.01834689648678089,"185":0.0455316827973088,"186":-0.09543575893884731,"187":-0.09690577249947706,"188":0.019916202768413105,"189":-0.022195988309325444,"190":0.002526260602385124,"191":-0.041589508209714375,"192":-0.09087443505886038,"193":-0.13134059528477132,"194":0.00798519228923303,"195":0.07743136978969097,"196":-0.012299264979814718,"197":-0.01917662670376785,"198":-0.03798801305811994,"199":-0.015904432539726482,"200":-0.2361436234453363,"201":-0.024229812439920086,"202":0.01693503825488356,"203":-0.07515481609286756,"204":0.09815954705687766,"205":-0.004388224149137077,"206":-0.025934611141362456,"207":-0.19865035891655625,"208":0.010075535561777673,"209":0.07898872791600492,"210":-0.11068836963253817,"211":0.0485728308802868,"212":0.003673114188875118,"213":-0.0609962786218477,"214":-0.18692071909258634,"215":0.05199266112006963,"216":-0.124074026712138,"217":0.005416365975991416,"218":-0.019870373658567753,"219":-0.024675227785168324,"220":-0.07921334337526607,"221":-0.09666460270040751,"222":0.02078093827737484,"223":-0.05375975016191976,"224":0.00795291332568411,"225":-0.04349304918727966,"226":0.0038259984783502042,"227":-0.0004463273459745373,"228":-0.16238058085409407,"229":0.036740337704201535,"230":0.06293759230109187,"231":-0.05996437403694286,"232":0.07997107444074238,"233":0.008583878196062234,"234":0.03779174754526213,"235":-0.07371825447038541,"236":-0.06644812563356264,"237":0.1107305927357628,"238":-0.16476634892427222,"239":-0.03245364145638949,"240":-0.11331021838502364,"241":0.07977233690978873,"242":-0.16817817649792915,"243":-0.01477388834542925,"244":0.06762101955386927,"245":-0.0648157034040902,"246":0.042960702783734234,"247":-0.09866797880600026,"248":-0.09152815383020628,"249":-0.23070959987315415,"250":-0.08898479832713227,"251":0.06141713508091482,"252":0.041479517165233314,"253":-0.03189499947601309,"254":0.06840984513923383,"255":-0.04956437506340507,"256":-0.1993931817547658,"257":0.07853850665118794,"258":0.006378042572327558,"259":0.060433673224836,"260":0.040695597538722,"261":-0.0813795019676374,"262":-0.11666708738507298,"263":-0.23649122286788488,"264":-0.06463578708155153,"265":-0.0165450283245334,"266":-0.021703085721939804,"267":0.018533578932499798,"268":-0.14458414317822119,"269":-0.05101506648082264,"270":-0.1943040848920047,"271":0.04274200625800806,"272":0.06455313693869952,"273":0.0006424920134085012,"274":0.03713830251854884,"275":-0.048649403894382284,"276":-0.09079952653521041,"277":-0.1336361197446476,"278":0.004520655837827181,"279":0.09422406596311987,"280":-0.02619968446969131,"281":0.10908416955155859,"282":0.004373626110271835,"283":0.18647205428815694,"284":-0.11551076899131735,"285":0.02416500470940924,"286":0.057717523034239965,"287":0.027105002011721432,"288":0.026971291551678035,"289":0.08369795206169739,"290":0.10163919427126232,"291":-0.17423307301514937,"292":-0.03363510124607572,"293":-0.014637386722938996,"294":0.10379007905604741,"295":-0.03117277947054775,"296":0.09328833344748856,"297":0.015077805519382051,"298":-0.20866410531492963,"299":-0.02137499869637501,"300":-0.036681039851280656,"301":0.019504849452040566,"302":-0.012889211491997956,"303":0.1549454219051275,"304":0.1346735304260355,"305":-0.16383613546977238,"306":-0.06132914675836295,"307":0.0029786604242597625,"308":0.02854707811690676,"309":0.008035365376813024,"310":0.1653100463968628,"311":-0.08047514454218772,"312":-0.32298382445337903,"313":0.023717167991787563,"314":-0.024443638611983783,"315":-0.07737242440281875,"316":0.034349453991675515,"317":0.1768585280180459,"318":-0.1435904808527864,"319":-0.31344901277109893,"320":-0.12483965955081067,"321":-0.01565874751481367,"322":0.006976586291979076,"323":0.030334262536291665,"324":0.19985633149649668,"325":-0.028790693036409323,"326":-0.20277021585700103,"327":-0.00419187397389294,"328":-0.04482112085491629,"329":-0.05392653383776701,"330":0.10763136457847759,"331":0.0618974882514638,"332":0.12139447215229003,"333":-0.25288379423843615,"334":-0.05390251004767343,"335":-0.06646095575245438,"336":0.14748100191524047,"337":-0.009520759915226745,"338":0.02956608133019981,"339":0.047833711339770095,"340":-0.09429746547537801,"341":-0.07791387994685485,"342":-0.00819311370535382,"343":0.07082761299017448,"344":0.0954289377984588,"345":-0.01437066289296442,"346":0.1240368184617065,"347":-0.2876104006221041,"348":-0.08916409527097423,"349":-0.035798323747374204,"350":0.10369030466706745,"351":0.13149949723369464,"352":0.11798174770372295,"353":0.00716369491527756,"354":-0.13666181121461174,"355":-0.04239714626335323,"356":-0.025846726345776793,"357":0.10203530433104531,"358":0.022846078472397596,"359":0.23000707537303594,"360":-0.033630573781415964,"361":-0.13964553144243977,"362":0.06173156404676678,"363":0.024676160558080796,"364":0.026256139846280075,"365":0.060728244151828675,"366":0.15299340373884107,"367":0.056791059345863766,"368":-0.06807267517008618,"369":0.055718493852465016,"370":0.038547666828612985,"371":-0.09129234485384052,"372":0.01145548087939814,"373":0.16660407717632875,"374":0.09505825588163529,"375":0.01305443754161283,"376":0.15681957538540642,"377":0.05530418122493955,"378":0.031035170985817814,"379":0.06483360915342877,"380":0.20628265312877836,"381":0.08823479201215975,"382":0.018200239902400658,"383":0.08960274303606985,"384":-0.01858826363418508,"385":0.023472582348927056,"386":0.016085723910110948,"387":-0.07102809004139146,"388":0.19221949827902052,"389":0.14465705718828473,"390":0.12643960868691237,"391":0.1479043817101165,"392":-0.018677081498022656,"393":0.03300862266075379,"394":0.029460911687634015,"395":0.13650121948969074,"396":0.11384033621997869,"397":0.09239705381293545,"398":0.0036787504093468144,"399":0.005092444666716186,"400":0.12290950610570102,"401":0.10934814381524068,"402":0.18306684419988897,"403":0.18733011724199744,"404":-0.0033628774871416077,"405":-0.057431027659612104,"406":0.028131554936946787,"407":0.03930882505091438,"408":-0.055732626874712414,"409":0.12880233518633877,"410":0.2961338009526353,"411":-0.07118933326613311,"412":-0.026080528289971462,"413":-0.07660750453427334,"414":0.11360495313860351,"415":-0.023085958309225517,"416":0.118466965673393,"417":0.22686826882510316,"418":-0.059247469266364386,"419":0.03549878161955068}},{"sx":1,"sy":1,"depth":420,"w":{"0":-0.034064171668161065,"1":0.11970613450144343,"2":-0.09316544611205115,"3":0.010216212160812031,"4":-0.10339169517931125,"5":0.06698182255200053,"6":0.045747614193843704,"7":0.04216971263179342,"8":0.058449934846037964,"9":-0.08403019311415119,"10":0.08253161224243871,"11":0.050631854601185106,"12":-0.05460119779166639,"13":0.026120272729373364,"14":0.062491770620292215,"15":-0.03045014047780028,"16":0.03305430085815768,"17":0.007462692704601782,"18":-0.019949252568579507,"19":0.009752296768516019,"20":0.07797816858975419,"21":0.038759426289218725,"22":0.11226970253138281,"23":0.05409285010938799,"24":-0.05141443447764254,"25":0.03317986668248266,"26":0.027237848709081445,"27":0.062150931409058335,"28":0.10207792911435094,"29":0.001368290277251366,"30":0.05695836311220163,"31":-0.031863926053440246,"32":0.01501770452541777,"33":0.07205777643338089,"34":0.019416638668193167,"35":0.03025298898420733,"36":0.0679971604550337,"37":-0.015270851883702473,"38":0.02064059209882563,"39":-0.01776619743650551,"40":-0.041347035287377536,"41":0.025817656012106855,"42":0.049982816629324724,"43":0.11823195924770662,"44":0.11462755011019642,"45":-0.050707008872222556,"46":0.09039375673555106,"47":0.0477149873720307,"48":-0.012604709368403029,"49":-0.00320417320442766,"50":0.025145130978008447,"51":0.005459258845848642,"52":0.017632037064685017,"53":-0.014214549118307312,"54":-0.08763454128716792,"55":0.041939371750858996,"56":0.01697858340205346,"57":-0.021382484792584974,"58":0.01698771516999426,"59":0.036155051485011386,"60":-0.04609017957580595,"61":0.07539112836116535,"62":-0.006375048916274585,"63":0.048280033856563556,"64":0.09848753470323456,"65":-0.05572564743166558,"66":-0.019897750115220696,"67":0.03704335068077196,"68":-0.016351827738112397,"69":-0.06178749749791554,"70":-0.05490770783204364,"71":-0.047623365145586995,"72":-0.06513107341630789,"73":-0.027177571025764492,"74":-0.008378517350526856,"75":0.022217968742514995,"76":-0.048213918264915896,"77":-0.04569632049128075,"78":-0.04322662342694505,"79":0.035277741754944233,"80":0.05487303327856514,"81":-0.03034707648945432,"82":0.006506511905822944,"83":0.06623503011117794,"84":-0.04244726066786058,"85":-0.020485104782363837,"86":-0.025360024298130685,"87":-0.0623615463921053,"88":-0.06722429664609535,"89":-0.0030001099847165465,"90":-0.014856490358637094,"91":-0.032615185158949116,"92":0.0016606433015285377,"93":-0.06131192138807652,"94":-0.06264654255141945,"95":-0.00066869699357103,"96":-0.000255474055762446,"97":-0.016304185807010187,"98":-0.09024168411491097,"99":0.022771084374585096,"100":0.03311149864753858,"101":0.062376765607220774,"102":0.09537668144151634,"103":-0.0023534628276187883,"104":0.0059489667181588345,"105":-0.07700335954508364,"106":0.009398876084720044,"107":-0.022389342158744788,"108":0.014986561615604516,"109":-0.005173516060580072,"110":0.01765437880331893,"111":-0.0464817374635425,"112":0.0005993896445869945,"113":0.003557737876719905,"114":0.0010870609390948216,"115":-0.02276588779581077,"116":0.10439222904334802,"117":0.03841502925041969,"118":0.1016429059910513,"119":-0.05273868364628365,"120":0.01749367691150443,"121":0.01421510043744023,"122":0.10218270090705606,"123":0.10011784839987518,"124":0.08250997606447623,"125":0.06655386220388797,"126":0.031742162185669116,"127":-0.006169006147302343,"128":0.0481320583360068,"129":-0.0008568660469634356,"130":0.0011499634738728515,"131":-0.011542802645316546,"132":0.005290785047854606,"133":0.03954574349960655,"134":-0.008916885793956072,"135":0.09299726040269343,"136":-0.008267545249652654,"137":-0.04768264616584221,"138":0.011995439857778007,"139":-0.050110352192786874,"140":0.01175488395484884,"141":-0.05549936368678948,"142":-0.0006432822507797728,"143":0.058987996600426924,"144":0.022572185372604473,"145":-0.04741254409727061,"146":0.00026477096043698336,"147":0.03223050486910644,"148":0.03140891428502591,"149":0.039828939816979256,"150":-0.023491499168080566,"151":-0.021825166807279507,"152":-0.010133252630410925,"153":0.056476696210240145,"154":-0.026592147646581084,"155":0.0031419609611820893,"156":0.036327267121634976,"157":-0.011179001976895914,"158":0.04217325437729839,"159":0.00027771396083711285,"160":0.011574932492532603,"161":0.05153669248682101,"162":0.040022096282897233,"163":0.02315730723046039,"164":0.05832217124929454,"165":0.054652390801051415,"166":0.022934767298743993,"167":0.003502377234193386,"168":-0.04857814907807605,"169":0.08110207325246899,"170":-0.02513951901638484,"171":-0.060741044019996984,"172":0.002534187842952935,"173":0.09329372509710858,"174":0.028264139212150544,"175":0.022020909877254666,"176":0.10116977979376258,"177":-0.055066053102081895,"178":0.013322195993531733,"179":0.004429400839104216,"180":-0.018761504555140033,"181":-0.05996151676299923,"182":0.05472958643906502,"183":0.024475604536866098,"184":0.00686359990702513,"185":0.06730642232563341,"186":-0.010772003783710066,"187":0.054813064736062234,"188":0.12282368292405359,"189":0.04601166132045999,"190":-0.09844172989167671,"191":0.14356680029830116,"192":-0.034213247742029655,"193":0.0072163233967171975,"194":0.0203363529735304,"195":0.005064562193223516,"196":0.049263802355844794,"197":-0.02999651604596599,"198":-0.006014534160396513,"199":0.011093382460606035,"200":0.03194168221071681,"201":0.04132617021541112,"202":0.08186422411488493,"203":-0.04472560086839121,"204":0.06753548152846299,"205":0.03311866296151021,"206":0.03161238577615716,"207":0.011235599966986101,"208":-0.04415621397463003,"209":0.008044747716809046,"210":-0.024407530648416515,"211":-0.028747687728967387,"212":0.09590884175859926,"213":-0.03662083045323396,"214":-0.01180495609101795,"215":0.01576102320433237,"216":0.0030846793769525763,"217":0.044971531411213225,"218":0.009687557117566742,"219":-0.030419886886028365,"220":0.016556380561507968,"221":0.035282509142240084,"222":0.07311662781072564,"223":0.04253475911664086,"224":0.09737417760823343,"225":0.0864812772215212,"226":-0.08964995583319517,"227":-0.0026096492046647677,"228":0.15240298027965166,"229":0.0033810096873888975,"230":0.047308508429204546,"231":0.07108410061722881,"232":-0.12124922370018226,"233":0.08334679686926175,"234":0.004001275761517924,"235":-0.07495638434991232,"236":-0.03866481578625146,"237":-0.03790479277272969,"238":0.10927685119663984,"239":-0.03621360423804996,"240":0.015599574716550805,"241":-0.03800126155391419,"242":0.008563573052175807,"243":0.057628500832871604,"244":-0.04079892193795575,"245":0.07944308429419263,"246":0.007776459998439619,"247":-0.019124836202140706,"248":-0.05292939044252337,"249":0.015192639885372608,"250":-0.034096826025643456,"251":-0.038243193465003635,"252":-0.02487382237392815,"253":0.0009515528814809298,"254":0.016740483115645157,"255":0.10189534443470556,"256":-0.04218971243301019,"257":0.024992245083613723,"258":-0.0019646519301788237,"259":0.027305510369867413,"260":-0.023806655898709946,"261":0.036623063218058687,"262":-0.019031672185498984,"263":-0.016325917746014912,"264":0.035395693463573887,"265":0.05840001454245178,"266":-0.004593806804407406,"267":-0.04102304843596144,"268":-0.04970800737506238,"269":0.014040964331910731,"270":0.1278095512257349,"271":0.02895878752952813,"272":0.051995940662933754,"273":-0.06988139804472997,"274":0.06007089938819173,"275":0.0341370628033592,"276":0.08549029035161561,"277":-0.03776491049904986,"278":0.00841283532666368,"279":0.08479952784366125,"280":-0.0027231901201224262,"281":0.003738556734040284,"282":0.01423655856319023,"283":0.028497420791302915,"284":0.01721952529758389,"285":0.039996024841380526,"286":-0.06199570432876529,"287":-0.023989091698443554,"288":0.01342085526624272,"289":0.05711553995603113,"290":-0.016094072795129227,"291":0.028442128508945893,"292":-0.003715478358588943,"293":-0.048896941392898186,"294":0.030460815405400837,"295":0.01597577508081076,"296":0.006702766083730414,"297":0.10866654394233136,"298":-0.004772846491950343,"299":-0.021450904719357573,"300":0.0749528161043669,"301":0.014563978043363254,"302":0.09370694325139732,"303":0.010224129260004355,"304":-0.02888610240909765,"305":0.005863974543940087,"306":-0.07130572544694443,"307":-0.007485725259889537,"308":-0.06338791486941187,"309":-0.011135988624526638,"310":0.15858945941575486,"311":-0.0215316132818956,"312":-0.045346671535290504,"313":0.037049276909379154,"314":0.05929705979014857,"315":0.034214054394878936,"316":0.09909343911639482,"317":0.02020358251007929,"318":0.03076872010707518,"319":0.017107401765379417,"320":0.0692122323776602,"321":0.023324655144246427,"322":0.029857894591945374,"323":0.036301531150738565,"324":0.013257147957093188,"325":-0.015022735805631142,"326":0.03303347320753176,"327":0.02584893344442343,"328":-0.0015389917379879483,"329":0.03729703724325507,"330":0.08540775700369249,"331":0.009453167919441917,"332":-0.011074919167029955,"333":0.11171735075139169,"334":0.043137681490448596,"335":-0.06017458843601051,"336":-0.01990086625226243,"337":-0.04638848500685069,"338":0.07631257556747631,"339":-0.017721781560633917,"340":0.03175694089671894,"341":0.04698566516986192,"342":-0.04786466891082417,"343":-0.0055644171843669075,"344":-0.023112431528174097,"345":0.10557370102282664,"346":0.024369440629511147,"347":0.05311758037584991,"348":0.08482399097535981,"349":0.03534265444176997,"350":0.046657504164033296,"351":0.014337948491452323,"352":-0.03313564855722339,"353":0.1531747556735062,"354":0.09404715395641251,"355":0.07050419826000155,"356":-0.08231734615175254,"357":0.007807415250065192,"358":0.0408298306245558,"359":0.1170325631078855,"360":0.0072008820488729365,"361":-0.01708686218033438,"362":0.041791108551077094,"363":0.0422517514132252,"364":0.058647410929917855,"365":-0.03860429858152632,"366":0.015006859784427439,"367":0.07825597889698512,"368":0.02987054468976542,"369":0.07353825184484912,"370":0.09562625573784994,"371":-0.02230916609277974,"372":-0.001631981993809149,"373":0.08213688304088605,"374":0.07554710909948203,"375":-0.07063368932094691,"376":0.06497352992468797,"377":-0.09364382936382902,"378":0.07394012027399774,"379":-0.08118980790947848,"380":-0.04258486985487276,"381":0.08273872814392215,"382":0.0581488147976913,"383":0.05533991435467364,"384":-0.01693554480695846,"385":0.010774692745343387,"386":-0.04950358633666966,"387":0.038213070722585674,"388":-0.07460467995062764,"389":-0.0013347876535026516,"390":-0.06451114534898661,"391":0.0506497504210886,"392":0.03327659495265384,"393":-0.006454609043622506,"394":-0.011696510531732455,"395":0.02702125616037127,"396":0.02679587462821828,"397":0.02397065602891237,"398":-0.011918355995703523,"399":0.07476428098125018,"400":-0.006350023535607485,"401":-0.002061305768549607,"402":0.020495854328465107,"403":0.11649075335228268,"404":0.06513578887569547,"405":0.056447700824276935,"406":-0.0520493175342476,"407":0.08042544264015687,"408":-0.03542764645674718,"409":-0.009087350527101051,"410":-0.005123788715170165,"411":0.0026405730861957947,"412":0.017587310763913826,"413":-0.07438294609230954,"414":-0.00696424352787961,"415":-0.015089709603351585,"416":0.010123502168019037,"417":-0.01613894955322912,"418":-0.01183767171141489,"419":-0.020983390410257593}},{"sx":1,"sy":1,"depth":420,"w":{"0":-0.09745433985939402,"1":-0.07190602009245384,"2":0.008510326055656069,"3":0.059858078314725456,"4":-0.0425249852144628,"5":0.016706360102730893,"6":0.02484185838330327,"7":-0.004100728978209758,"8":-0.13399716228047875,"9":-0.1562087616209243,"10":0.028769589333448153,"11":-0.023696687405198605,"12":0.022975188987237993,"13":0.0085982516501653,"14":0.005541190258903576,"15":-0.15633620578079208,"16":-0.05985188181065582,"17":-0.04469477200050946,"18":-0.04046555161012726,"19":0.03993752083754456,"20":-0.00042950872031992696,"21":-0.03942372903682249,"22":-0.1715637978789965,"23":-0.0779011122907028,"24":-0.10650122379689038,"25":-0.12092725240326371,"26":0.04681999796913462,"27":0.11665738350654535,"28":-0.0326168543921464,"29":-0.16667613564458644,"30":-0.04315451017498487,"31":-0.006271649533395681,"32":0.002104690094317509,"33":0.11984625770766756,"34":-0.11190860682696716,"35":-0.10909804490254688,"36":-0.10797421697299484,"37":-0.09457607802242737,"38":-0.009235793274332736,"39":0.0044724529264836554,"40":-0.0037015585654285575,"41":-0.005979520513840657,"42":-0.20812196896235283,"43":-0.057554876506160126,"44":-0.0072171268659976555,"45":-0.023712825955999134,"46":0.03131489465688785,"47":0.004980319271525082,"48":-0.07595883446106426,"49":-0.13976798271809662,"50":-0.005426829909724876,"51":0.031372097603163104,"52":0.020394670445563548,"53":0.037289555835110705,"54":0.12989748054611513,"55":-0.1092642824530628,"56":-0.028604909274681015,"57":0.0033104591748103727,"58":0.02665794047079896,"59":0.03713321607167322,"60":0.04208764632906822,"61":-0.06767052253647253,"62":0.03030407888587439,"63":-0.10780769823472874,"64":-0.1291016582895484,"65":-0.08823303903265751,"66":-0.00645906216611696,"67":-0.002096730328093196,"68":0.010913331803446932,"69":0.07990761846856011,"70":-0.14515728524685123,"71":-0.11194229019800583,"72":0.016306056166121508,"73":-0.04236498393534183,"74":0.03255730113282935,"75":0.012326739221768423,"76":-0.013650872223555965,"77":-0.003485739064702707,"78":0.01097028054431113,"79":-0.1750515083310398,"80":-0.033625052187079445,"81":0.012745362771935862,"82":0.002140979421707411,"83":-0.02481941317408511,"84":-0.05800804037365922,"85":-0.06733668872700543,"86":-0.05861035900888464,"87":-0.001511478703091486,"88":-0.015773598895922933,"89":-0.023478601310367508,"90":-0.020533945436065012,"91":-0.03939348359220808,"92":0.020833932076800635,"93":-0.060780141443966915,"94":0.11720976987339746,"95":-0.013249375826165038,"96":0.03270774599144922,"97":-0.12746894338769443,"98":-0.006259776764319184,"99":-0.09969185273005304,"100":-0.023071515679411157,"101":0.12328356611224563,"102":-0.05203310970291378,"103":-0.06898585361555515,"104":-0.004158933219868187,"105":-0.17591982208306509,"106":0.023732267025090747,"107":-0.02575661086487997,"108":0.027295702379071612,"109":-0.004092003914682,"110":0.052088693259350505,"111":0.03318947147107783,"112":-0.12431150024997423,"113":-0.04327867391545661,"114":-0.013291218231003632,"115":0.030217032160002943,"116":-0.05131713145524399,"117":-0.004444130553574567,"118":-0.12825808349419202,"119":-0.01899590414745389,"120":-0.03403252710682939,"121":-0.024683813772392278,"122":-0.021284263518857597,"123":0.027977114678688814,"124":-0.06887213428236529,"125":-0.1275554556828212,"126":-0.11136013588012718,"127":-0.06528387928878145,"128":-0.06145954140094342,"129":-0.007949919384348629,"130":-0.0041917529248065785,"131":0.019282848081664958,"132":0.003441876718121313,"133":-0.05250643361273789,"134":0.04847948379803822,"135":-0.026603522647598764,"136":-0.03052417448788549,"137":-0.026772594145689096,"138":-0.1170297460105858,"139":-0.028224705212387426,"140":-0.13542583259095695,"141":-0.006865994644977888,"142":-0.1470802256477285,"143":0.07108940406350257,"144":0.07205526304475426,"145":-0.0310536597967204,"146":0.045118735681786,"147":-0.10349209525616163,"148":0.1052997252566458,"149":-0.11103262059740321,"150":0.08730607244205055,"151":0.03672883347491916,"152":-0.08647228762045261,"153":0.10430231278884425,"154":0.006874956390970953,"155":0.04393973424435548,"156":-0.07784092228524142,"157":0.09568790090096634,"158":0.06314541840402459,"159":-0.04602016822044302,"160":0.07571088751413955,"161":0.0246120474287784,"162":0.1373295077013743,"163":-0.14669415300674266,"164":-0.011194953297838818,"165":0.04726806681819226,"166":-0.027957153307477934,"167":0.0740970580448926,"168":-0.08879787648180816,"169":-0.00037894009082392995,"170":-0.032635760059284896,"171":0.0925185878784817,"172":-0.07793396756280538,"173":0.025903680941864942,"174":0.08402561635191914,"175":0.04556388708992524,"176":-0.051173499586546614,"177":-0.055804363519841305,"178":-0.05667186003290691,"179":-0.08205416584331285,"180":-0.08949519595888863,"181":-0.007462978510662111,"182":-0.04604901810973423,"183":0.015695247136713233,"184":0.08061905854432648,"185":-0.14344352073675787,"186":-0.015953774204592486,"187":-0.0019516091498581404,"188":0.020963256257168827,"189":-0.017396391478265872,"190":0.030203794913699736,"191":0.03390731495686181,"192":-0.11022551634376608,"193":-0.06731997648580786,"194":-0.03299150580288218,"195":0.0730614689451063,"196":0.051583876373155056,"197":-0.0281369726900264,"198":0.010417695532275829,"199":0.0812468873437535,"200":-0.18150559060637445,"201":-0.13933194995872303,"202":-0.12212557724590127,"203":-0.03853631642147557,"204":-0.018223334166694662,"205":-0.052017271978233845,"206":0.18994988880770144,"207":-0.15249580229238954,"208":-0.11404692200001809,"209":0.035849345104128946,"210":-0.035855514878816726,"211":0.05861115012434035,"212":0.027469787516527188,"213":0.1834846601499432,"214":-0.22391899701494444,"215":-0.08527347106225747,"216":-0.14167089079376965,"217":-0.05026316090208636,"218":-0.04019925147161805,"219":0.03786858849252272,"220":0.13725798867485103,"221":-0.0729621975629615,"222":-0.09061498445774693,"223":-0.016622748690823294,"224":-0.0036816778510844164,"225":-0.01630406673280861,"226":0.010820769183361667,"227":0.1014453896002066,"228":-0.07906710375483773,"229":-0.16274101372418773,"230":-0.06672727635437922,"231":0.0719464687782617,"232":-0.04274268490798719,"233":0.005556310045904371,"234":0.08828714021606082,"235":-0.08680684966953482,"236":-0.06551056198258047,"237":0.00027238221635279326,"238":0.07234424412762128,"239":-0.02625267095808709,"240":-0.06308083748608637,"241":0.057120736361109835,"242":-0.006084221233954812,"243":-0.05841195872768208,"244":-0.05262784201093106,"245":0.04116422806163521,"246":-0.061519095465065045,"247":-0.08883209918942811,"248":0.17795825919848088,"249":0.04659702513855294,"250":-0.1995453006150366,"251":-0.11566703529373719,"252":0.0373261851357883,"253":-0.03225314370069807,"254":0.07966442653148799,"255":0.18137837065342174,"256":0.0449421620111193,"257":-0.22576789042743994,"258":-0.08316603859997002,"259":0.020646449307888816,"260":0.045457050312967935,"261":0.06167583393650052,"262":0.11609737386798967,"263":-0.06891156601264567,"264":-0.0748541450070881,"265":-0.04297027545241181,"266":0.04141735805802848,"267":-0.03801583190743033,"268":-0.03973742973022274,"269":0.038581800063679804,"270":-0.053830614192669386,"271":-0.08583992197847322,"272":-0.01980204728633081,"273":0.05062734459149893,"274":0.040625006510284487,"275":-0.034023477733242595,"276":-0.12047619906085318,"277":-0.1289931257458421,"278":-0.1569089045551571,"279":-0.04628102702694559,"280":0.0723701456629255,"281":-0.06848420194570254,"282":-0.1050999454144132,"283":-0.10304507514472158,"284":0.03326124837400084,"285":0.022484129156858584,"286":0.0036154067515142994,"287":0.08616987635522276,"288":-0.10703261667021549,"289":-0.07833588378930412,"290":-0.010862929952980601,"291":-0.018855175471204647,"292":-0.06933796716667476,"293":0.10552959921977083,"294":-0.026674194014598293,"295":-0.02491816620540212,"296":-0.0004047508037050216,"297":0.04674360550121002,"298":-0.0478011424861836,"299":-0.03435202338259567,"300":0.05368744320336524,"301":0.06891681462375072,"302":0.03309015986931968,"303":0.03815229172272473,"304":-0.09675675610968305,"305":-0.1239271584913356,"306":-0.10849017353322317,"307":-0.022693472674457937,"308":-0.031167325756715762,"309":0.049006736987891236,"310":0.016553384092999546,"311":-0.1042199615474733,"312":-0.23557554686345092,"313":-0.09174755430090804,"314":0.018113005430269224,"315":-0.019173106079590427,"316":-0.10763612376962402,"317":0.06756353969520208,"318":0.013517710983919275,"319":-0.16952580947873358,"320":-0.1908099579328979,"321":-0.04385665904635959,"322":0.07990051488181404,"323":-0.00849373555017048,"324":-0.03240474733754891,"325":-0.10912686251842597,"326":-0.12257768098694279,"327":-0.10299342048786435,"328":0.09935783996656951,"329":-0.06408996183189704,"330":-0.021284160524101047,"331":0.13865091863824602,"332":0.11563721672564402,"333":-0.014269685422515927,"334":-0.14324217203265618,"335":0.16734584592846602,"336":-0.028778456197351834,"337":-0.14566163158425424,"338":0.09945356211640609,"339":0.1149686174917968,"340":-0.13970770009506145,"341":0.09823536215246961,"342":0.1462895610898353,"343":0.11428520114336213,"344":0.00031711500200023903,"345":-0.0003233362271233063,"346":0.10399151581772147,"347":-0.09169457109335839,"348":-0.0298524993780003,"349":0.05252539482434536,"350":-0.09084263719430846,"351":-0.027669341524877974,"352":0.06554630853493555,"353":0.05121506404639032,"354":-0.021985929293845453,"355":0.09811910389294065,"356":0.005509265108071885,"357":-0.06637565959524472,"358":0.10003169673646514,"359":0.011035514568078136,"360":0.13634172025660246,"361":0.08726696668189551,"362":0.14048539998125184,"363":0.017911976394829186,"364":0.02263962863779287,"365":0.01245075504326712,"366":-0.003537980153126325,"367":0.0805611805820109,"368":0.11878894504865936,"369":-0.04491049518248342,"370":-0.10399509231530368,"371":0.005371284272432175,"372":0.009501322788786827,"373":0.06723535463555286,"374":0.13012342998736115,"375":0.05532567810751347,"376":0.0034777399392706258,"377":0.08668298371454879,"378":0.01714983126965266,"379":0.009833888937316133,"380":-0.06501613552339766,"381":0.12041684305352053,"382":-0.02001345121823209,"383":-0.0436983051766499,"384":0.017108649423896012,"385":-0.003978397839015844,"386":0.03212996930465114,"387":-0.04929481950706573,"388":0.11746493999420514,"389":0.12499216199372697,"390":0.040212283242542314,"391":-0.02216548195014794,"392":-0.010904595291468805,"393":0.12188780541089317,"394":-0.13993920745075322,"395":0.07991354777762692,"396":0.08316422354854439,"397":0.1232022369842255,"398":0.09988051254171691,"399":-0.13277284671194947,"400":0.08702730067187109,"401":-0.07101749840117429,"402":0.0481341416148737,"403":0.0976569163046515,"404":0.07152992071120642,"405":0.15879839775608798,"406":-0.0411392033876304,"407":0.05976551978233212,"408":-0.06148885214905443,"409":-0.05266897925730852,"410":0.1735977323176167,"411":-0.03983225424134671,"412":0.05933182959862925,"413":-0.07626900238059355,"414":0.09910088110492618,"415":-0.13586094425857656,"416":-0.13322838784847585,"417":0.09945017832674335,"418":-0.03783652179296222,"419":0.1560119966634839}},{"sx":1,"sy":1,"depth":420,"w":{"0":-0.07431283314989993,"1":-0.07745752794636558,"2":-0.05443128241800466,"3":-0.01945958256578185,"4":0.036367625599487044,"5":-0.06458632760324884,"6":-0.03713146857216012,"7":-0.1660105750301425,"8":-0.05565875138210853,"9":0.058264385951282076,"10":0.005569337866554685,"11":-0.04586031581521252,"12":-0.1381281262735039,"13":-0.037451231191544726,"14":0.029296541809691042,"15":-0.0630336292715461,"16":-0.0027872882880132384,"17":0.005136256328375671,"18":0.02368207965724693,"19":-0.12318114937550191,"20":-0.08332385289592312,"21":-0.10629274722341166,"22":-0.042997698087987334,"23":-0.055892788502018724,"24":-0.16906855933079745,"25":0.020526359642377992,"26":0.037220496243615495,"27":-0.1902034346344449,"28":-0.16473547291282659,"29":0.024983913727945957,"30":-0.11091762806415867,"31":0.022546260474453912,"32":0.031247419366578953,"33":-0.015041611173439674,"34":-0.06832328460466873,"35":-0.1224107900144886,"36":0.012420513143746007,"37":-0.09273391995205806,"38":-0.037880651517137535,"39":-0.04824921154233982,"40":0.07916652631691283,"41":-0.056929467339944216,"42":-0.17745287957213446,"43":-0.062499010591236845,"44":-0.04286246615335177,"45":-0.05755072177876373,"46":-0.02334133622398287,"47":-0.09248520828205484,"48":-0.017516893805362532,"49":-0.09440949123205213,"50":-0.08684907942941586,"51":0.08862081691835695,"52":-0.04198225835721155,"53":-0.08410636310494449,"54":-0.014548905986072062,"55":-0.023808580045690687,"56":-0.04179567275664622,"57":0.09424932134581229,"58":0.032295972553021114,"59":-0.08402861817704002,"60":0.07545487447011563,"61":-0.05424606930924186,"62":0.05531584881650998,"63":0.011660830811460554,"64":-0.01317771951419928,"65":-0.007029699487971679,"66":0.006272816317842565,"67":0.028174697532929973,"68":-0.09183908886659868,"69":0.013191030280343786,"70":0.048338148944527856,"71":-0.02029999210687668,"72":-0.033207911811102685,"73":0.017197876937807333,"74":0.031090474958585433,"75":0.03565015891526526,"76":-0.06436726814869262,"77":0.05923261313510248,"78":0.06558339988980783,"79":-0.11406548301507588,"80":-0.1046759333894306,"81":0.00966598124176145,"82":-0.034321228847805085,"83":-0.02604261960800111,"84":0.01510692510464755,"85":0.08425423136969205,"86":-0.03554299704509324,"87":-0.06190826092453987,"88":0.06306449401149473,"89":-0.006377226050944057,"90":-0.0014821954125316386,"91":0.15127463695620535,"92":0.043407031153207674,"93":-0.06243517810889395,"94":-0.0473158420844219,"95":0.05243309133488846,"96":-0.1399707423642063,"97":-0.09975087474540102,"98":0.12191222155357966,"99":0.07285838250434407,"100":-0.02164083346489075,"101":0.016624933950976774,"102":-0.06931681273577554,"103":-0.012930525801173086,"104":-0.032401997770168375,"105":0.10036282761605356,"106":0.004853772424807994,"107":-0.03293715687464473,"108":0.14836853619676232,"109":-0.00959106192853532,"110":0.08660634183502555,"111":-0.0068630578633228625,"112":0.053101518512331136,"113":-0.024592795334959127,"114":-0.021777593720982664,"115":-0.07332274273504172,"116":-0.03174308656193256,"117":0.0703306211063813,"118":0.0004299989967164529,"119":-0.08361546512653428,"120":-0.027340106253243564,"121":-0.08522475495482935,"122":-0.07077378807252944,"123":-0.060554423245841836,"124":-0.05211721406189907,"125":-0.0073562258061135675,"126":-0.10594165484346366,"127":-0.032771196220187364,"128":-0.09769993049007855,"129":-0.10442085287397071,"130":-0.002889856718537435,"131":0.12202481682569823,"132":0.04249637222323488,"133":0.01135240900001025,"134":-0.04480429907053211,"135":-0.19903180740747017,"136":-0.16686557399457042,"137":-0.03194823043427843,"138":-0.0024940051678397058,"139":-0.07650752657472346,"140":0.017192509283891776,"141":-0.00140820779495192,"142":-0.13514330108930037,"143":-0.04417424920892568,"144":-0.026564119670573177,"145":0.003445661970097412,"146":0.13918987310423755,"147":0.10504087199204207,"148":0.01749158896493977,"149":-0.0745625657119261,"150":-0.03853534053281527,"151":-0.1311988752220542,"152":0.05117925059315695,"153":0.057975018797508875,"154":0.06764671948047978,"155":0.049995669168593763,"156":-0.1249456142124027,"157":-0.11042614941297764,"158":-0.05288655273705717,"159":0.014978819751034272,"160":-0.033929463219962895,"161":0.06758187713532515,"162":0.10506276483706851,"163":-0.11644539696932976,"164":-0.0680750840477189,"165":-0.013920621226702614,"166":-0.023212643645782512,"167":0.07934390680022362,"168":-0.036372338594338374,"169":0.032221312497939865,"170":0.0032876664873925563,"171":-0.12585609224879696,"172":-0.035016676255618225,"173":-0.024532066264971033,"174":0.04578350591167226,"175":-0.08926021091255316,"176":0.09528942297107268,"177":-0.006456099327246454,"178":-0.2627248325211059,"179":0.02740920009525452,"180":-0.029866419387345747,"181":0.0591307571107225,"182":-0.06496501596111524,"183":0.16797577529422844,"184":-0.11194598015376775,"185":-0.30674576474026394,"186":-0.020586455474320482,"187":0.06487671022822103,"188":0.061064804415892245,"189":0.02442258887818823,"190":0.008714674924303308,"191":-0.09358613525023464,"192":-0.25432337183933595,"193":-0.12153263062091188,"194":0.0061367922797874305,"195":0.13327912818570126,"196":0.21325289927647828,"197":-0.03725173305058732,"198":0.08888671610024147,"199":-0.11289125966449123,"200":-0.10638421055851238,"201":0.07019139992387544,"202":-0.025567303498168374,"203":0.23246844564746233,"204":-0.05383123249606069,"205":0.009708348504926797,"206":-0.004201475501044447,"207":0.04459591042913061,"208":-0.0038442107823868283,"209":0.011498056892702967,"210":0.01014142197271619,"211":-0.04944542852894662,"212":0.002901631976605759,"213":0.03663865558799979,"214":-0.07741732565436737,"215":0.045312889736546604,"216":0.060720907686303165,"217":0.009734280031965902,"218":0.07164896478063319,"219":0.15153617276603137,"220":-0.019291648155609898,"221":-0.020029440591335504,"222":-0.015168415630965399,"223":0.10929369028997168,"224":0.0563417366440064,"225":-0.021910986839657986,"226":0.06771686447164937,"227":0.04769191475078876,"228":-0.016103844461317535,"229":0.14675935558643105,"230":0.03413001164799262,"231":0.050294691388013096,"232":-0.04566379469432107,"233":0.03679584920265709,"234":0.09269556854084537,"235":-0.1386672422819706,"236":0.0058411577548490605,"237":0.12515870938007903,"238":0.03186637169758271,"239":-0.002011928637692782,"240":-0.028391793552634884,"241":-0.0362251586567933,"242":-0.11785516464802502,"243":0.08665645454973948,"244":-0.03495453473627953,"245":-0.0768936903552907,"246":-0.01778436096813685,"247":0.10085149947056513,"248":-0.04867933356145475,"249":-0.09628625190848605,"250":0.10403408152936665,"251":-0.06935166803200697,"252":0.06352916941602475,"253":-0.0016705575329509464,"254":0.07069234407759997,"255":0.04915787187062967,"256":-0.1714095863068447,"257":-0.05990650181718271,"258":-0.002711899572688679,"259":-0.003845111017491738,"260":0.026043129559246404,"261":0.026216141228982182,"262":0.008192063171040202,"263":-0.10957215352635429,"264":0.04653887282678699,"265":0.02507536075082821,"266":0.05127766146692059,"267":0.0028811892301831695,"268":0.026881043544535077,"269":-0.029242566559547233,"270":-0.07979301740497188,"271":0.07265328515060437,"272":0.006826504976648013,"273":0.0649772793064745,"274":-0.06726602209195635,"275":0.037959479150948175,"276":0.05097144088507592,"277":-0.06494896081015616,"278":0.00443971813993366,"279":0.06853408129055517,"280":-0.0038986201291191956,"281":-0.1562833134717361,"282":-0.04219309038772084,"283":-0.1695825140117095,"284":-0.12504558154999537,"285":0.16914188646371758,"286":0.19209357909451225,"287":0.2205148661669592,"288":-0.1485272527152811,"289":-0.09913550187991618,"290":-0.09675709385114359,"291":-0.16755162279492494,"292":0.05876338976074913,"293":0.08881259442991539,"294":-0.012320584048196173,"295":-0.06559605072163295,"296":-0.1277570059531286,"297":0.10332775709193423,"298":-0.12004026687024455,"299":0.0875014419150853,"300":0.1528545873587953,"301":0.09797852035816546,"302":0.00904511450040614,"303":-0.20621601877640977,"304":-0.11044202902334903,"305":-0.2438142507705806,"306":0.04371281048348788,"307":0.049502399599074806,"308":0.036410435464160645,"309":0.022023583434387713,"310":-0.2988009445271354,"311":0.01102450481205344,"312":-0.2322827942227204,"313":0.04284672197092391,"314":0.13281831977495873,"315":0.03727058727478591,"316":0.1918601078336401,"317":-0.26126453622244383,"318":0.12713371072476984,"319":-0.10524599788806396,"320":0.14219473954029452,"321":0.014734292990244462,"322":0.027565565803522415,"323":0.06286167233547155,"324":-0.29296932666008335,"325":-0.07024785728487598,"326":-0.30923400114348487,"327":0.19520473917913075,"328":0.04792683212827295,"329":-0.004974649535796358,"330":0.11335955537653568,"331":-0.1452488911957596,"332":0.19685941682666255,"333":0.03218023536060424,"334":0.11816980557601142,"335":0.009231727328840799,"336":0.08661437947781246,"337":0.022143142898099103,"338":-0.20867175278030872,"339":0.027225030336946465,"340":-0.08472528940824323,"341":0.1702505529960794,"342":-0.10344054436477022,"343":0.20420621779378867,"344":-0.04044795998652689,"345":-0.09727871708784971,"346":0.20867674002086448,"347":-0.11331103210478545,"348":0.21551797750252333,"349":0.012329899688632243,"350":0.09563238915627184,"351":-0.0058389767952168855,"352":-0.060827568289319026,"353":0.038415985938551195,"354":0.014290965065528172,"355":0.1043471985079885,"356":0.08436426314190339,"357":0.11281882609262381,"358":-0.03188063371228221,"359":0.06204936536144786,"360":0.19185104815151763,"361":0.04006874303155423,"362":0.044180404323704035,"363":-0.038772661760799174,"364":0.015333002941972462,"365":0.10978717563029072,"366":-0.0274028508659473,"367":0.06655631951320884,"368":0.1546463498245062,"369":0.02333354307286686,"370":-0.07719178890750843,"371":0.04586400002470624,"372":0.08225588968922289,"373":-0.03971282213315658,"374":0.15249601459752904,"375":-0.06281786876180094,"376":-0.0566756133172577,"377":-0.07230433759714802,"378":0.013560369620663348,"379":-0.009676249026109392,"380":-0.01643491515493509,"381":0.13995749989318312,"382":-0.013178223777633507,"383":-0.015353253632734019,"384":-0.07631692627827502,"385":0.03816285018903102,"386":0.037241889605398926,"387":0.08884187776796666,"388":0.12828746051749454,"389":-0.03196055534247673,"390":-0.029856646487496644,"391":-0.03954032911509589,"392":0.05345763490184688,"393":0.10362038901728113,"394":-0.018810903372908926,"395":0.11565275085210938,"396":-0.08588782635544483,"397":0.0804595902075785,"398":0.02738616666646175,"399":-0.027172971566997307,"400":0.11507076805388464,"401":-0.0956833219075342,"402":-0.02522524544780253,"403":-0.12246331398260793,"404":-0.029214072796712624,"405":-0.02547978473109356,"406":-0.008551665851315329,"407":0.03802048978728989,"408":-0.0513113924165572,"409":-0.28307701924167866,"410":-0.246825665690471,"411":-0.06483581399347461,"412":0.09511331904912683,"413":-0.09748009178904792,"414":0.0787721167124886,"415":-0.15413788057878422,"416":-0.3899368650759123,"417":-0.3428682747530368,"418":0.05398843227442123,"419":0.035070148917543745}},{"sx":1,"sy":1,"depth":420,"w":{"0":-0.024833244291639214,"1":-0.014948475563314247,"2":-0.018324244163522057,"3":-0.01903149951335433,"4":-0.032836537467190945,"5":-0.02375069097267691,"6":0.021409538456903496,"7":0.05076245644017992,"8":0.047634869118263604,"9":-0.03337821898659352,"10":0.014142957303608313,"11":-0.07947763847660158,"12":-0.020835266608449855,"13":0.03715357915552919,"14":0.05244731812791731,"15":0.01739901203215717,"16":-0.049514808712325706,"17":-0.005092341608336686,"18":-0.006046266797184183,"19":0.08556364252634949,"20":-0.051124500454406585,"21":-0.03420903500236679,"22":-0.0030216055803459273,"23":-0.06422279543955285,"24":0.021401639755015144,"25":-0.04950952388145411,"26":-0.016881866774022054,"27":-0.07065891443393972,"28":-0.04182625843734901,"29":-0.04226563581080862,"30":-0.07904678436476575,"31":-0.11799980101058252,"32":-0.07334662603404953,"33":0.017804622062567867,"34":-0.037029381575939734,"35":0.008825555826402202,"36":-0.09320101887443609,"37":0.07682203964492026,"38":0.12275733813268343,"39":0.07832037265141219,"40":-0.0628678456299726,"41":-0.041390596320058745,"42":-0.05911054009000144,"43":0.05918516418918344,"44":-0.037847683693797235,"45":0.01558317881927546,"46":0.03496890500550139,"47":-0.048656034760103585,"48":-0.023726327279689603,"49":-0.035415793433,"50":-0.019474039042490173,"51":-0.04244583802477933,"52":-0.11606905750625589,"53":0.0670109965287259,"54":-0.024538903939740446,"55":0.048112506813219436,"56":0.029075090993485635,"57":-0.029791751785618176,"58":0.10993339331183583,"59":0.013271582735936583,"60":-0.022205216218762654,"61":-0.051706399195021,"62":0.12971619292710126,"63":-0.032736652476842036,"64":0.051923662861079536,"65":-0.026753243255896154,"66":0.011373900061892789,"67":-0.062134438524110616,"68":-0.0045781687707538935,"69":-0.05133903151360841,"70":-0.10237434390079979,"71":-0.017587906634199117,"72":0.05165687131452723,"73":-0.025800610054922356,"74":0.0019401658937863095,"75":-0.06977198319174441,"76":0.0467594791536786,"77":0.014471969980628894,"78":0.036190547363144886,"79":-0.10945404348278044,"80":-0.030806703097136436,"81":-0.007611898815875586,"82":-0.06480759672682997,"83":-0.03388313131773653,"84":0.04828975419328505,"85":-0.03160263318771521,"86":-0.05560807947060303,"87":-0.09796170959334025,"88":0.012281914419350016,"89":-0.08311316793933107,"90":0.06782426005792276,"91":0.012651165322461175,"92":-0.008042740758610478,"93":-0.03698056842898784,"94":-0.0638113570714673,"95":0.04682128691947004,"96":0.0036465549633748475,"97":0.013700198362294923,"98":-0.0059731003011799615,"99":-0.11304654523988392,"100":0.013052537848201248,"101":-0.000288756783587966,"102":-0.07743752054004818,"103":0.04011106698310131,"104":0.07163475129579011,"105":-0.03630439011390965,"106":-0.04297503155194252,"107":0.00712259952458032,"108":-0.05109460668930561,"109":-0.038377356474660285,"110":0.01776799501154824,"111":-0.06574536151328131,"112":0.03020186826154708,"113":0.009999204959902329,"114":0.029297123197042717,"115":-0.062037217587912676,"116":0.01484788142712608,"117":0.005901518094443582,"118":-0.0628774592447252,"119":-0.04745683957812325,"120":0.04268364259181307,"121":-0.06852430192410532,"122":-0.015421236104527083,"123":-0.09211500810681772,"124":0.05602697129397475,"125":-0.02797241734039337,"126":-0.045132252926720774,"127":-0.014183184781198782,"128":0.1180698525108304,"129":0.004156828864734398,"130":-0.021536945572682476,"131":0.07510564126027333,"132":-0.001408577458843473,"133":-0.013034562879985721,"134":0.002089796808412195,"135":-0.04239348591417987,"136":0.007915976856257943,"137":0.028286416404729803,"138":-0.02843698639437198,"139":0.039178355337127754,"140":0.018991959508720662,"141":0.005303784344000249,"142":-0.015692008673918026,"143":-0.09641882284823196,"144":0.044993497527788806,"145":0.10457999038294165,"146":-0.06455975475026068,"147":-0.08395185534193217,"148":0.02595534104429445,"149":-0.017555796621161395,"150":-0.06084749751082152,"151":0.015660341106020853,"152":0.04697477187016988,"153":0.018388442094962886,"154":-0.07422413514835483,"155":0.0041297759975910675,"156":-0.03843602412612288,"157":-0.004793016638479744,"158":0.0035990570365511372,"159":0.04068489573512053,"160":-0.03816302165163916,"161":0.005281512765878362,"162":-0.12003592711450439,"163":-0.06319412028340955,"164":-0.08210804687612995,"165":-0.017956382889270265,"166":0.04487202112308451,"167":-0.03271682420011517,"168":0.11095391774896594,"169":-0.00896056222990931,"170":0.020966226757127195,"171":-0.009652052333384281,"172":-0.040688281093722405,"173":-0.035921295842639485,"174":-0.024326830673949553,"175":0.05668248483442422,"176":0.013523241139799079,"177":-0.05224588600461335,"178":-0.051100485408827306,"179":-0.04592355661910527,"180":-0.1292801958211308,"181":0.015008636493742084,"182":-0.01757645941020809,"183":0.03165930442651488,"184":-0.013615665610945965,"185":-0.006002408446391745,"186":-0.04997411466805446,"187":0.04652508407800606,"188":-0.00035880599807943986,"189":-0.0413571479077802,"190":-0.0004897491446602756,"191":-0.07315923075567594,"192":-0.033641216070635534,"193":0.054824616937566774,"194":0.07967395835769898,"195":0.03618860332380082,"196":0.01762875601225402,"197":0.02639940505482805,"198":0.011467083014427818,"199":0.04297675661656847,"200":0.00515217427244489,"201":-0.008475884233551402,"202":-0.05723405060305674,"203":0.11390858532758914,"204":-0.049890796681253714,"205":0.05944345290519366,"206":0.05284362174288634,"207":-0.026701700092320257,"208":-0.05293940884892888,"209":0.013540150033302984,"210":-0.03262704051246213,"211":0.011652582691770037,"212":-0.04183694505660376,"213":-0.03533042841233423,"214":-0.03088212558640671,"215":-0.026007613431158604,"216":0.034767153821469034,"217":-0.12172093178823812,"218":0.0280441102547479,"219":0.04042457087424283,"220":-0.011623212666784462,"221":0.008451530671923854,"222":-0.017002586627507015,"223":-0.004711062765661422,"224":0.06420370721637286,"225":0.01723876778644685,"226":-0.022421600780103107,"227":-0.06945496763124967,"228":-0.08118448841504426,"229":0.02440269752538979,"230":-0.03463282316569466,"231":-0.024616574055245796,"232":0.010865998983843179,"233":0.06397400762574085,"234":-0.0912383658407542,"235":-0.005573754077145765,"236":-0.031351149826251236,"237":0.008145917600830575,"238":-0.04638000836411864,"239":0.019613356491570342,"240":-0.0544006623786507,"241":-0.046490149765807696,"242":-0.004133283869955211,"243":-0.07056334080421581,"244":0.07244415936233921,"245":0.038600259618589254,"246":-0.05880421164253648,"247":0.02562562793908233,"248":-0.08249321612482238,"249":0.04891827889997018,"250":-0.043374744781206356,"251":-0.019966480669540276,"252":0.03996465277906215,"253":-0.010791913831264011,"254":-0.005485869330991335,"255":-0.04089723592172213,"256":-0.07760125652414122,"257":0.029538652700070098,"258":-0.016057850246499993,"259":-0.007400440850559877,"260":0.023865905711515933,"261":-0.011763651616558454,"262":-0.03734130514368052,"263":-0.028717763661850707,"264":-0.005816352730595611,"265":-0.03036303538881122,"266":-0.0012289037833851347,"267":0.035162510280692894,"268":-0.030223911337678978,"269":-0.07247052275514594,"270":-0.031114601443639128,"271":-0.022035848658561324,"272":0.05105383463998263,"273":-0.053665417138597724,"274":0.0120303550711112,"275":-0.016535139633768476,"276":-0.01143922435882262,"277":0.07525685014977572,"278":0.013873741044048277,"279":0.07796282075727048,"280":-0.016732306506156133,"281":-0.071474933776193,"282":0.04598557705504231,"283":0.015464112721253693,"284":0.09260523620473574,"285":0.010667330553401501,"286":-0.025402148428503843,"287":0.0036478318413090518,"288":-0.062246770670926606,"289":0.08443869008267041,"290":-0.021831685744931766,"291":0.0021098994440811574,"292":0.026121609194678742,"293":-0.07864739268558965,"294":0.04550451435737564,"295":-0.01072088965802606,"296":-0.06622825260260796,"297":-0.0555844628901306,"298":0.02288876350242214,"299":-0.05550375859119802,"300":0.005532265143747863,"301":0.02193594637129525,"302":-0.022361950218822958,"303":-0.04323633796351692,"304":0.03198630080397722,"305":-0.03124885421880128,"306":-0.07783436365211638,"307":0.052461394542644396,"308":-0.03572801426569735,"309":-0.10811726246972425,"310":0.03693583686016511,"311":0.059136545134896544,"312":-0.043288954156415926,"313":-0.045516732426158994,"314":-0.011953027050454592,"315":0.09124842430298793,"316":-0.0420488842733985,"317":-0.02154172323592455,"318":-0.04300114736734609,"319":0.025767498756613865,"320":0.03844447834882427,"321":0.020980143727413844,"322":-0.03413798959141144,"323":0.051446530620122666,"324":-0.0442130086113924,"325":-0.0284893934572101,"326":0.06184831998049093,"327":-0.09519337366263005,"328":0.0417766427804891,"329":-0.03173831390695867,