
//<![CDATA[

// a few things don't have var in front of them - they update already existing variables the game needs
lanesSide = 3;
patchesAhead = 50;
patchesBehind = 10;
trainIterations = 100000;

var num_inputs = (lanesSide * 2 + 1) * (patchesAhead + patchesBehind);
var num_actions = 5;
var temporal_window = 0;
var network_size = num_inputs * temporal_window + num_actions * temporal_window + num_inputs;

var layer_defs = [];
layer_defs.push({
    type: 'input',
    out_sx: 1,
    out_sy: 1,
    out_depth: network_size
});
layer_defs.push({
    type: 'fc',
    num_neurons: 36,
    activation: 'tanh'
});
layer_defs.push({
    type: 'fc',
    num_neurons: 24,
    activation: 'tanh'
});
layer_defs.push({
    type: 'fc',
    num_neurons: 24,
    activation: 'tanh'
});
layer_defs.push({
    type: 'fc',
    num_neurons: 24,
    activation: 'tanh'
});
layer_defs.push({
    type: 'regression',
    num_neurons: num_actions
});

var tdtrainer_options = {
    learning_rate: 0.001,
    momentum: 0.0,
    batch_size: 128,
    l2_decay: 0.01
};

var opt = {};
opt.temporal_window = temporal_window;
opt.experience_size = 40000;
opt.start_learn_threshold = 10000;
opt.gamma = 0.97;
opt.learning_steps_total = 10000;
opt.learning_steps_burnin = 1000;
opt.epsilon_min = 0.0;
opt.epsilon_test_time = 0.0;
opt.layer_defs = layer_defs;
opt.tdtrainer_options = tdtrainer_options;

brain = new deepqlearn.Brain(num_inputs, num_actions, opt);

learn = function (state, lastReward) {
    brain.backward(lastReward);
    var action = brain.forward(state);

    draw_net();
    draw_stats();

    return action;
}

//]]>
    
/*###########*/
if (brain) {
brain.value_net.fromJSON({"layers":[{"out_depth":420,"out_sx":1,"out_sy":1,"layer_type":"input"},{"out_depth":36,"out_sx":1,"out_sy":1,"layer_type":"fc","num_inputs":420,"l1_decay_mul":0,"l2_decay_mul":1,"filters":[{"sx":1,"sy":1,"depth":420,"w":{"0":0.036137634072670434,"1":0.03591811093860167,"2":-0.011395956998779034,"3":-0.023267784336136688,"4":-0.06030480590124598,"5":-0.07419720863418089,"6":-0.07262451944327027,"7":0.05518322513577548,"8":-0.01035311168977178,"9":0.0040410364169568514,"10":0.049772439478361546,"11":-0.00810874838893567,"12":-0.08432291536487044,"13":-0.07015028068469617,"14":0.0734646413561275,"15":0.010641760755357138,"16":0.04406287569516616,"17":0.11231940852424296,"18":0.022122672405175257,"19":-0.010757408102919733,"20":0.015754470231970477,"21":-0.038736426237232544,"22":0.04700510998189807,"23":0.0424571365074289,"24":0.17005483338845256,"25":-0.03677500568966071,"26":-0.054124526264163385,"27":0.08155925391901815,"28":-0.09949400690911557,"29":0.11764489097733903,"30":-0.020532635620323567,"31":0.024829782764126347,"32":-0.04045665769789165,"33":-0.06379893240339345,"34":0.0070155285863611186,"35":-0.035553474162698655,"36":0.045677719500315475,"37":0.013789607768939569,"38":0.1034603009349815,"39":-0.012359293244406199,"40":-0.027423635860143195,"41":-0.007551960021177832,"42":0.0555041865233599,"43":0.007069492637707035,"44":-0.027325312177931136,"45":0.07935257689371934,"46":0.06951235324373319,"47":-0.048321137272571625,"48":-0.018902239876367986,"49":0.11694071802755787,"50":0.07988052108268244,"51":0.002660922644586173,"52":0.027900085468692794,"53":0.04625905430495063,"54":-0.09020560402955417,"55":-0.044980690524238705,"56":0.06438820126515468,"57":0.01948500248298645,"58":-0.03713388008960245,"59":0.022598406561157244,"60":0.03183451651737094,"61":-0.024733784408774665,"62":-0.02913728992280046,"63":0.01366871955972038,"64":-0.0195866718064407,"65":-0.09025733090020341,"66":-0.005306225034289411,"67":-0.06038070177990851,"68":-0.0269375732143721,"69":0.016723822748561136,"70":0.03612225976942746,"71":0.045922935318268285,"72":0.00015578960763461437,"73":0.05319169799173765,"74":-0.004085523914834971,"75":-0.10710099370645208,"76":-0.0823712245779211,"77":0.022757366378755764,"78":-0.040801524869403125,"79":0.029634117056008408,"80":0.08176266177587742,"81":0.05695040265151914,"82":-0.08877342431242127,"83":0.01876815883599737,"84":0.020437947928879145,"85":0.03538350266649972,"86":-0.11612476916319958,"87":0.15179298165286548,"88":0.010893529125429248,"89":-0.007648602884519327,"90":-0.04532991576911683,"91":0.03566598685738841,"92":0.014333351707908924,"93":-0.010343720838342802,"94":0.048477397637445005,"95":0.05976589682699825,"96":-0.04552472035471083,"97":-0.0322802624218349,"98":-0.030482444791009203,"99":-0.009369319595782123,"100":-0.0124060489501221,"101":0.040840407740963265,"102":-0.015409602871306029,"103":-0.0022932902272262425,"104":0.07095390631173365,"105":0.01101112001968507,"106":-0.06533929921347918,"107":0.02164743485768885,"108":0.1501576403981977,"109":-0.003504098706303133,"110":0.05530111223307393,"111":0.04160779079635453,"112":-0.02371058931464503,"113":0.026772008158338644,"114":0.028864911597408723,"115":0.1334771326081467,"116":-0.04839425054909279,"117":-0.01249462477667466,"118":-0.06509483518966226,"119":0.0219919367099783,"120":0.039122965253660186,"121":-0.013370047322422918,"122":0.1502021578155666,"123":-0.011930173147947509,"124":0.008776688220227294,"125":-0.0060207914746416855,"126":-0.05160469955767362,"127":-0.013202225554244619,"128":0.07339439221184416,"129":0.019016947795230252,"130":0.0239561459682142,"131":-0.0337605693772563,"132":-0.019706458916846758,"133":-0.027937858074623196,"134":0.03808403703312429,"135":0.09749543060966376,"136":0.09496241329285661,"137":0.045835199649562175,"138":-0.035825973432429895,"139":0.03269889524662899,"140":-0.03414257143179084,"141":-0.00171888977173227,"142":0.02693124763255995,"143":0.1523979469193482,"144":0.026227521705338028,"145":0.06949051406635738,"146":0.007388710982425768,"147":0.06318500865987892,"148":0.021864671820635555,"149":-0.008560095892378133,"150":0.15704596365387394,"151":0.008037305100236864,"152":-0.040039664608602026,"153":0.006128798906044833,"154":-0.022823033977310343,"155":-0.00376389951119412,"156":0.040961379203976175,"157":0.12427921864469592,"158":-0.017100453824478085,"159":-0.03097010870717854,"160":-0.0633574381343531,"161":-0.031670141085851845,"162":-0.022668329399528658,"163":0.0663565831992438,"164":0.12016877612969838,"165":0.10236818606305641,"166":0.03139723769490699,"167":0.023177377887108764,"168":0.06974845031123811,"169":-0.159338980098955,"170":0.029903163763733996,"171":0.06875404259854558,"172":0.053589360058059865,"173":0.024300841654903465,"174":-0.007695924094952373,"175":-0.0023642085787604137,"176":-0.01129741799727738,"177":0.1633516794757795,"178":0.09787333627495945,"179":0.06699705560529365,"180":-0.08042272661400215,"181":-0.040588710355377554,"182":0.03129202723159797,"183":-0.040879600701322176,"184":-0.054592813915027176,"185":0.12140794317414352,"186":0.040067546431074096,"187":-0.04648168350743121,"188":-0.005598047196379846,"189":-0.11698586827508485,"190":-0.09626192958065137,"191":0.059400902403830114,"192":-0.007821098569006188,"193":0.02407603193797772,"194":0.006007542626869529,"195":-0.005370245865557079,"196":0.037720351245320485,"197":-0.1330889620556578,"198":0.04423855248024171,"199":0.04675753261344518,"200":0.08219977530675297,"201":-0.0929642588192883,"202":-0.003501964313165809,"203":-0.033271224770364774,"204":-0.0344467458701237,"205":-0.025749490674193645,"206":-0.004774648474100148,"207":-0.027458678021367918,"208":-0.043719044246926554,"209":-0.09451476776225254,"210":-0.024282821534571737,"211":-0.010395419992984545,"212":0.039789732968990923,"213":0.0772273366765601,"214":0.09958938712798376,"215":-0.014574601032966138,"216":-0.11964417890646442,"217":0.07265950148213814,"218":0.035939310703228054,"219":-0.019692854527712002,"220":0.12347889433817112,"221":0.012838222423755812,"222":0.020451441185717564,"223":-0.08926549190713713,"224":0.05349285625102131,"225":-0.027828989342208767,"226":0.10756026167606965,"227":0.14410180663668837,"228":0.09277524154346486,"229":0.05952674474534203,"230":0.046113605862678604,"231":0.014063400619279333,"232":0.02276988140884358,"233":0.05670703022692091,"234":0.07025738779360724,"235":0.08212686008283389,"236":0.05441423318157266,"237":-0.0242818685110294,"238":-0.04168239576874706,"239":0.06486156290546931,"240":0.06936288384120583,"241":0.07103839915300637,"242":0.08194220858583796,"243":-0.08697999208945295,"244":-0.11244660764110219,"245":0.06565060911772419,"246":-0.03026816236092338,"247":0.09427642165958258,"248":0.1380015276176609,"249":0.02623160977016286,"250":0.0513983018937996,"251":-0.06853159537714132,"252":0.014072459297419708,"253":-0.0012169719483114713,"254":0.10192609330165675,"255":0.0969597682152364,"256":0.13461141267404864,"257":0.053009314160787975,"258":-0.00625002085279895,"259":0.022178077349610525,"260":-0.005787313730535333,"261":0.07648581842107657,"262":0.15797211531697677,"263":0.10886560946098565,"264":-0.07209740335433798,"265":-0.0018235454195010075,"266":0.00724913711331486,"267":0.15264936411721808,"268":0.049455893734715255,"269":0.05801246590819163,"270":0.1166339700742124,"271":-0.06284623381690069,"272":-0.08020162960829821,"273":-0.027185988448799152,"274":0.09633129944194477,"275":-0.02648038934072449,"276":-0.071422787595945,"277":-0.037954829156615744,"278":-0.11526740388334815,"279":-0.08059720179548108,"280":0.02890491180221428,"281":0.008183826439464475,"282":-0.10223239942311675,"283":0.13010812942012198,"284":0.025248216487587967,"285":-0.001745231228810436,"286":-0.0015596239202350847,"287":-0.015141440738227884,"288":-0.00723931016222506,"289":0.013053802009157253,"290":0.08802819531042029,"291":-0.019374708567081057,"292":-0.055853903218833996,"293":0.011485420538347337,"294":0.04657453597922552,"295":0.06330891427767091,"296":-0.01954082980972274,"297":0.03892311502756509,"298":-0.011492732702807477,"299":-0.031839924650001836,"300":0.05028165147625162,"301":0.13536639238097398,"302":0.03545251362369894,"303":-0.0055949355018072786,"304":0.21731593431041002,"305":-0.08898246868106892,"306":-0.048136078850646496,"307":-0.06810031243534614,"308":-0.036569070748614256,"309":0.024903131775091344,"310":0.03209417245568886,"311":0.21989392847330552,"312":-0.15485084370520236,"313":-0.03784572965246207,"314":0.002223766276926026,"315":0.008538543261582111,"316":0.09339635643312794,"317":-0.026051338385026317,"318":0.1624700519953908,"319":-0.1360509408305833,"320":-0.07799956494919166,"321":-0.05388271865118754,"322":0.09934601094552488,"323":0.11411228823410546,"324":0.04752675388394746,"325":0.09585289082287898,"326":-0.24827521761064572,"327":-0.014534948258892847,"328":-0.04390777122095222,"329":-0.0882738740944361,"330":-0.011928109425765629,"331":0.012696533952171837,"332":-0.1622526746039232,"333":-0.10378617978931787,"334":-0.08251429678235331,"335":-0.06945482251747215,"336":-0.015993437194147454,"337":-0.00015564104584845961,"338":-0.051947746695940336,"339":-0.14470811737396896,"340":-0.14209027945419886,"341":-0.0948182502106743,"342":-0.14258015942071492,"343":0.05246806688812428,"344":-0.10737116449562861,"345":-0.004712874001822456,"346":-0.03927480918581951,"347":-0.20381041809218473,"348":-0.0690878669346582,"349":-0.0711756582768558,"350":-0.04933717913314224,"351":-0.0009650915841434059,"352":0.0757608107247349,"353":0.16654163292915178,"354":-0.16474272498988315,"355":0.006026431751968604,"356":-0.053117970688252567,"357":0.009395528143394559,"358":-0.12495359992925496,"359":0.027328062213917374,"360":0.1042449145277128,"361":-0.2564510682004667,"362":-0.0205172191888611,"363":-0.09396575379977265,"364":0.0416199665477065,"365":-0.02195744569531629,"366":-0.030568316163198116,"367":0.1810422744769827,"368":-0.13338898643673822,"369":-0.09862972810922108,"370":-0.18330378817641482,"371":0.013776360725823954,"372":-0.0014960320430003984,"373":-0.044249881405527075,"374":0.13138390142392245,"375":-0.24058669358751372,"376":-0.02966152946395565,"377":-0.047047965811741886,"378":0.031950094903264795,"379":-0.028244949729778705,"380":-0.05494961481665485,"381":-0.19572558524203895,"382":-0.30148965725116394,"383":-0.04051486335691973,"384":-0.10271427184141704,"385":0.04566027582674527,"386":0.037204972908993994,"387":-0.08550732439777381,"388":-0.153145096612257,"389":-0.21341963685250867,"390":-0.11328965423051707,"391":-0.08700373889484929,"392":0.11052337049617705,"393":0.028715513251094803,"394":-0.11683688502616507,"395":-0.07298379895930719,"396":-0.2403773578400108,"397":-0.11451612077850774,"398":-0.00449850105783918,"399":-0.011881862458815349,"400":-0.043023719529080094,"401":-0.03852511465377092,"402":-0.1863756502703637,"403":-0.17051123204053592,"404":-0.06219445792445565,"405":0.008886803323199487,"406":-0.06460478925098538,"407":0.043096437182769474,"408":-0.02092152959633057,"409":-0.07153410796019954,"410":-0.08752201066171057,"411":-0.06679801652979166,"412":-0.027775761517446897,"413":-0.031025288035659838,"414":0.05924267727436667,"415":-0.00743494801010767,"416":-0.20935665950423657,"417":-0.11279309284734763,"418":-0.10531814067777953,"419":0.08808341831631052}},{"sx":1,"sy":1,"depth":420,"w":{"0":0.04561399844343514,"1":-0.08282013700277964,"2":-0.07843067094080229,"3":0.0023183312913466463,"4":0.0901162200358047,"5":-0.2052225723898104,"6":-0.04183473976807751,"7":0.004731888518189887,"8":-0.024878286848370075,"9":-0.11557450233374901,"10":-0.07372124858453928,"11":-0.013070901158473008,"12":0.05137133090256457,"13":0.0005167054514037511,"14":-0.037842642141240536,"15":0.05072248129115609,"16":-0.06615584845112103,"17":-0.15329475675634005,"18":-0.04165711916972586,"19":-0.10712277243832156,"20":-0.027543717852530392,"21":-0.07492973687039717,"22":0.06490814843145414,"23":-0.03625239725584389,"24":0.016921015937752505,"25":-0.014562875436688725,"26":-0.12297988329183822,"27":-0.04839129343907287,"28":0.01982074895009667,"29":0.08109424471533104,"30":-0.09779173589523028,"31":0.0003065070076673157,"32":0.009670307830954402,"33":0.020099019376301257,"34":-0.1053915742593254,"35":0.009022361254006944,"36":0.029724991631655796,"37":-0.0026036538956778657,"38":0.07179444310870485,"39":0.020397338045197468,"40":-0.11169396331485597,"41":0.07386174758672495,"42":-0.0381316288987029,"43":-0.009139711335488862,"44":-0.06559964140228468,"45":0.03245251270798851,"46":0.023458135783820687,"47":0.019378426478799247,"48":-0.00741229938406322,"49":0.03677304331545015,"50":-0.07014530856504082,"51":-0.07179970549044291,"52":-0.03405176089983597,"53":0.03764882324714019,"54":0.020316440518186533,"55":-0.17750935953565572,"56":0.04507447715512553,"57":-0.06337962591351977,"58":0.0059711926960108585,"59":-0.0058480534394651775,"60":-0.11527289157073935,"61":-0.03579997460004877,"62":0.09292753119403625,"63":-0.043996232116585265,"64":0.0031035704800299875,"65":0.0440579479317883,"66":-0.04890202711324935,"67":-0.060628669023154204,"68":0.06135593354790134,"69":0.013953108302755722,"70":-0.011729697164779868,"71":0.027243281236280878,"72":-0.06611329960940981,"73":-0.0426758962410072,"74":-0.06785213091336739,"75":-0.020898973576199804,"76":0.0006729394472829674,"77":-0.04661946899172925,"78":-0.08632586939411759,"79":-0.02780573015626361,"80":0.011834506643695673,"81":-0.0718640615884124,"82":-0.09042972853539996,"83":0.10763988123076423,"84":-0.0313766876299818,"85":-0.003858013806070956,"86":0.08295489922710896,"87":-0.0388166970711326,"88":-0.005561125753066533,"89":0.10668574088935978,"90":-0.030944767227792873,"91":0.039642770781914416,"92":0.018655557173290288,"93":-0.02074540260541005,"94":-0.07367785832348368,"95":-0.06004791837162319,"96":0.04263465510389879,"97":-0.08665919537663608,"98":0.07359475477642755,"99":-0.02545571709599576,"100":0.003671185296212424,"101":0.039849288223897515,"102":0.0030439118874618,"103":0.008817145944168773,"104":0.0019167912040707492,"105":0.0638250649952071,"106":-0.017881945718096506,"107":0.0186522571874031,"108":0.08229685943940672,"109":0.0259041112198721,"110":-0.0025211470571493877,"111":0.07614194997103035,"112":0.03822652779883521,"113":0.017616891084999527,"114":-0.015578529147098024,"115":0.08908322062260961,"116":0.053633633165680025,"117":-0.0412710087917026,"118":-0.06761507615892032,"119":0.04093897849684707,"120":-0.028738214586186372,"121":-0.06141715827941652,"122":0.13760590088264285,"123":0.02803112516347998,"124":0.12743736897752128,"125":-0.037705685603462324,"126":0.02608182368147995,"127":0.051270603835065535,"128":-0.0027890683851546647,"129":-0.05426481445864652,"130":-0.0373988573893306,"131":0.0651676147058376,"132":-0.12178804007413958,"133":0.03612059356350524,"134":-0.1700472765092329,"135":-0.08752513646340072,"136":0.01935458607991156,"137":-0.006606410709543075,"138":-0.007494477480532091,"139":-0.09127328281684471,"140":0.045822451148649856,"141":-0.09059462900566656,"142":-0.10977353560563897,"143":0.008281843273036688,"144":-0.031210330444529207,"145":-0.023054891547048775,"146":-0.14682591521042432,"147":0.05540053111957528,"148":-0.11004417569427642,"149":-0.068877989792077,"150":0.0077031850326223245,"151":-0.05605108698391052,"152":-0.15868091063766188,"153":-0.1115055938527061,"154":0.03088686912053637,"155":0.00804661555558231,"156":-0.09020354870420715,"157":-0.08599073017398337,"158":-0.1494941713121904,"159":-0.014706616051376435,"160":-0.1594371819073449,"161":0.04002962212178167,"162":-0.07251293934845521,"163":-0.09960495537872313,"164":-0.09257824210394683,"165":-0.0944410976589388,"166":-0.07926554724866412,"167":0.0155491271868859,"168":-0.025980597781833443,"169":0.018142727686307127,"170":0.04333270904850176,"171":-0.1463796610852671,"172":-0.02178999890544629,"173":-0.06654547090393521,"174":0.002206579139896383,"175":-0.07995600032582019,"176":-0.0011304517010873544,"177":0.023151660769051136,"178":-0.13272803365205224,"179":-0.09386136055504206,"180":-0.0691683072386427,"181":-0.06600918208759073,"182":-0.0031717537621589174,"183":-0.016224785970078637,"184":-0.029983714262613696,"185":-0.01319464409444953,"186":-0.0814143789070394,"187":0.07977812142278702,"188":-0.04750203218135951,"189":0.05775991791754837,"190":0.034513929421380665,"191":-0.09643749239303778,"192":-0.09578315189831463,"193":-0.08140123387504858,"194":0.07425547961428246,"195":0.014405556644739283,"196":0.005830269636705834,"197":0.006335687215890799,"198":-0.03466823336547685,"199":-0.016762367652702267,"200":-0.011580289488689575,"201":0.039651159805055514,"202":-0.02011298143459425,"203":0.10785852884104907,"204":0.08033584067283446,"205":0.01279526141133045,"206":0.033973482195496285,"207":-0.0964059653430014,"208":0.12828226566829237,"209":0.060932501700925054,"210":0.013716715674526125,"211":-0.027571067400517072,"212":-0.0036141858017207542,"213":-0.06964492676511104,"214":0.04356664932362228,"215":0.01669639357461521,"216":-0.006109728887738154,"217":0.08882227408017912,"218":0.03870513593665174,"219":-0.06809852464765415,"220":-0.029819989534863468,"221":0.07287733328961621,"222":0.061835863577612706,"223":0.08182150180187264,"224":-0.006120274571625462,"225":-0.0086601695854926,"226":0.015302681430863347,"227":-0.06078454917085345,"228":0.06866710998324108,"229":0.037224601457965995,"230":0.0832173990553412,"231":-0.021308698847983632,"232":-0.04610947611473314,"233":0.06743851436915146,"234":-0.10047702913182446,"235":0.16139378804607868,"236":0.13591970786744617,"237":0.054430925160180506,"238":-0.1591868926233686,"239":-0.05969565395218092,"240":0.005379461569474222,"241":0.024522327405736403,"242":0.0008114652718463168,"243":0.05156701960584998,"244":0.05895503835069345,"245":-0.07998582358557363,"246":-0.004619460137725697,"247":-0.03299971361294059,"248":0.18006716663884437,"249":-0.022756823808328327,"250":-0.02400895722219244,"251":0.020687067458811548,"252":-0.037010704289549196,"253":0.13597112366766387,"254":0.05720937274659068,"255":0.4837457929031411,"256":0.09626969057240053,"257":0.11043357551912553,"258":0.12296913571387467,"259":-0.08198294418091326,"260":0.006101401425466807,"261":0.07021592223868622,"262":0.5271119022076279,"263":0.09687999807449602,"264":0.045087262661395094,"265":0.021068928948229402,"266":0.0007554466240037684,"267":0.03244510052614609,"268":0.10033541295216107,"269":0.5585767758944159,"270":0.12121739994855232,"271":0.0666304868942949,"272":-0.02232265859950365,"273":-0.07781160913458396,"274":0.06959099131292819,"275":0.23352774942580298,"276":0.16123688952751553,"277":0.0971207414826642,"278":0.07371841821122124,"279":-0.030500465077459904,"280":0.10022998373380924,"281":0.01407842924570259,"282":0.15525339057359708,"283":-0.17056178510046316,"284":0.19754730192071823,"285":0.056275995774321415,"286":-0.027982014720962706,"287":-0.005566617983788246,"288":0.08426370833613776,"289":0.11332808813887896,"290":-0.031356024210633,"291":0.016742432194975284,"292":-0.031601846018349734,"293":-0.11400312141740832,"294":-0.05878256224286048,"295":0.010972555866054853,"296":0.02122482538972726,"297":0.10040228562785748,"298":0.06267944190282701,"299":0.055198677892515875,"300":0.04361944162407709,"301":-0.058777113913290914,"302":0.034293753526105024,"303":0.07090141143323865,"304":-0.1408969212219228,"305":-0.05849670234765657,"306":-0.06268567919498823,"307":-0.0766541970544414,"308":0.016118292829853588,"309":-0.09944929733264542,"310":0.09870000218971825,"311":-0.05167883970916404,"312":-0.07935875637657319,"313":0.019575867105927555,"314":-0.049537954057290945,"315":-0.11284475888536095,"316":-0.04770247952972646,"317":0.07090271262380313,"318":-0.08453058392297284,"319":-0.08909634292153648,"320":-0.039705083510200655,"321":0.03484006853427605,"322":-0.02841088235309549,"323":0.03623359416137275,"324":0.16928478217578266,"325":-0.2876645271115312,"326":-0.16169838349542973,"327":0.053812007728724805,"328":-0.04355638841281161,"329":0.022099085106345437,"330":-0.0549848054261224,"331":0.008933331000133068,"332":-0.10818141693913934,"333":-0.025731929279602446,"334":0.05473224670150194,"335":-0.036157973385739596,"336":-0.0627073235043974,"337":-0.039896292254439275,"338":0.07161901767027382,"339":-0.15879987553343436,"340":-0.07871533751663956,"341":-0.006516300432587085,"342":-0.07609800295297825,"343":0.018651924420536963,"344":0.015773862245209654,"345":0.0937478908527742,"346":-0.1074639382376007,"347":-0.21565798281889398,"348":0.054053970193015936,"349":0.010302223753806156,"350":0.04657658418619947,"351":0.0025719743694368196,"352":0.05477430036181693,"353":0.2921941224113689,"354":-0.13307523953121422,"355":-0.044504470965981285,"356":0.0004359465513847237,"357":-0.024965150403115522,"358":-0.008038452829051699,"359":0.020885159345947035,"360":0.3229469691199995,"361":-0.14858932339222775,"362":-0.04138899199463581,"363":-0.04622093924680723,"364":-0.05912503965096988,"365":-0.004075815203663047,"366":-0.11360838563715041,"367":0.28865261332181785,"368":-0.15530374729483806,"369":-0.027739529722962557,"370":-0.09701511419026156,"371":-0.016983232606142096,"372":0.022252643442798117,"373":0.03599029205200129,"374":0.33814309696615413,"375":-0.1293769017065177,"376":-0.11057308638334967,"377":-0.15569064967052462,"378":-0.02382870000953693,"379":0.047908260000963286,"380":0.07966767101698749,"381":-0.11348082669151457,"382":-0.206509258226774,"383":0.13027922109073625,"384":0.03202841871518955,"385":-0.024041678371544743,"386":0.06446666647880991,"387":-0.12272147172934594,"388":-0.05578769418410393,"389":-0.24967420674149501,"390":0.05994126541147003,"391":-0.01762571168719144,"392":-0.02710875150794089,"393":0.023019519951807895,"394":-0.0492357418424684,"395":-0.14051240661384512,"396":-0.33550883094933887,"397":0.004129225403661696,"398":0.08068637373875194,"399":-0.02211966049639518,"400":0.06503057233814537,"401":-0.18104905915757813,"402":-0.09185644485162912,"403":-0.08780976345655651,"404":-0.09162465937132819,"405":0.07338437977924324,"406":-0.030948436714922985,"407":0.05224053800879148,"408":-0.2281073398787469,"409":-0.21487668904710797,"410":-0.2685864547349079,"411":-0.040747729689071685,"412":-0.007087899219414307,"413":0.016301184903513597,"414":0.15496000660946227,"415":-0.11524072387213341,"416":-0.22183658103948037,"417":-0.36887961795215574,"418":-0.08289460628044672,"419":0.012180271149099847}},{"sx":1,"sy":1,"depth":420,"w":{"0":0.04269772506547396,"1":-0.0018889137000601892,"2":0.06901911352145988,"3":-0.11167891974724001,"4":-0.01407126311953507,"5":0.06719476421566607,"6":0.0009106320903301021,"7":0.06112973631587372,"8":0.14975659911435943,"9":-0.03691254174666059,"10":-0.12506028843148445,"11":0.024397382582090496,"12":0.09128330946375465,"13":-0.11746872236605059,"14":-0.020142372490234744,"15":-0.03588411539568385,"16":0.00969763251891175,"17":-0.17897023291533068,"18":-0.07962156866481966,"19":0.02983805958996961,"20":-0.11874443471957534,"21":0.019968334807075477,"22":0.02337978972785449,"23":-0.019179884295084722,"24":-0.05773362394074813,"25":0.09162610982648454,"26":-0.009940464843806625,"27":-0.04687643710510423,"28":0.09293834638015268,"29":0.05976759434918311,"30":0.05601253410763982,"31":-0.03604042511445237,"32":-0.03991596147339113,"33":0.10064061673944821,"34":-0.06044346991233406,"35":0.06639215006422942,"36":-0.033480420051753,"37":0.02037655201105593,"38":-0.1831646317983872,"39":-0.07145659100232506,"40":0.06264588414212507,"41":0.06316455592444294,"42":-0.008102209948652881,"43":-0.04822896311434754,"44":0.016345941289088763,"45":-0.07707004476598671,"46":0.012821332952121288,"47":0.05628855777312204,"48":0.012924500960883501,"49":0.08476563699285067,"50":-0.03596716970580421,"51":0.12537258635978157,"52":-0.10855564344265002,"53":0.12891459873122826,"54":0.04035374314153237,"55":-0.03152709275469418,"56":0.05048027938976708,"57":0.10501206899020903,"58":-0.012523038754903895,"59":-0.07207942552916258,"60":0.052028301562286744,"61":0.13921773919023572,"62":0.06951378301476432,"63":0.13063934291252843,"64":0.01138164458685598,"65":0.08335802951370422,"66":-0.018723289202383638,"67":-0.028166783064609794,"68":-0.05237185177060416,"69":0.06422300975296297,"70":0.007952077313205543,"71":-0.007250439455684555,"72":-0.03965182812677058,"73":-0.0004445077241269934,"74":-0.025361698018471327,"75":0.05826218573546386,"76":0.08593801153232826,"77":0.02215293302078667,"78":-0.005090527040463553,"79":-0.07938371773568853,"80":0.011400241381132901,"81":-0.05837813000862129,"82":0.022323968855727846,"83":-0.030553936812362265,"84":-0.01522484719169066,"85":-0.03372943620997868,"86":-0.03570515935592672,"87":-0.041946156808714205,"88":0.028910344648752737,"89":-0.033252678123541074,"90":0.06352011944397215,"91":0.007772624471686901,"92":0.012061098386563707,"93":0.00881646314466967,"94":-0.10614906601582376,"95":-0.047013793720346364,"96":0.0677483879482276,"97":0.05038201667872623,"98":-0.02036771082869002,"99":0.07356167352321857,"100":0.02774174752404936,"101":-0.06581045582052233,"102":-0.024840279884628204,"103":-0.016035706484842222,"104":0.13934339965027678,"105":0.047457231234203055,"106":-0.06409576992763848,"107":0.10050947651136019,"108":-0.06419089920689033,"109":0.10523195843383394,"110":0.028351601461615302,"111":0.07394595091505442,"112":-0.004219604627660887,"113":-0.06987829631566451,"114":0.08709975676221839,"115":0.030746567397089128,"116":0.11924358327812389,"117":0.026802995268628654,"118":0.03942489377531497,"119":-0.02393851128190843,"120":-0.02852125618317507,"121":0.16276420602831645,"122":-0.0613813789122976,"123":-0.027756384711363078,"124":0.04510447936826008,"125":0.10382129013610056,"126":0.03984500684244237,"127":-0.003200672873433824,"128":0.15785067158780047,"129":-0.012510078180599384,"130":0.07398890487971516,"131":-0.045564019095206396,"132":0.01772755333832335,"133":-0.08531372418507131,"134":0.17783047727028456,"135":0.10906613347841082,"136":-0.011196718884978519,"137":0.04017587748397907,"138":0.021924217517274386,"139":-0.018669138866269617,"140":0.060309277048913056,"141":0.03162615833101385,"142":0.1407987122249219,"143":-0.05833735108072734,"144":0.05724343914412088,"145":-0.07183092672612705,"146":0.03423441196605275,"147":-0.019275292195456633,"148":-0.002465839090265242,"149":0.11755372584989583,"150":0.0631343842283966,"151":0.08136477687213116,"152":-0.011279126888120144,"153":-0.01997780263338792,"154":0.025132869837187516,"155":0.05894607773110357,"156":0.06617089840558847,"157":0.010111560156617284,"158":-0.0262387502373342,"159":-0.05331164210102897,"160":0.07772898401885463,"161":-0.01794099407887912,"162":0.004050724171337439,"163":0.11979375909146633,"164":0.004474567428896006,"165":0.05473012666593535,"166":0.10247308775284081,"167":0.011834923329969235,"168":0.0194952888314155,"169":-0.012121057948774569,"170":0.16382048119442422,"171":0.004503299001684821,"172":0.06142737867360628,"173":0.03275420768433951,"174":-0.10994728145563135,"175":-0.04824386560667513,"176":0.027168389994100005,"177":0.13384674602451788,"178":-0.014702899469526772,"179":0.07534524803256003,"180":0.01551038840346937,"181":0.006780844012174904,"182":0.01483018996850303,"183":0.06775566744675739,"184":0.0914368914720124,"185":0.08237283954480028,"186":0.14684113982851454,"187":-0.03253500008176961,"188":-0.019034524456460988,"189":0.0640537300708877,"190":0.0804828082968285,"191":0.17197846881744072,"192":-0.04260259538632079,"193":0.13334455141054155,"194":-0.07205174130190335,"195":-0.02811357848494637,"196":0.040845007404790516,"197":-0.07589704835705284,"198":0.020221747551582847,"199":-0.07204356896225705,"200":0.06785734119614464,"201":-0.03656906080322891,"202":-0.05332601656493092,"203":0.018427425814389966,"204":-0.007254124156292415,"205":-0.001779928876804404,"206":-0.018663509343047724,"207":-0.057510139034594135,"208":0.0038933067178349404,"209":0.04456027210820571,"210":0.09888535594093881,"211":0.01808998463655259,"212":0.02277157428137023,"213":0.04388959146276279,"214":-0.0522461283762009,"215":-0.030026253689290395,"216":-0.00447624941161628,"217":-0.013071566732543704,"218":-0.014595455580533502,"219":0.03224176222658284,"220":0.057782571960943704,"221":-0.017383340127303706,"222":-0.031299410762022035,"223":0.04568034858317125,"224":0.11458765706270405,"225":0.007570601958265559,"226":0.07218456251012834,"227":0.04589555865665934,"228":-0.01701654785037276,"229":-0.02061882355945634,"230":0.09119817969303139,"231":-0.005957797443180523,"232":0.03493893791249596,"233":0.04705496615533359,"234":-0.10228778410190814,"235":0.03525858946906715,"236":0.04969911131766568,"237":0.12700638942654674,"238":0.026817200763301224,"239":-0.05069236219096811,"240":0.05602942455076109,"241":0.022181399728501125,"242":0.02889391229031137,"243":-0.009561560742331146,"244":0.06364113335807682,"245":-0.042069687535648326,"246":0.0900088621685472,"247":0.09630362168346661,"248":-0.11797094823455151,"249":0.10790614646661016,"250":0.04477768057271135,"251":0.09564472525668621,"252":0.06332143479906614,"253":0.019360907395579347,"254":0.04251725531506097,"255":-0.016203302816729444,"256":0.09119966139990426,"257":-0.06276742154986115,"258":0.07424784297812857,"259":0.0408095260735486,"260":0.0783087040642865,"261":0.06960513179567712,"262":0.0338695523932231,"263":0.07295306581166641,"264":-0.03307343739406999,"265":-0.030297877853715863,"266":-0.10617270832494444,"267":-0.02425169470227139,"268":-0.00036698080235196074,"269":0.07763635656293572,"270":-0.13321804306780105,"271":-0.0710913537736774,"272":-0.07727790240603113,"273":-0.07596480935175592,"274":-0.014751256369703886,"275":-0.006459988005197564,"276":0.2805110652309024,"277":-0.02974815065146355,"278":-0.07901834829057901,"279":-0.12199361861726056,"280":-0.0883601116553469,"281":0.010504950212590906,"282":0.05476983479478452,"283":0.008810343305076355,"284":0.047997060137755676,"285":-0.04416951881381527,"286":-0.08931328445230438,"287":0.05643747823056025,"288":-0.032022664997338676,"289":-0.0841274920356475,"290":-0.008955283581021415,"291":-0.16510259508814795,"292":-0.12467696449053349,"293":0.009059037815732057,"294":-0.11924167992698248,"295":-0.07945597854857002,"296":0.03562250683603798,"297":-0.013144475486623916,"298":-0.07651961446984082,"299":-0.03369116865924338,"300":-0.07657240916635044,"301":0.03644190905498678,"302":-0.0971732023106694,"303":0.09346374547742146,"304":-0.34562733665634265,"305":-0.0071719223054112465,"306":-0.05002204801576813,"307":-0.08135746424797863,"308":0.0251603294763191,"309":-0.07886438125319514,"310":-0.03232984568343913,"311":-0.177257234654804,"312":0.06941514640382683,"313":-0.01512441214765363,"314":-0.06192859357622147,"315":-0.011568542548101825,"316":0.033336569076530174,"317":-0.043620022390897344,"318":-0.19803914506991022,"319":-0.03755556505119248,"320":-0.037465431821431194,"321":-0.05457790588310563,"322":-0.049913628262615445,"323":0.10481625344611693,"324":0.030193726905296817,"325":-0.09080135675600695,"326":0.0053632962004203436,"327":-0.009885769246416274,"328":0.010195610587874214,"329":0.059762931790011596,"330":-0.058892677709749645,"331":-0.15887749117239264,"332":0.10620006506233269,"333":0.05423333704450611,"334":-0.08750022865283483,"335":0.01994475357491623,"336":-0.06702268818550874,"337":-0.05349807645732681,"338":-0.08201700678276119,"339":0.02655727931052186,"340":-0.00022069535043167305,"341":-0.07058184437934321,"342":-0.10068004928474182,"343":-0.026632550274452455,"344":-0.01719603207757316,"345":-0.07256717163381515,"346":0.13212816065663,"347":-0.000432509086541916,"348":-0.004590891826259066,"349":-0.020465897072516774,"350":-0.12756986963332584,"351":0.04077042299418254,"352":-0.004434307765312836,"353":-0.10758608367990669,"354":-0.0095953024806406,"355":0.004498942893652399,"356":0.043701054787375494,"357":-0.023895828126403333,"358":-0.017664317833798227,"359":-0.18068076280313164,"360":-0.22026750221746755,"361":-0.1156979554429105,"362":0.04381642636367136,"363":0.040178462271994037,"364":-0.10685881216096597,"365":-0.03476975549472219,"366":-0.12428771026048657,"367":-0.1319544834612882,"368":-0.054694999375716535,"369":0.08338608027921472,"370":0.008359448109366296,"371":-0.06676577891496051,"372":0.007935858622413852,"373":-0.028550537491653476,"374":-0.21486797127864116,"375":-0.16314371959739424,"376":0.010674724736556247,"377":-0.12602323335311252,"378":-0.0976395327866012,"379":-0.08591646047585691,"380":-0.02626747546913771,"381":-0.011055212999306804,"382":0.006377475419017372,"383":-0.05384115323729817,"384":-0.059179478899863545,"385":-0.07324246324475789,"386":0.02071967671719871,"387":-0.09091866354955015,"388":0.0011846117987540045,"389":0.006525828234225113,"390":-0.04096874508502113,"391":-0.08635405454639973,"392":0.07508193056822111,"393":-0.02898746846600814,"394":-0.10038372592047824,"395":-0.011990719149173218,"396":0.009646918344070858,"397":0.004463888798335762,"398":-0.07503816958021982,"399":-0.05416708160711648,"400":0.007173460604560817,"401":-0.02490791339679821,"402":-0.013797214354932693,"403":-0.004714266131886919,"404":-0.018977899763424365,"405":0.034473442261213925,"406":0.04840117179000126,"407":0.012638567748859677,"408":0.0031833822220621987,"409":0.1481393337948024,"410":-0.020841365284518517,"411":0.032658449695053604,"412":0.08158031328636543,"413":0.03296985361160954,"414":0.07795722374612551,"415":-0.023444942873364263,"416":0.05741708221956284,"417":-0.04775993004483386,"418":-0.020340181126333966,"419":-0.030133818558653335}},{"sx":1,"sy":1,"depth":420,"w":{"0":0.11145387533339393,"1":0.2656620926539493,"2":0.11707135902765028,"3":0.10105050289545733,"4":0.0675600826038721,"5":0.024730225870370794,"6":-0.008064678457740879,"7":-0.013258432275279982,"8":0.14172213169633166,"9":0.06100808686846113,"10":0.0266374068565002,"11":0.032332704314114516,"12":0.030417628421398214,"13":-0.06919061082409977,"14":-0.012722853512121267,"15":-0.021099749652047615,"16":-0.06041122691521644,"17":-0.09318792832038736,"18":0.12698002804817732,"19":-0.015404820891134645,"20":-0.026708808192415306,"21":-0.09094037849518681,"22":0.05240712483346567,"23":0.03576877769144304,"24":-0.04530479008270999,"25":0.1130444169523004,"26":0.025437919610055846,"27":-0.02481672075556182,"28":0.05974538247234641,"29":0.09463619429313705,"30":0.05658714272356084,"31":-0.05471207143085335,"32":0.052042965441976126,"33":-0.04805115688589922,"34":-0.0026568090625617674,"35":-0.018119075002254948,"36":0.05817647775676691,"37":0.012960176068901166,"38":0.057052869703671925,"39":-0.039941664763162445,"40":0.06539400836214929,"41":-0.028728737213683474,"42":-0.024438152747166562,"43":0.04805700412255804,"44":0.037968528250822434,"45":-0.052114497594283396,"46":0.00862888731401144,"47":0.06358246497721741,"48":0.041722234134259316,"49":0.04865407633289237,"50":0.02120825546313176,"51":-0.012763978868898424,"52":0.004387948403306653,"53":0.012042198450524573,"54":0.07878327018658167,"55":-0.022563979592814427,"56":0.062614093767218,"57":0.11086364903651967,"58":-0.0958959355209679,"59":0.08674662669776972,"60":0.0987473813879923,"61":0.02232714325028534,"62":0.01982134426775708,"63":0.05770509859189318,"64":0.08562721629868059,"65":0.03719192764259862,"66":-0.028681712139126,"67":-0.04423497588717245,"68":0.07461710431131335,"69":0.0707120044677652,"70":0.08208040254957027,"71":0.08773917627355429,"72":0.052973399902682565,"73":-0.15998410305394464,"74":0.1065274405089236,"75":0.04282348494806607,"76":0.0034596452266610644,"77":0.02017443597065688,"78":0.17802349201732703,"79":-0.041228747737785204,"80":-0.043878124191677456,"81":0.04922948679134324,"82":-0.025069475309245193,"83":0.0983936702923232,"84":0.08085210008674774,"85":0.038373957849334776,"86":-0.02025467586718661,"87":0.057308480515623296,"88":-0.018547402906980696,"89":0.0214388955754237,"90":0.049599332442829214,"91":0.04104981277080143,"92":0.08348610241900252,"93":0.03234181077413393,"94":-0.07056985985330991,"95":-0.05349553628677305,"96":-0.02928700240916236,"97":-0.000007401551808433886,"98":0.04595914592622918,"99":0.030744025751111927,"100":-0.029086359778997678,"101":0.014535310226135387,"102":-0.12918371724820965,"103":0.02698142598856471,"104":-0.053860730722280155,"105":0.026307182324266924,"106":0.07780920191797866,"107":0.08029300067685326,"108":-0.08953632718768083,"109":-0.04545081950691876,"110":-0.0031635241122486154,"111":-0.054879487896024925,"112":0.10464676034090241,"113":0.09009105879566377,"114":-0.026310617137460003,"115":-0.12873718309174553,"116":-0.10671166360291415,"117":0.002550726574024535,"118":0.000004352674889172002,"119":0.04040550022102499,"120":0.09058741178219021,"121":-0.020368984119455324,"122":0.021788152916790066,"123":-0.060656208398263765,"124":0.047258923117281665,"125":-0.01285849486516184,"126":0.15698588893369356,"127":0.09846164065719291,"128":-0.10715995217860663,"129":-0.08214985843574876,"130":-0.10821275786062523,"131":0.06854626516108958,"132":0.0695271403478685,"133":-0.0026853741211175716,"134":0.0032858740253739415,"135":-0.10778236081728587,"136":-0.00933238496429866,"137":-0.08577917887897948,"138":0.023158300382977465,"139":0.04288181003062768,"140":-0.015575902255027106,"141":0.028544367477691707,"142":-0.1230044661487416,"143":0.03744993074556077,"144":-0.001170210012962902,"145":-0.07482773357065954,"146":-0.0009173868609447171,"147":0.012451732513774494,"148":0.09703910325388906,"149":-0.13876773403343215,"150":-0.1032643000237634,"151":0.04463080171950772,"152":-0.0008740695850691092,"153":0.03239311469764155,"154":0.06152118906297014,"155":0.05428868282447442,"156":-0.03076328012167117,"157":-0.06752903061422341,"158":0.017665270430828398,"159":0.04030987645560359,"160":-0.04189481401390368,"161":0.006546066584034755,"162":0.03931368015243308,"163":-0.09205673360262828,"164":0.01626228171366264,"165":0.01656484185440727,"166":-0.07824431875601853,"167":-0.036157640017484345,"168":0.06481295460213525,"169":-0.0014399940271260451,"170":-0.006668840644867068,"171":0.004705926869798348,"172":0.026110771602425593,"173":0.013345521222345313,"174":-0.09599263263717298,"175":0.04302896814286475,"176":0.007275450278981281,"177":0.03282215578070068,"178":-0.06938592211788772,"179":0.01114718583859015,"180":0.06877804080249159,"181":-0.1156269682700665,"182":0.08936757238165133,"183":0.009127419085293994,"184":-0.08113287696083016,"185":-0.024013878426458857,"186":-0.1011916808443034,"187":-0.061240917286722346,"188":0.014584162387091287,"189":-0.06204148174268939,"190":0.049394268808524884,"191":-0.06961479334551435,"192":-0.030380881424544457,"193":0.08242722349447107,"194":-0.024982547482163234,"195":-0.13896360466388988,"196":-0.01923007110437196,"197":0.010169758747283843,"198":0.0071594836470304565,"199":0.04600139802433197,"200":0.03851808894961034,"201":-0.017637595254733265,"202":-0.1766321061271112,"203":0.001241173064403885,"204":0.04204033866689309,"205":-0.059347150378008716,"206":-0.014096207011584296,"207":-0.0675316785591775,"208":-0.14534330000068227,"209":-0.09463072782543211,"210":0.025514411592279213,"211":0.0701486125602057,"212":-0.10841165136667921,"213":0.025001861542016023,"214":-0.055341835157481374,"215":-0.028176925770301703,"216":-0.1783238521377951,"217":-0.049706456076626486,"218":-0.0177811848140775,"219":-0.12777418998823795,"220":-0.10897607585752939,"221":-0.023115033012773005,"222":0.04904462767609052,"223":-0.017165941187467715,"224":-0.008792759875204222,"225":0.004203773734657881,"226":-0.008297504178346921,"227":-0.004793743333647318,"228":0.08628890290359273,"229":-0.040602444964465224,"230":-0.04208116821217918,"231":-0.07143835572627197,"232":0.06663549717425536,"233":-0.1527724882545675,"234":-0.034816165592285404,"235":-0.03265310801587837,"236":-0.009565026814903427,"237":0.025891565256084655,"238":0.023435523577656915,"239":0.038852545795337236,"240":-0.10749191003846466,"241":-0.08907572756325975,"242":0.06800096731300034,"243":-0.06303060791488847,"244":0.027681231295596034,"245":-0.004327568083994845,"246":0.08120481505667695,"247":-0.029084998291899523,"248":-0.16665373069791756,"249":0.05825849170648465,"250":0.008070388755054668,"251":0.06276255273807915,"252":0.0382350307737317,"253":0.04007999591897946,"254":-0.14808769000352381,"255":-0.16452392368439187,"256":-0.09897530181513232,"257":-0.01994371661535797,"258":0.007572990221391852,"259":-0.06662690192858918,"260":0.0006202979999770274,"261":-0.021272162938322195,"262":-0.204499958809687,"263":-0.08272254241386684,"264":0.0016736015947188922,"265":0.061109087946720986,"266":0.055509734324535244,"267":0.07382747862468021,"268":-0.07670902237857076,"269":-0.15129741966635737,"270":-0.14387927393930283,"271":-0.09625270287364744,"272":0.025595230185681668,"273":-0.0497555757241581,"274":0.11026648471494885,"275":-0.03834051688347711,"276":-0.25947773441373617,"277":0.03277602367707965,"278":-0.07423845165241481,"279":-0.05540572873135564,"280":0.021092539224698552,"281":0.08061687951336662,"282":-0.015208506674158,"283":-0.19364461402905112,"284":0.007081326451905005,"285":-0.08179672141394081,"286":-0.060311031215866784,"287":0.05600867200309132,"288":0.10413802564299265,"289":-0.20340121012421453,"290":-0.17656296586350767,"291":0.020623249156956062,"292":-0.003211675464884688,"293":-0.035424807217745796,"294":0.10936455135114034,"295":0.17940084304230022,"296":-0.2714675890786939,"297":-0.2992936749687905,"298":-0.211771926300531,"299":-0.046834284698367395,"300":0.0015557362573223874,"301":-0.05103304053719682,"302":0.14896095295117676,"303":0.013238396406950398,"304":-0.41110166057048986,"305":0.16830980229171996,"306":-0.07564564044312937,"307":0.01653452574181379,"308":0.028289599586585067,"309":0.09610716869536227,"310":-0.09858807959597832,"311":-0.34028555327871407,"312":-0.024403113400290378,"313":0.004610451114237568,"314":-0.02858685095665631,"315":-0.034616823755986195,"316":0.025811872181426727,"317":-0.13247453969380563,"318":-0.3292426639100515,"319":-0.03832092341366962,"320":-0.08622322984278312,"321":-0.10324536308980801,"322":0.04929351509579161,"323":0.05452723861152978,"324":0.07220376103000863,"325":-0.11983823275953676,"326":0.12579535500210282,"327":-0.013735481955313007,"328":-0.14242296244255018,"329":0.02695303664288418,"330":0.023716360714255213,"331":-0.11780498338048033,"332":0.2590049918831206,"333":-0.13295852010918596,"334":-0.08967669713611538,"335":-0.04909694778981998,"336":0.04263658577647721,"337":-0.009782515118171613,"338":-0.07059882737351918,"339":0.2655940087496223,"340":-0.07735704766944682,"341":0.059251883048486824,"342":-0.07920615819961783,"343":0.030782809147838604,"344":-0.014176227867801065,"345":0.020701882476894615,"346":0.2793618130486695,"347":0.023921741397830844,"348":-0.10988979101011863,"349":0.035307062123200554,"350":0.05239584211935796,"351":0.0585907352495152,"352":0.035896218344229985,"353":-0.20810858497826662,"354":0.030415114272521252,"355":-0.08597297268860178,"356":-0.0286416296919284,"357":0.10400807993442762,"358":0.07311589356846886,"359":0.03334511790273452,"360":-0.15936225465393425,"361":-0.07182043471336606,"362":-0.0321965962895842,"363":-0.0016022751690571004,"364":0.03699185609341817,"365":0.03319423966346083,"366":0.03434999329461084,"367":-0.15735485582687736,"368":-0.06979381884610464,"369":0.07753386724501699,"370":0.06417704507028837,"371":0.14670052948089324,"372":0.020939001126810155,"373":-0.013115657558275977,"374":-0.14452235514319703,"375":-0.133601025021832,"376":0.08074807276678674,"377":-0.046160030886920715,"378":0.09536923486029535,"379":0.05099791319531075,"380":0.11655488324298603,"381":0.252385752193724,"382":-0.005295132000419778,"383":0.01545485983133241,"384":0.06516315406418542,"385":0.059923015930405284,"386":0.18756562975328792,"387":0.16731333646908497,"388":0.2822516370786459,"389":0.06390326321250786,"390":-0.0023368063865542516,"391":-0.011771382447802436,"392":0.09186062530377359,"393":0.050128259481340205,"394":0.1485163358711332,"395":0.1827188501833935,"396":0.10039799690645008,"397":0.05338617571609352,"398":0.08090930803323669,"399":0.084323265732157,"400":-0.01618092805109839,"401":0.12989383366814616,"402":0.09090604149435767,"403":0.05900442180444735,"404":0.07044877205129924,"405":0.045148849025983796,"406":0.16215158845058067,"407":0.12406608902739644,"408":0.11323072563188603,"409":0.1892129764100805,"410":0.12446193320132462,"411":0.12113272988541428,"412":-0.02421960430504515,"413":0.07475306007382508,"414":0.11394395654010343,"415":0.1725482137112797,"416":0.24054701027362746,"417":0.08326699997910743,"418":-0.0038159633538332773,"419":0.026710240749541796}},{"sx":1,"sy":1,"depth":420,"w":{"0":0.025917022832736374,"1":-0.006097603403443972,"2":-0.04782031809889194,"3":-0.05708356266134632,"4":0.006233331507931584,"5":0.004231659802217788,"6":0.04585198808756727,"7":0.026321829412671065,"8":0.013474455713685541,"9":0.045656533539199726,"10":0.055292163504925766,"11":-0.03428824798713593,"12":0.013441925228344365,"13":-0.08140780947745975,"14":0.006255167532969847,"15":0.014398582869730272,"16":-0.03647248970088818,"17":0.03691668949582184,"18":0.02495433949110817,"19":-0.07016504237392664,"20":-0.001320756478666973,"21":0.003877762587245201,"22":0.013640678347621508,"23":-0.02231732369282798,"24":-0.026341386046551136,"25":-0.07045236448149995,"26":0.02855318352626084,"27":0.037512229125831215,"28":0.029747071350024152,"29":0.05883483084876092,"30":-0.06336875144710999,"31":0.02143430470373282,"32":0.03648937486446224,"33":-0.0704555485267303,"34":0.08434799313700085,"35":0.026734564505384355,"36":-0.00896890531488366,"37":0.05887843065119784,"38":0.012341170978113028,"39":0.05769626094329632,"40":0.04136761412229869,"41":-0.007542131956650108,"42":0.004636511305379986,"43":-0.02915327879448375,"44":0.07747312549616148,"45":-0.04881619427536022,"46":0.07623008977110252,"47":0.012109487863939982,"48":-0.10178931020937221,"49":-0.029656952200246257,"50":-0.0060196389942357665,"51":-0.01481401709119374,"52":-0.03223670055675364,"53":0.06066350905418329,"54":0.09112673145189965,"55":-0.0014819237547253822,"56":0.04933048638732244,"57":-0.08770339844855433,"58":0.00451814896899731,"59":-0.009057245397146555,"60":-0.032040046163682,"61":-0.0015008585088890777,"62":-0.013359776199457272,"63":0.011296848770659436,"64":-0.00725559483295373,"65":-0.03236549374100478,"66":-0.04449052237156155,"67":-0.02222795576101424,"68":0.08033044920409822,"69":0.028320867581522077,"70":-0.04433440568585256,"71":0.00795176185200148,"72":0.02299295477144624,"73":0.08811129228681307,"74":-0.03491017294520974,"75":0.040821263350288704,"76":0.06754874730751219,"77":0.15166741167026296,"78":-0.045372278018113096,"79":0.04456243460944172,"80":-0.005267422790887596,"81":0.03812035991676855,"82":0.0600998560012613,"83":-0.019218503097052864,"84":0.029695338875110718,"85":-0.014862718699034891,"86":0.07410865211104277,"87":-0.010522518174553026,"88":0.03155547456611573,"89":-0.06765607277085102,"90":0.0361450366613432,"91":0.04762619375966371,"92":0.04165795390967856,"93":-0.03006945477395989,"94":-0.10688405036293339,"95":0.017065219374971238,"96":-0.006925306086382427,"97":0.038711350114947536,"98":0.030572464210763074,"99":0.11742133974276787,"100":0.011309232877674609,"101":0.029881175043653115,"102":0.02724565397613742,"103":0.035798696142176324,"104":-0.004274935005725974,"105":-0.00017336242976301078,"106":-0.009045915473029756,"107":0.012371120707948121,"108":0.04493043158231717,"109":0.02448120713435328,"110":0.026827843170392957,"111":0.028896247871173477,"112":-0.03356781319342651,"113":0.04918678790704423,"114":0.023813136828282722,"115":0.03692822476641647,"116":-0.035159537661049935,"117":0.05318276734880978,"118":-0.055501518966173266,"119":0.05426556051386656,"120":0.023397509104468243,"121":0.052849130867570766,"122":-0.07467788383094878,"123":0.06990304135649231,"124":-0.03180897800678259,"125":0.06637800900548592,"126":-0.017208802159253907,"127":-0.05428058407741051,"128":0.058893613800932096,"129":-0.026360889134371627,"130":0.002738520042246495,"131":0.02007062463576623,"132":0.0535839804166385,"133":-0.023355293291495226,"134":-0.03240345978940508,"135":0.05708125941032149,"136":0.00534115887719434,"137":-0.03548033778583953,"138":0.00996331714824015,"139":0.05405196645211118,"140":0.045757825120856944,"141":-0.0004980983051406537,"142":0.005978970611478678,"143":0.07675977485983893,"144":0.009387335638047006,"145":-0.05722655486792273,"146":0.0007153834655979993,"147":0.002241142848945849,"148":0.018608098647962007,"149":0.013123673958383451,"150":0.1034349802008733,"151":0.015579528302820417,"152":-0.08759526697078562,"153":0.05090650479022307,"154":0.03986970285609517,"155":-0.0030262768832107294,"156":-0.018325186296608936,"157":0.05911552170304816,"158":0.0024026491728218686,"159":0.0009007967718295621,"160":-0.0034572473971580244,"161":0.01166635507070473,"162":-0.07635431174258764,"163":0.0804143316822925,"164":0.02510578325398316,"165":-0.07475915378569375,"166":-0.044044449745277575,"167":0.024107240460921792,"168":0.10939264199374871,"169":-0.01933876738643975,"170":0.023545811292465555,"171":0.016451333464358776,"172":0.13611506955125463,"173":0.029362362315310822,"174":-0.055280732441733496,"175":0.08484700550875647,"176":-0.0027739970680673996,"177":0.08328951667142397,"178":0.0002482681605349724,"179":0.011676525802089915,"180":-0.0022134049080176034,"181":-0.03188923895013003,"182":0.05229961512974194,"183":-0.05732975955682098,"184":0.10709982287388016,"185":-0.009141233119156232,"186":-0.023356733669972905,"187":0.025592187178126318,"188":0.01730852543915415,"189":0.04453163256615018,"190":-0.03782252131772699,"191":0.00012252413022640843,"192":0.05804641075674351,"193":0.035133484242619716,"194":-0.022620866347409816,"195":0.052695629109184204,"196":0.00004155924547943266,"197":-0.019919476574914902,"198":-0.029705138690879353,"199":0.06973931700052581,"200":-0.012903559143225928,"201":0.020575804401928143,"202":0.041411962204816986,"203":-0.014511709837542686,"204":0.008727824427540333,"205":-0.05464723167411115,"206":0.03622237420993527,"207":-0.02491637447872693,"208":0.05107655078664556,"209":-0.0009770326113607342,"210":-0.025617394667955443,"211":-0.018894818451771052,"212":-0.013175528693760737,"213":-0.03255692178838243,"214":0.03490894996818753,"215":0.06147151376376589,"216":-0.0675826804310352,"217":-0.11441158740671589,"218":0.05551104195944167,"219":-0.015560463051369643,"220":0.042761637872189846,"221":0.06163356451969697,"222":-0.07466990745308477,"223":-0.004542167350093069,"224":0.0014067680507542822,"225":-0.11236632185385058,"226":0.0007654956072010152,"227":-0.008493195015233487,"228":-0.05345395020480605,"229":-0.024003773233398164,"230":-0.020128450204493283,"231":-0.02265663441371058,"232":0.032433919735711594,"233":0.018045203701419224,"234":-0.028299403974466886,"235":0.006273157453312779,"236":0.026043196224001638,"237":-0.00018151948607657924,"238":-0.05736346329789045,"239":-0.0048238526607178745,"240":0.0589838217448457,"241":0.0014476277299843299,"242":0.045330258270592234,"243":0.05626705071316277,"244":0.05101483747893297,"245":0.05087640319013701,"246":0.007042793128207615,"247":0.08647300079727561,"248":0.096450039706582,"249":0.01966200115119583,"250":0.017213484252542086,"251":-0.01757931068095661,"252":0.03280672123903274,"253":0.04710279683546306,"254":0.018951763619004705,"255":-0.04888467732720768,"256":0.027617527998895865,"257":-0.03938245941404996,"258":0.007462153809338413,"259":-0.03285621585210243,"260":0.03760854990141597,"261":0.03376507037651702,"262":0.002797413632933587,"263":-0.06036698563244587,"264":0.032173737135378674,"265":-0.021039128914875357,"266":0.013300201342569888,"267":-0.06122602446154221,"268":0.016206412849265644,"269":-0.03272866152915627,"270":-0.08385092689020515,"271":0.02968064260828245,"272":-0.0032075419836065967,"273":-0.01082151285974388,"274":-0.007848130966641264,"275":-0.03496518044096869,"276":0.03513045476455417,"277":0.07803643455677335,"278":0.06720918274990673,"279":-0.002729640108328433,"280":-0.00869353201456771,"281":0.029825938996760053,"282":0.06112363647878098,"283":-0.010236774337286085,"284":0.06648765512908678,"285":-0.047017054454233605,"286":0.007573262704220784,"287":0.006587208328443508,"288":-0.010626583556951598,"289":0.14234986218160253,"290":-0.018900939378631795,"291":-0.029999851160218804,"292":0.07693805742294903,"293":0.07035773990942891,"294":-0.11289036398727184,"295":-0.07048507934847414,"296":0.08682517141018309,"297":0.031536868448320717,"298":0.010374279654290273,"299":0.05134905047831849,"300":-0.034663237191228186,"301":-0.01960817147958818,"302":0.0018766859023964457,"303":0.015424671872607721,"304":0.1026143346538353,"305":-0.004349818411385596,"306":0.08345636052819597,"307":0.048630235046032116,"308":-0.09505170827914895,"309":-0.044134380811943145,"310":-0.002964504536103113,"311":-0.004352564856492068,"312":-0.0012309185173489427,"313":0.11937062473696185,"314":0.028566988163210443,"315":0.007243825819861211,"316":0.004995995498282621,"317":-0.05940219482872972,"318":0.01241474636491942,"319":0.05562671267672943,"320":-0.018858995754066576,"321":0.018462051215823175,"322":0.036673549511807325,"323":0.04414862957492577,"324":-0.0002340935212676858,"325":0.11311340533184729,"326":0.11711546811230919,"327":-0.04156050952942577,"328":0.06641174127886582,"329":0.0022924021887453447,"330":0.0030934366074962497,"331":-0.027918361941814553,"332":0.027619632289267917,"333":0.025062293943486483,"334":-0.03439562356229436,"335":0.06688094135188953,"336":-0.017154873715863897,"337":-0.01285393713465763,"338":0.03299405350991238,"339":0.04413493949354684,"340":0.09702770336686936,"341":0.015589281689295706,"342":0.01670919158480785,"343":0.006645959934422326,"344":-0.01644131648092765,"345":-0.07216501792024858,"346":-0.06916291006701289,"347":-0.017767750062201337,"348":0.06552100214917735,"349":-0.06881635921655536,"350":0.0840464644957603,"351":-0.057076909498509826,"352":0.05124193642978652,"353":0.09197802643981264,"354":0.03568218210776216,"355":-0.041959609201563566,"356":0.03291101921164665,"357":0.11872048726860561,"358":0.12526716255527895,"359":0.03855426776896787,"360":0.07003410880666351,"361":0.058393807009534525,"362":0.09308778594142465,"363":-0.08362934519179781,"364":0.07841532737263235,"365":0.05721034228434557,"366":-0.023184930002475575,"367":0.0985337954226584,"368":0.017674666924680726,"369":0.007898687344336932,"370":0.08637674546892117,"371":0.07185520613191514,"372":0.03224700242801345,"373":0.10915895849910126,"374":0.0737472510090194,"375":-0.022552288213080463,"376":0.088702259664594,"377":-0.009463271869446952,"378":-0.002321502299405237,"379":0.043647450523593485,"380":0.0070486291788247595,"381":0.04555940615243341,"382":-0.03266988665834311,"383":0.027821573516324492,"384":0.013419608632778014,"385":0.03082355873104887,"386":-0.014877356349170034,"387":0.07711026029636069,"388":0.040158682441461827,"389":0.00003673083601315673,"390":0.07786515620320988,"391":-0.05442422821625954,"392":-0.08561193192136539,"393":0.035164562038119705,"394":0.03503295987718173,"395":0.023256230530295376,"396":-0.009459100842379099,"397":-0.015289733883520678,"398":-0.003788680696641754,"399":0.04331370910327385,"400":0.03241263088828612,"401":0.039928346388006325,"402":0.018589622593259043,"403":0.01711655521863985,"404":0.041133355420856374,"405":0.029888052747818476,"406":0.04850962325518825,"407":0.02611335903445415,"408":-0.03844754265330521,"409":0.025124605566272284,"410":0.014665177811231564,"411":-0.026682237852930477,"412":-0.05134634484543469,"413":0.06492855040724013,"414":-0.01111567424147405,"415":0.0581124719913329,"416":0.021569509633880334,"417":0.040875059339566075,"418":0.0015950946043034962,"419":-0.028302467055968485}},{"sx":1,"sy":1,"depth":420,"w":{"0":-0.09467775659024817,"1":0.03659055288014209,"2":-0.11908731243884058,"3":-0.020342167470509077,"4":-0.08225761949163957,"5":-0.011109566189540732,"6":0.013268312136195405,"7":-0.06054927638646279,"8":-0.04063382800264689,"9":0.05416191286463367,"10":0.02026819068824273,"11":-0.01980246615776727,"12":-0.05025853099883629,"13":-0.053700889596891795,"14":-0.026505577541375815,"15":-0.04793653110749178,"16":-0.04296309191460079,"17":-0.10738460572387458,"18":-0.02193376971770784,"19":0.0006634978261830579,"20":0.03811383181456956,"21":-0.030977219082819193,"22":-0.0593152875705579,"23":-0.12483994181472091,"24":0.019309842058967113,"25":0.04304452420050162,"26":0.05447952371866785,"27":0.04217465070268481,"28":-0.06339305063272496,"29":-0.0620264769811012,"30":-0.12324873793043833,"31":-0.018537922021557345,"32":0.036044485373102536,"33":0.0303536233817621,"34":-0.040824857394255634,"35":-0.013115263584198135,"36":-0.09230738957581175,"37":-0.10912095814652388,"38":0.031020801305832027,"39":0.018241176322881636,"40":-0.044688451825824385,"41":-0.02755748090212806,"42":-0.039501802819213415,"43":-0.055283978191292917,"44":-0.034003858024835264,"45":-0.07960877794546879,"46":-0.040116079161586195,"47":-0.02278861310129366,"48":-0.029395729203392378,"49":-0.07318177071829818,"50":-0.08272306507146493,"51":-0.04275486976536025,"52":-0.03816796241751491,"53":-0.040657889995258045,"54":-0.0278205131212406,"55":0.028269565140591122,"56":-0.046041303304015874,"57":-0.030993262769178794,"58":-0.0804067647722365,"59":-0.05262802821698271,"60":-0.06888224770956568,"61":0.03951246873303199,"62":-0.02507664272618456,"63":-0.02154030353806993,"64":-0.029464810045815883,"65":-0.05724769559498631,"66":0.0006436827924346338,"67":-0.05002032856071114,"68":0.0023008664122724683,"69":-0.043799749739870324,"70":-0.07624643072093296,"71":-0.08347507028112787,"72":0.038317322461168986,"73":-0.02123177528479682,"74":-0.002307183262274413,"75":0.034829483354510665,"76":-0.1323856254808066,"77":-0.09328806852071005,"78":-0.04207566615132441,"79":0.017033700400651604,"80":0.02796433793961261,"81":-0.016129318380889008,"82":0.025247081556803934,"83":0.04076029337330393,"84":-0.03532644881542985,"85":-0.03559843850366513,"86":0.042133948562632424,"87":-0.06128707231907903,"88":0.13085885019796434,"89":0.07583930922413466,"90":-0.07531423945730308,"91":-0.04333039677813322,"92":0.07485702500468155,"93":-0.09773730388220002,"94":0.061547751773870805,"95":-0.008135463825469334,"96":-0.015257706328021217,"97":0.0033505196138538286,"98":0.035905731079183996,"99":0.03931382614079321,"100":-0.0758177439457356,"101":-0.017871773679057724,"102":0.07771323508966628,"103":-0.009333413529855087,"104":-0.022502550085813627,"105":0.010969364911157457,"106":0.004085917056347792,"107":0.030620434011080205,"108":0.055127883222658644,"109":-0.057087987377697574,"110":-0.031512351884889184,"111":-0.024042345109778245,"112":-0.10330936380369654,"113":0.04875423053710471,"114":-0.020895126820397555,"115":0.12652127652676898,"116":0.014713225032090044,"117":-0.04550349888223909,"118":0.03546484278958681,"119":-0.056141841569728256,"120":0.03455948250382203,"121":0.10740778597845883,"122":0.10475777238282401,"123":0.0027305701037467402,"124":-0.03718521762344549,"125":-0.02893275607200932,"126":-0.022751009972750477,"127":0.01308640825729827,"128":0.09629321015108758,"129":-0.010158316494410891,"130":0.0037455470070853827,"131":-0.017490120836755503,"132":0.03867109396679402,"133":0.01856565839207481,"134":-0.06794705290172515,"135":-0.0404787264512113,"136":0.03788906591308221,"137":-0.02724739023438322,"138":-0.060096981617283635,"139":-0.03272186800735824,"140":-0.04050354560598409,"141":-0.021679197293839318,"142":-0.02296993504029867,"143":0.05163751043900581,"144":0.04769619986278376,"145":-0.024312477833676294,"146":-0.016483071929090008,"147":0.010305688625363515,"148":0.07153835437917723,"149":-0.04317108875313903,"150":0.14257449240094483,"151":0.08515280818227842,"152":0.06336005996607164,"153":-0.01826623137580772,"154":0.05365466735328946,"155":-0.10265670223088373,"156":0.06838799057423461,"157":0.12422919968401673,"158":-0.012999996535307649,"159":0.02770661113588661,"160":0.04587556126846763,"161":-0.02440634831405586,"162":-0.019055368768147823,"163":0.08517225361364415,"164":0.18144416952432016,"165":-0.02734165218299618,"166":0.10460163740842938,"167":0.010941279886646992,"168":0.03417444533208514,"169":0.014860662547640683,"170":0.08065104075699134,"171":0.1357983001541247,"172":0.019216896560617237,"173":0.06987750676420161,"174":-0.004929559317530918,"175":0.009812341901845816,"176":0.008700252356248162,"177":0.037625204223413575,"178":0.18159818166472455,"179":0.030413842394949053,"180":-0.01019576302906553,"181":0.06783749962153483,"182":-0.10425017993792902,"183":-0.029448124484973564,"184":0.11333184807265473,"185":0.03638211131883108,"186":0.0166596355677097,"187":0.09722689186095586,"188":-0.010372048237729994,"189":0.03077298885986728,"190":0.041849791723156456,"191":-0.004071403643179532,"192":0.16288302979262562,"193":0.06987575635253077,"194":0.05129112618759745,"195":0.024200730874787357,"196":-0.052881068943482684,"197":-0.00314031600893995,"198":0.106617181466438,"199":0.13536204437348562,"200":0.017570215307965147,"201":-0.06612119135958805,"202":0.020857966575363884,"203":-0.12464060545244253,"204":-0.10453527780840072,"205":0.035916645402216396,"206":0.032832137913989576,"207":-0.01995207929855387,"208":-0.028640780949478816,"209":-0.05554389717827354,"210":-0.056487737494372095,"211":-0.05147715181239179,"212":0.08838436474389308,"213":0.13065636400744773,"214":0.018328903293443218,"215":-0.03778201925389397,"216":0.015823565285877833,"217":-0.04139963954195503,"218":-0.026310059453026016,"219":-0.023022633617890587,"220":0.14206626522915805,"221":0.12457501244165099,"222":-0.10667072006691881,"223":-0.006965600107595218,"224":-0.016709943768445444,"225":-0.08822710016271498,"226":0.08499064539477931,"227":0.19929418864251267,"228":0.051605655087970034,"229":0.05619558703729342,"230":-0.029787044898072032,"231":0.002660594045394855,"232":-0.00020314315917533622,"233":0.043543887122555906,"234":0.17118513508330524,"235":0.021036430451933243,"236":0.025023185492786988,"237":0.03865419399434977,"238":-0.0011918536833572992,"239":0.058795413384627515,"240":0.15079659098387968,"241":0.12430809505958638,"242":-0.06269262890594866,"243":0.017591794936261923,"244":0.01641951734465093,"245":-0.09026525770157258,"246":0.03594713907283286,"247":0.07383525222274773,"248":0.14746969594073808,"249":0.038580814521879316,"250":0.02271149411569505,"251":0.007500114142129481,"252":0.04443051110425365,"253":0.04497919673991,"254":0.10269983506370133,"255":0.01656508057535288,"256":0.007138180589008325,"257":-0.08842837429501259,"258":0.014298368345955489,"259":-0.08258240320693477,"260":0.007656696450251354,"261":0.21281371141433672,"262":0.09241027456813262,"263":0.12360525890899564,"264":-0.08503635657456429,"265":-0.03679560945224614,"266":0.051785325996133315,"267":-0.02820360683979732,"268":0.18572817627977511,"269":0.07655114069177103,"270":0.0700566374163866,"271":-0.13163804227648992,"272":-0.0214880623448088,"273":-0.016261427745035178,"274":0.07905023185494454,"275":0.14517804522106162,"276":0.04433294000869429,"277":0.0031443661421542597,"278":-0.03914385694334228,"279":0.04400632635117783,"280":-0.016494037627809575,"281":0.079116201071808,"282":0.10659836679981764,"283":-0.12783028948694286,"284":0.06056482115475302,"285":-0.04365893912887149,"286":0.04400667168937216,"287":-0.10342908539214135,"288":-0.0082410964129813,"289":0.10054854818411657,"290":-0.14957710734683355,"291":0.07103739130675885,"292":0.051659545952822614,"293":0.005517444659931132,"294":-0.05814029790204677,"295":0.05102352816142525,"296":0.21307266330895064,"297":-0.21815332449876212,"298":0.02285233072620054,"299":-0.03079710078867643,"300":-0.041476110964032586,"301":-0.001962305998027815,"302":-0.03633271846652041,"303":0.12519689480921042,"304":-0.1251893151094402,"305":0.08094296962053178,"306":-0.008274876331201624,"307":-0.04754295247462676,"308":-0.015096309303160929,"309":-0.06664811792351702,"310":0.16308838949447788,"311":-0.030471509329691813,"312":0.0881532968034228,"313":-0.008193361529582248,"314":-0.049440586564530035,"315":-0.008182124046309,"316":0.04457274035576228,"317":0.15866586442271446,"318":-0.023521277649777742,"319":0.06388395693967301,"320":0.027532068137648653,"321":-0.03305437240100562,"322":-0.03244944687543393,"323":-0.06647280831692902,"324":0.08669512911127256,"325":0.10232445176387732,"326":0.05520871927204105,"327":0.06264692029104295,"328":-0.006330439474237085,"329":-0.058152025887824255,"330":0.036237026371065906,"331":0.04361466849159126,"332":-0.030180827625219342,"333":-0.037912750987858526,"334":0.05653429597838729,"335":0.032025479176685995,"336":-0.01276504070628489,"337":-0.031294001001426375,"338":0.12073459195819908,"339":-0.1363537489828942,"340":-0.0874092503062101,"341":0.09029670450122917,"342":0.03789656200377672,"343":-0.03638883955657052,"344":-0.020870341730141184,"345":0.048746719235238815,"346":-0.22185374737053287,"347":-0.10428090527624748,"348":0.13742559687826433,"349":0.02260151668498569,"350":0.06074661757772541,"351":0.05499974580399617,"352":0.0032927262184928702,"353":0.0631896905150937,"354":-0.1009287976133865,"355":-0.05836708053128439,"356":0.04364708464983233,"357":0.053694078390082854,"358":-0.08873261190986362,"359":0.11560376737485924,"360":-0.07084953697647868,"361":-0.06303627184433234,"362":0.04091866485676485,"363":-0.034772734423177874,"364":0.04068151263109684,"365":-0.0445292970537012,"366":0.005864190413471068,"367":-0.041139888632549665,"368":-0.015196557923647058,"369":-0.05145697523419579,"370":-0.08175362004626571,"371":-0.025661984868339597,"372":-0.03967495325636481,"373":-0.04463755384846592,"374":0.027619405219421873,"375":-0.10021952879858767,"376":0.06842364842437733,"377":-0.07087611177821086,"378":-0.08270658321892536,"379":-0.03793577509836109,"380":-0.07345646224064244,"381":-0.06624277469202114,"382":0.03179208067051159,"383":0.07139159804216473,"384":0.07239584785138609,"385":-0.0401450017011282,"386":0.016543603713724667,"387":-0.030407364458818205,"388":-0.01904943467741151,"389":-0.029694337364174424,"390":-0.020078753720613008,"391":-0.047022571536177026,"392":-0.0009670220849006533,"393":-0.028713940489419956,"394":0.07788301445753551,"395":-0.00712053552522864,"396":-0.043588469267028376,"397":-0.009844982519560785,"398":-0.07828463606698732,"399":0.0031997387480745595,"400":-0.08209120330470442,"401":-0.014884511592845453,"402":-0.07990608133766751,"403":0.01663998518677339,"404":-0.06121152924228571,"405":-0.010896015727618577,"406":-0.039970185603532965,"407":0.0026361788704533325,"408":0.011593608862612584,"409":0.01637580329994702,"410":-0.05880599295579177,"411":0.06869545820678029,"412":-0.01539255433550313,"413":-0.03310395115049469,"414":-0.052180554767463465,"415":0.10912510510658201,"416":-0.08316585495718945,"417":0.023223973258459873,"418":0.1109112811518032,"419":-0.02142477582899484}},{"sx":1,"sy":1,"depth":420,"w":{"0":-0.05858896901640419,"1":-0.06565595662420233,"2":-0.0012747215367426312,"3":-0.024618117860405814,"4":0.03494375827676004,"5":0.005239698485563605,"6":0.09581264767187103,"7":-0.024474678132841477,"8":-0.02943188519613896,"9":-0.02515881422562206,"10":0.06261950769342034,"11":-0.013118333114878698,"12":0.11481897529549222,"13":0.11342960613369818,"14":0.024459136283296122,"15":-0.026759541710454225,"16":0.08765052332503052,"17":0.0796138812648558,"18":0.10646527260126956,"19":0.06341147498230157,"20":-0.010352877957560106,"21":-0.08254308433791294,"22":0.010088166635549458,"23":-0.027750172651829184,"24":0.11472285595858989,"25":0.1062186364792016,"26":-0.011328651080606784,"27":0.022618762258955438,"28":0.019585726614965604,"29":-0.05497227663336304,"30":0.0024525549599404865,"31":0.003566189754534334,"32":-0.018525762533916978,"33":0.03151235027597981,"34":0.10099479492731576,"35":-0.024757316135197563,"36":-0.021411901543423834,"37":-0.013448136319126211,"38":-0.09396664121259495,"39":0.0797619629023327,"40":0.04570504312585252,"41":0.012934277966820491,"42":0.021788471712722097,"43":0.051898748159647345,"44":-0.061897495434470366,"45":-0.01767877392393405,"46":0.08882562365625406,"47":-0.06545934595836717,"48":0.002211457896117174,"49":-0.04712847142831652,"50":-0.01860064469132134,"51":-0.04176510458649582,"52":0.1552114244039513,"53":-0.0080205613310028,"54":0.09381709670132592,"55":0.1676687156205228,"56":-0.03255862276945168,"57":0.01542240654503764,"58":-0.12978591776720041,"59":0.03409687215067795,"60":0.03616606957344968,"61":0.15214759779201548,"62":0.0987255836306874,"63":0.05056799346498529,"64":-0.08683004512135492,"65":-0.057856265606532516,"66":0.07793799311812491,"67":0.028517628065531587,"68":-0.017652192954067256,"69":0.061505852588957764,"70":-0.08089247697811608,"71":-0.03898282510492109,"72":-0.024120144380081077,"73":0.1485598441199836,"74":0.035301002950084225,"75":-0.012535920283294656,"76":0.06228946814992199,"77":-0.0157455327826975,"78":0.048614592132229864,"79":-0.039250107344975804,"80":0.06535217489438952,"81":0.06026419554111285,"82":0.005683172389292691,"83":0.015101640266124967,"84":0.041537958143782756,"85":-0.19813265849571737,"86":0.06777951646876841,"87":0.025771942834442476,"88":0.07114385610995337,"89":-0.017678734881307695,"90":-0.01073734309054753,"91":0.019964487800129608,"92":-0.05118580674429036,"93":-0.011579210472408018,"94":0.07545091224795414,"95":0.07121444016047732,"96":0.03237457174875435,"97":0.11449793046172152,"98":-0.06062413228598101,"99":-0.06030014470019362,"100":-0.08745270162390413,"101":0.052925991978962576,"102":0.01140171507076803,"103":0.09717591837937138,"104":0.10629508710447422,"105":0.020988525477127346,"106":-0.03270877300661562,"107":0.11670900041087627,"108":-0.018506068844950353,"109":0.1178310577640145,"110":0.05151580120868761,"111":0.06049114379304415,"112":-0.010290711332689242,"113":0.018371480187299827,"114":0.009720205370459478,"115":0.09511166703109647,"116":0.03814017892195431,"117":-0.024409142084576122,"118":-0.05826469302897564,"119":-0.060217023082466424,"120":0.04448231648840138,"121":-0.02594540308856404,"122":0.016314674491074266,"123":-0.014963369829323262,"124":0.02959099086053708,"125":0.08212753084009719,"126":0.01616416353283656,"127":0.12903254253235835,"128":0.13827425000992502,"129":0.16489818874146742,"130":-0.025493446560155345,"131":-0.008234951831702536,"132":0.09020391041551537,"133":0.027127808334517438,"134":0.030850548979435427,"135":0.004275709998526467,"136":0.13035337984152465,"137":0.02025907451441501,"138":0.09212712278561673,"139":-0.07651254355600963,"140":0.0021122273913792167,"141":0.08087006870076041,"142":-0.011754558964047828,"143":0.08692532950719095,"144":-0.06300743264033483,"145":0.07447322801856625,"146":0.09952516920789188,"147":-0.0021339411139716436,"148":-0.05788833755606866,"149":0.014298289222734238,"150":0.09874080399003285,"151":-0.06470474472441202,"152":0.034054608193275396,"153":0.0661975174307353,"154":0.053832879007922496,"155":-0.0660305851115584,"156":0.01282126393751169,"157":0.08830003760913445,"158":0.017303969532266754,"159":0.031456875131159426,"160":-0.1176152388739627,"161":0.021648138462792666,"162":-0.05161576819396912,"163":0.0526624162018502,"164":0.08697214321856421,"165":-0.050840505131022534,"166":0.07827520000240448,"167":0.04177702385104866,"168":-0.040317423733768974,"169":0.05986306075714775,"170":-0.07994482119389529,"171":0.0823610720171809,"172":0.04401423962619861,"173":0.14190497384888137,"174":0.11380992701511164,"175":-0.0503760746459476,"176":0.09946002642081479,"177":0.035124978589568465,"178":0.176819691300379,"179":0.0426059506664712,"180":0.017169884944303177,"181":0.003994988724956554,"182":-0.041634082287256555,"183":-0.00006141965786811559,"184":-0.07606974050161523,"185":-0.007552291143297262,"186":0.0612093089561558,"187":0.07567010382395589,"188":0.032505744187582765,"189":0.03016492202168063,"190":0.017579298638939596,"191":-0.11685333082052933,"192":0.0030376816634681133,"193":0.057740943747568774,"194":-0.05428854694034945,"195":0.215796598002468,"196":-0.14463437630169987,"197":0.022985022991648042,"198":-0.0008907794554241667,"199":0.03934532142602387,"200":0.01728348515702371,"201":-0.0332270608803463,"202":0.021374873889640125,"203":-0.11508389633253426,"204":-0.054177189689298376,"205":-0.07035654012880586,"206":0.06445448317292259,"207":-0.03916998241867786,"208":-0.07577802363276143,"209":0.023132672760861697,"210":-0.06792618003371578,"211":-0.05044130306235692,"212":0.04542553566796402,"213":0.09341348619155257,"214":0.045562969020393286,"215":-0.013545924349544563,"216":0.013697054705503897,"217":-0.06351898390931594,"218":0.042608189484188944,"219":-0.05474396763707073,"220":0.1821069799576627,"221":0.06340435976574164,"222":0.042688598300101105,"223":0.04668168162009329,"224":-0.12834417250648306,"225":0.08066497091030972,"226":0.04158980203759718,"227":0.12427760657117683,"228":-0.01630145042187163,"229":0.03433915999804153,"230":-0.06816285663180008,"231":-0.06444755344916911,"232":-0.023018196048809808,"233":-0.08485981751602242,"234":0.1136119957887313,"235":0.015701112454798993,"236":-0.09127897754778959,"237":-0.046136743121135436,"238":-0.05674265486866781,"239":-0.0004590584879636395,"240":-0.08347653938055119,"241":0.09245003451383643,"242":-0.019042709476164477,"243":-0.005455719442930841,"244":0.050669046458497104,"245":0.025995574587277085,"246":-0.0002529224244522897,"247":-0.03567736742908048,"248":0.02354834162561645,"249":0.007200452168027466,"250":-0.04527324019836935,"251":-0.00670320069989172,"252":0.07902213486498821,"253":-0.07556481856789955,"254":0.01412384469354677,"255":0.09040833580897592,"256":0.026780252584397857,"257":-0.026639012781377078,"258":0.08606186934064707,"259":-0.0919842205967656,"260":0.06509339043448252,"261":-0.06975329044809937,"262":0.1291301362576123,"263":-0.1051904858238705,"264":-0.0519965579944592,"265":-0.0033401680091738966,"266":-0.011839377134210599,"267":0.002548874811811323,"268":-0.0521582158217586,"269":0.14358790371845756,"270":-0.06238831502201117,"271":-0.014732429681680306,"272":0.06903637369148945,"273":-0.11231558236038681,"274":0.00815588369014982,"275":0.10008546309175682,"276":0.11218607066661264,"277":-0.03459302387272183,"278":0.06568971467232161,"279":0.1628093452743049,"280":-0.08837445710658888,"281":0.001444632863308923,"282":-0.052360903437740886,"283":-0.01733291327230638,"284":0.15987788776258902,"285":-0.0409923625304986,"286":0.01146474395599034,"287":-0.08598249298199347,"288":0.056668586115738113,"289":0.02216692690865393,"290":0.012480512472126875,"291":0.03217770350576336,"292":0.08716210149493744,"293":-0.019567190335394946,"294":0.02097547258308894,"295":-0.04057224373835042,"296":-0.03968167719791002,"297":-0.07887099456921416,"298":-0.039662070476999746,"299":0.04375433102700108,"300":0.031102599472624438,"301":-0.07644757404093376,"302":0.015172198727900488,"303":0.12398569257824926,"304":-0.10326817181350718,"305":-0.1549213403055822,"306":0.07375575273713021,"307":0.041768698768692956,"308":-0.035800271150424154,"309":-0.02652475746106983,"310":0.08221790727281338,"311":-0.018869777988699692,"312":-0.4702182052037971,"313":0.030096645700627422,"314":-0.10256246634826136,"315":0.014459606756582017,"316":0.03590587380907237,"317":0.04935879394401366,"318":0.07087089527492853,"319":-0.35646060613150304,"320":-0.03019239165701901,"321":-0.06176942527922914,"322":-0.06194287036065111,"323":0.1338353589497522,"324":0.08654137512428917,"325":0.05574557850100267,"326":-0.41208398337764796,"327":0.031075551716763638,"328":-0.001173272802428407,"329":-0.11724948644418956,"330":0.02514109741481952,"331":0.033027950419661736,"332":0.26131512724876393,"333":-0.35366117642656086,"334":-0.01744366332567966,"335":0.08401102567969332,"336":-0.041171545414067534,"337":0.02761021614124289,"338":-0.07138410459200181,"339":0.12175110099290418,"340":-0.468974317784723,"341":0.04977593751442791,"342":0.08661501397022901,"343":-0.03747269265888807,"344":-0.028732435526233002,"345":-0.11295623910190367,"346":0.10950800953820129,"347":-0.45043316031256164,"348":0.013390651916121604,"349":-0.026542742195510484,"350":-0.05970024559878115,"351":0.05961586295978097,"352":-0.165842384740342,"353":-0.07079020516649565,"354":-0.42443988810279565,"355":-0.04896946743227238,"356":-0.054791022790534605,"357":-0.05160943390188259,"358":0.04137203170462598,"359":-0.13341221302604334,"360":-0.19089201373072032,"361":-0.3160222534205676,"362":-0.013657657372343307,"363":-0.03660676362928871,"364":-0.007520906588451446,"365":0.05535197525557698,"366":-0.1414029705412035,"367":-0.16193041805718023,"368":-0.38515514796196704,"369":-0.052323365578314664,"370":-0.024442934051196935,"371":-0.014546953955141308,"372":0.0022779051061111964,"373":-0.07875513062478862,"374":-0.09741933734575092,"375":-0.32244314589112577,"376":0.05128416848795265,"377":-0.05016099126478241,"378":-0.06954683454027989,"379":0.09905369630113486,"380":0.009097458318133876,"381":0.11568243885202222,"382":-0.349334654433851,"383":0.05340329941010282,"384":0.039543249200781755,"385":-0.0938881093256678,"386":0.05666525499909128,"387":-0.09292200579747974,"388":0.10352658424869762,"389":-0.16201945093141484,"390":-0.02000273028618478,"391":-0.021066258556602747,"392":-0.07947133389491291,"393":0.076071194402656,"394":-0.08823244891591768,"395":0.08797421785609173,"396":-0.07148200636293943,"397":-0.03093475061119174,"398":-0.04078790117367744,"399":-0.04207650616954022,"400":0.016143425040049952,"401":-0.0254477424543276,"402":-0.06895996155381322,"403":-0.03735078225039701,"404":0.04479399692690044,"405":-0.008264859208896852,"406":-0.021415967945879702,"407":0.09335623158590094,"408":-0.007922816776899533,"409":-0.03980206122521347,"410":0.10428087434347204,"411":0.0961994057335408,"412":0.0523156471126842,"413":-0.05428504729241472,"414":0.00004487755208984961,"415":-0.0788346686435219,"416":-0.05389963404438862,"417":-0.12951943444721042,"418":0.15677598138608845,"419":-0.06442194436896735}},{"sx":1,"sy":1,"depth":420,"w":{"0":-0.061185414123667375,"1":-0.023333863473619876,"2":-0.04625207260389367,"3":-0.10853843258821988,"4":-0.09148222430351537,"5":-0.01818205649002984,"6":-0.025615324727786784,"7":-0.02469861925528367,"8":0.01782820484883669,"9":-0.11230606037302332,"10":-0.11088993413697167,"11":-0.02695203435808984,"12":0.047234794884352886,"13":-0.09722435898523964,"14":0.0008646160143811461,"15":0.017882729204659668,"16":-0.045497145220195975,"17":-0.01525388528199185,"18":-0.02860707304608448,"19":-0.014262787708403559,"20":-0.05618839291745245,"21":-0.011919562368742288,"22":0.0433213917083692,"23":-0.04264296631874952,"24":-0.049826253024225456,"25":0.0230126978984656,"26":-0.060748184722327174,"27":-0.025346568252801696,"28":-0.011546496726203665,"29":-0.00936020858090452,"30":0.0008266649070639436,"31":0.02166469629710629,"32":-0.008066844242045648,"33":0.03256201251750935,"34":0.10609983046400896,"35":-0.09439392467254185,"36":-0.12567591230445624,"37":-0.060160473833928654,"38":-0.01188338365339593,"39":0.03110247157622854,"40":0.02366789653392102,"41":-0.03695016991276722,"42":0.036308620023671065,"43":0.010325902988786308,"44":-0.06481114057120424,"45":-0.047362968805994395,"46":-0.016290806719514567,"47":0.046280968788686434,"48":-0.05874772220943593,"49":-0.10963433344945368,"50":-0.11516135292693724,"51":-0.03945796944024143,"52":0.07449494544213305,"53":-0.014247524335798898,"54":-0.010708046746194832,"55":-0.04410101677757444,"56":0.028498847088118895,"57":-0.026806390562054673,"58":0.062056658463196655,"59":-0.017479445219876145,"60":0.015099287772696448,"61":-0.05422643808152101,"62":0.08270106202993585,"63":0.035768435834500185,"64":0.029860012681228888,"65":-0.07457197565808657,"66":-0.05721782603640739,"67":-0.05511706578700568,"68":0.02582426629500949,"69":-0.011890847688747217,"70":0.07172453856034479,"71":-0.01991931986089687,"72":-0.05398271100370599,"73":-0.07980957149890616,"74":0.018348961550617108,"75":-0.006983711053389739,"76":-0.02903819632502842,"77":-0.0012449807151331438,"78":-0.03763829074869676,"79":-0.07834350909591696,"80":0.01860167065523674,"81":-0.004255338072385724,"82":-0.0006791074898638946,"83":0.071839321037241,"84":0.020067338809582547,"85":0.01913198548452335,"86":-0.015717445027898597,"87":-0.03690161584580759,"88":-0.01316176735785371,"89":0.027479519336034125,"90":0.0005760081180599211,"91":0.024632660878365513,"92":0.033664511746799436,"93":0.025959505521071676,"94":-0.015267915683822348,"95":0.007473428188637655,"96":-0.04978909818726592,"97":-0.024048789333950837,"98":-0.05005547666340185,"99":-0.04011772230517963,"100":0.053514570815065575,"101":-0.04323551572967051,"102":-0.013558339310977741,"103":-0.025225294735494327,"104":0.000746436946617522,"105":0.040691041933510676,"106":0.01894149887993285,"107":0.06309584893591395,"108":-0.01171619215429897,"109":-0.04554618109955111,"110":0.10700778792797258,"111":0.031435960037993135,"112":0.01744261896082097,"113":0.05674340024985065,"114":0.10220774282810276,"115":-0.06589868917924023,"116":0.03379218990486,"117":-0.10527173754753863,"118":0.010610564411512514,"119":-0.010380506529425002,"120":-0.046503091801040584,"121":-0.08499878007651245,"122":0.05780043484082709,"123":-0.021542923805277465,"124":-0.057860888074382125,"125":-0.0717028135985299,"126":0.06197304745344439,"127":0.0067560068792620435,"128":0.07484804041816251,"129":0.06282765776732767,"130":0.0018524055486313622,"131":0.018654107979548622,"132":-0.036926096339606515,"133":0.020730910963856822,"134":0.003646888758836201,"135":0.042795921585641196,"136":-0.015231139467405043,"137":0.03972964385783091,"138":-0.05166417632349736,"139":0.022393697706264228,"140":-0.05888324554975506,"141":0.0007738157916431261,"142":0.06086804690270173,"143":-0.059348338849599905,"144":-0.03210544631155562,"145":0.02795902995452468,"146":0.024034053829230267,"147":-0.02518453909942913,"148":0.04604146729829557,"149":0.005511481293012818,"150":-0.03686617916694154,"151":-0.02645530432814834,"152":0.07637464390102423,"153":0.10146655578423025,"154":-0.07725575503513926,"155":0.006826788214903033,"156":-0.013659223192510655,"157":0.002443022568155857,"158":-0.079567252956626,"159":-0.043419699749588966,"160":0.002035832780512356,"161":-0.009340824971622325,"162":-0.0011936877342905699,"163":-0.03282891531621868,"164":-0.01731206862149478,"165":0.02636878046099841,"166":0.024060995530430476,"167":-0.03264661998224228,"168":-0.07895422704393902,"169":0.019139792302627513,"170":0.03361014276223743,"171":0.02689932098372644,"172":-0.026695716079866618,"173":0.016473040338479662,"174":0.02510281515572356,"175":-0.004510972218311632,"176":0.011912962912935164,"177":-0.06597239384107019,"178":0.01877673005388648,"179":-0.014580566436409089,"180":-0.026354453733575287,"181":-0.07343804697388363,"182":-0.08322360978024856,"183":-0.06041419825162315,"184":-0.0022235533741970836,"185":-0.0581981472229416,"186":-0.005297536748773942,"187":-0.058442383357753425,"188":0.03584115162155646,"189":-0.009852745910536496,"190":-0.11477856279746829,"191":-0.05057579701414865,"192":-0.022548612108335038,"193":-0.03316436887767665,"194":0.026949229217075144,"195":-0.013747760813763832,"196":-0.04331111737644628,"197":-0.02117459778450863,"198":0.05897944252242428,"199":0.013975767113363161,"200":-0.0728004869720175,"201":0.005923858175404724,"202":-0.12818035530254282,"203":0.054609776241511254,"204":0.009166093668078289,"205":-0.045925812180956,"206":-0.007639166472205231,"207":-0.017924711733647528,"208":-0.09626435768030654,"209":0.014817586447997091,"210":0.03706291191149182,"211":-0.011445406488026177,"212":-0.043580853427905214,"213":-0.02898739126512557,"214":0.009071140544544894,"215":-0.027254978887528102,"216":-0.053942565922051065,"217":0.13016450634081358,"218":-0.024316709841530827,"219":0.02350810949039883,"220":-0.0825129801688273,"221":-0.0851242835272299,"222":-0.010158993212277328,"223":0.021068427399270357,"224":0.05280846628353825,"225":-0.0021048364649724643,"226":-0.05420434320122816,"227":0.016682545641414057,"228":0.016304227119742467,"229":0.0353895005181495,"230":-0.04238655209157328,"231":-0.047974496675083696,"232":0.00665724965098633,"233":0.0538775888392149,"234":-0.01687550961682598,"235":0.0262437241106876,"236":-0.06262961283356124,"237":0.010858043167654886,"238":-0.012108605272874502,"239":-0.05515201309874081,"240":-0.08859300303550344,"241":-0.12632697587244615,"242":0.07756646129929377,"243":0.003506365976264623,"244":0.11253802397088777,"245":-0.012998478359611227,"246":-0.08001215645367186,"247":0.018352039367108497,"248":-0.014908610209162372,"249":-0.05504194593737255,"250":-0.022587131631247207,"251":0.03237938411051161,"252":-0.1372289383097755,"253":-0.021412041518639367,"254":-0.004160073870608789,"255":-0.07181648529711097,"256":0.018921588412326107,"257":-0.037728273995007354,"258":0.011121675699171652,"259":0.0998950678680507,"260":-0.05128578730497115,"261":0.1426381104570158,"262":-0.024938536245096884,"263":0.055802675852203054,"264":0.009902733116540705,"265":0.038899230919469285,"266":0.05014127921931439,"267":0.020856204598709308,"268":0.025594477478875423,"269":-0.06643568484844968,"270":0.031055572537930384,"271":0.03187725600130176,"272":0.009929577610507691,"273":0.043495539812362795,"274":0.018424841760736825,"275":0.00835063092652102,"276":-0.00010099806745767828,"277":-0.06704400300973834,"278":-0.02573857484521231,"279":-0.039621642521156186,"280":-0.03566927987368636,"281":-0.06674091066387376,"282":-0.05887993606848142,"283":0.005940486386071802,"284":-0.050080829567284504,"285":0.044514871771682805,"286":-0.008630586143160528,"287":-0.0313673056142717,"288":-0.017998186674825205,"289":0.04333004283626852,"290":-0.035144443591980414,"291":-0.005070921706764674,"292":0.004925099871674742,"293":0.008345955949377636,"294":-0.02126429487921865,"295":0.05183807836760432,"296":0.0696552377084195,"297":0.029670987267385738,"298":-0.013686374685585563,"299":-0.04951771107255434,"300":-0.09671358213416638,"301":0.005250640169634313,"302":0.03220397863303068,"303":-0.080361305096526,"304":0.02890840442355522,"305":0.00657241756997752,"306":0.02579616262294793,"307":0.04430742607243539,"308":0.07956162797824134,"309":-0.041702479346234056,"310":-0.04705532875572063,"311":-0.01663535592343648,"312":-0.01247275645077279,"313":0.1059842091846441,"314":-0.025044670657030085,"315":-0.01095233214091096,"316":-0.0008298222246194379,"317":0.03441943639508588,"318":0.03627665091717211,"319":-0.0134603928192439,"320":0.006346430517861945,"321":0.077057502969428,"322":0.028989054842093225,"323":0.06638210903795792,"324":-0.027716535117574884,"325":-0.012997721276369516,"326":-0.07742667563062544,"327":0.030177238608716635,"328":0.021727461396908655,"329":0.00694345432495278,"330":0.031648085472222746,"331":-0.05748101890756376,"332":-0.0355531576136715,"333":0.035227267353683464,"334":0.0342172081971742,"335":-0.002768944173910687,"336":-0.020555564611334703,"337":0.007058061515662764,"338":-0.02929135596004359,"339":-0.12659126132995258,"340":-0.10530863234743236,"341":-0.033034611726744254,"342":0.032569833735640354,"343":-0.13047386865625807,"344":-0.013432150527448247,"345":0.06848558774154877,"346":-0.05475485541824609,"347":0.03318813786821748,"348":-0.03899514369999149,"349":-0.04760309080735746,"350":-0.01155356831208557,"351":0.03147405276916362,"352":0.03805069859315022,"353":-0.00651455404854097,"354":0.03122514426773959,"355":-0.02275975684749427,"356":-0.0033334999680090117,"357":-0.001873978487670467,"358":-0.02706590082847143,"359":-0.021249693798534024,"360":-0.0668812499168859,"361":-0.05099017533622659,"362":0.028679114622226026,"363":0.013234673806762107,"364":-0.08163609208671453,"365":0.0401985935900593,"366":-0.0044227931967082065,"367":-0.024126305707387326,"368":0.024061391271925813,"369":0.04430840369692327,"370":-0.031678539050774356,"371":-0.08119306658661714,"372":-0.029573212858618844,"373":0.013274774391096452,"374":-0.03301484514906058,"375":-0.04746138679077273,"376":0.04608222739624132,"377":0.01126484370074299,"378":0.05636236007030708,"379":0.005570499567827874,"380":-0.07387658293686296,"381":-0.09835377479013682,"382":-0.06093133443050315,"383":0.02634557986342466,"384":0.008486495384456045,"385":0.005080702504467698,"386":-0.10339809060916001,"387":-0.04111814898159482,"388":0.004611169872642644,"389":0.06197712908998623,"390":0.02708905499668513,"391":-0.0725853471479112,"392":-0.08167286390202623,"393":-0.10297548197188959,"394":0.012616992694182705,"395":0.021316247773671596,"396":-0.0009009366494989061,"397":-0.012644545193789304,"398":-0.011461771526975117,"399":0.023075146520320805,"400":-0.04430436067408232,"401":0.026189422703619382,"402":-0.087525621965632,"403":0.062620790526826,"404":-0.00262959698814462,"405":-0.08071691515183285,"406":0.09222539941721604,"407":-0.05920118613154762,"408":0.018386371668003405,"409":-0.004839023333351205,"410":-0.02669685399243579,"411":-0.022644693343905377,"412":-0.10785997936306974,"413":-0.0030604748653604527,"414":0.007338908701469549,"415":-0.03182767712656437,"416":-0.07215422206973285,"417":-0.06703113285046654,"418":0.021963889990286842,"419":0.0425122151044761}},{"sx":1,"sy":1,"depth":420,"w":{"0":-0.06615476457551706,"1":-0.03747874365379633,"2":-0.030841839751317587,"3":-0.04039644025682173,"4":-0.048630793985656194,"5":-0.010310407207948825,"6":0.00445732536778544,"7":-0.011125657162847347,"8":-0.025639657649400693,"9":-0.08104466929214502,"10":-0.011157791524045274,"11":0.035998365636564784,"12":0.0007543581452754496,"13":-0.018571102932861606,"14":0.013920777289077998,"15":-0.011935436530162045,"16":-0.03977297223177278,"17":-0.037560510537604855,"18":-0.027034668268732246,"19":0.03781031502360945,"20":-0.05725007826668844,"21":-0.08100300942256028,"22":0.05998116218420831,"23":0.015468405373463157,"24":-0.016365175211823076,"25":-0.03178775446384304,"26":0.009471808406464544,"27":-0.03318628589825484,"28":-0.00853607054800388,"29":-0.08013567204146844,"30":0.019270882029440647,"31":-0.031490793889331306,"32":-0.09046627834441782,"33":-0.00021244000854553615,"34":-0.002443701280043599,"35":0.04977765646982911,"36":0.010444679519325456,"37":0.072563834194055,"38":-0.041141841662907574,"39":-0.02935581835578263,"40":-0.04383470799418937,"41":0.04744237068150101,"42":0.016164886745927542,"43":0.0656538064717529,"44":-0.010319408984216048,"45":0.005158996405791046,"46":0.007409953981967179,"47":0.03778793164717896,"48":-0.031132372748703417,"49":0.05730714607845487,"50":0.0002592978283042809,"51":-0.039177573209425706,"52":-0.031458204480275705,"53":-0.024622008740343294,"54":-0.05748901274396468,"55":-0.018057157635510322,"56":-0.01785663138043011,"57":-0.04665736380381277,"58":0.012863938250212505,"59":0.005620534245394191,"60":-0.007067759231992423,"61":-0.15074502844244014,"62":-0.02207078205610046,"63":0.0471820936136709,"64":0.009759265957152454,"65":-0.017219088360803228,"66":0.055488657590952735,"67":0.07701389489738875,"68":0.005230201472783419,"69":0.021489313302720477,"70":-0.016805642576155282,"71":-0.010597208181124614,"72":0.05542892710427533,"73":0.02032097886433644,"74":-0.1871988446575652,"75":-0.0021529191044482626,"76":0.036754379102222436,"77":0.0466541676706707,"78":-0.015437687431374348,"79":0.005364274350844385,"80":-0.13976923280743478,"81":0.005722947148166418,"82":-0.019885250322471997,"83":0.05168664236101416,"84":0.015038477557271123,"85":0.0011755863339271576,"86":-0.043355065273808946,"87":-0.09917518377859309,"88":-0.032284386479817365,"89":-0.03748170799073264,"90":0.015937432858292206,"91":-0.036013080495605684,"92":0.006220409961408448,"93":-0.026789576859498957,"94":-0.05937913868926871,"95":-0.09396614067617468,"96":-0.03636821706883341,"97":-0.0730417312489205,"98":-0.05030796233221665,"99":0.0268907171836585,"100":-0.022277109764183994,"101":-0.020032055553485292,"102":0.025572712229479155,"103":0.045658483450586575,"104":0.0000648793792472118,"105":-0.058176876335922445,"106":0.07743400869397046,"107":-0.0077498388155213885,"108":0.016801923678599513,"109":-0.008393371658732692,"110":0.04526371284020157,"111":0.04953769180148954,"112":0.016777986279765032,"113":0.025922873767331572,"114":0.04270611279398957,"115":-0.02587234466684575,"116":0.03178508465193164,"117":0.0704343642753465,"118":0.014521129038432305,"119":-0.07682752709177759,"120":-0.015334119090762167,"121":0.0026875500517989097,"122":0.004730796179410794,"123":-0.04678509096597488,"124":-0.032089304661538795,"125":0.006963578742366556,"126":-0.010643639845405605,"127":-0.02802601369684066,"128":-0.036326821145217854,"129":0.012034918989418662,"130":0.0020174333898520733,"131":-0.057752194121630414,"132":0.079044657188042,"133":0.053619113447262175,"134":-0.026169972181474713,"135":0.05521683098656299,"136":-0.04519393608108655,"137":0.020078224538886507,"138":0.0448492360778413,"139":-0.06638757610211386,"140":-0.04861106339381468,"141":-0.06870355469804998,"142":-0.06481994671556424,"143":0.005816644510891816,"144":-0.060503791456504946,"145":0.003944513410772741,"146":-0.011065814247336186,"147":0.022795479368308922,"148":-0.018378224960539764,"149":-0.07012157314107569,"150":-0.13355293942131408,"151":0.12104867479394164,"152":-0.05945942694898355,"153":0.06435621363177745,"154":-0.01278279088811364,"155":-0.05807573726600489,"156":0.0007509738420525812,"157":-0.03490768399577681,"158":0.053885976341260154,"159":0.02534004762775519,"160":0.0036370380500073914,"161":0.06857878030477473,"162":0.05348555186149974,"163":-0.017100702725080186,"164":-0.013999949382912314,"165":-0.05745878186928154,"166":-0.08750843453926904,"167":0.02483949812595271,"168":-0.06851282206082265,"169":-0.019915173732655948,"170":0.02329484857193448,"171":-0.08043862519576586,"172":-0.0478126244371207,"173":-0.01679335399905305,"174":0.0284818488759161,"175":0.04753885494791612,"176":-0.04270864835118603,"177":-0.04701764269624876,"178":-0.02811714785153964,"179":-0.04969616413418736,"180":-0.11627947666196009,"181":-0.0897516447653106,"182":0.028081154262566,"183":0.06917996948233723,"184":0.019425451570434276,"185":-0.029172607165231467,"186":0.05198178938615364,"187":-0.079962687774984,"188":-0.034219295146662373,"189":-0.012874794453571557,"190":-0.02343264839373783,"191":-0.07565309996252902,"192":-0.016645920431183004,"193":-0.06721374660861065,"194":-0.03144539730081341,"195":0.05412349063392945,"196":-0.005460468871740195,"197":0.04916437024760508,"198":-0.05996889837654727,"199":-0.01120172380586501,"200":-0.013570126421887383,"201":-0.08918251661890596,"202":0.04839218782198949,"203":-0.036603635613123964,"204":-0.024674282858573423,"205":-0.09612789367898063,"206":0.0069928509959002036,"207":-0.020609720113622318,"208":-0.1500869744149893,"209":-0.015297357790756517,"210":-0.043610006113642276,"211":0.07268322079930344,"212":-0.07460811992321695,"213":0.021601991445305974,"214":0.004552604222764357,"215":-0.018089110008774254,"216":-0.030941797638882558,"217":0.009904167958626905,"218":0.03231734447589155,"219":-0.06218084799429819,"220":-0.014352620886217136,"221":0.038751409184335055,"222":0.051606597573023404,"223":0.07263359206735787,"224":0.05933918780172797,"225":0.06568135417561839,"226":0.052745194910324006,"227":-0.019385509154270564,"228":-0.031066991297958906,"229":0.007397930610094126,"230":-0.01929902010487246,"231":0.022257927527428212,"232":-0.027177168375565615,"233":-0.1178331158314126,"234":0.022366475855487337,"235":-0.051369451783653035,"236":0.020915877720249228,"237":-0.04315442650491258,"238":-0.013990172465577736,"239":0.006144515454755303,"240":0.002576582095559245,"241":-0.05562885332949015,"242":0.04203039477599546,"243":0.013024525272348172,"244":0.004577778520818478,"245":-0.06629623388882601,"246":-0.005013016768223784,"247":0.0024338231900471715,"248":-0.02384074437554101,"249":0.036514038856598506,"250":0.024136688958618254,"251":0.05645520717664646,"252":0.04636575628863118,"253":0.009933469923487516,"254":-0.05342402361898897,"255":-0.006974748810077638,"256":0.020573444322239943,"257":0.08859931721302902,"258":-0.04794971939099804,"259":0.017767723970833496,"260":0.01329606758038791,"261":0.013794045129528941,"262":-0.06072833165541698,"263":0.029542335025329325,"264":0.06284762193183832,"265":-0.05389859498258901,"266":0.009478050158100127,"267":-0.05471067532447514,"268":0.010449752226845731,"269":0.05581447447668387,"270":-0.053395606835009116,"271":0.028771542811646365,"272":-0.07764888762824275,"273":0.040588463981755835,"274":-0.041304505148591644,"275":0.036561280531948244,"276":0.02861498051301338,"277":-0.0365873464886989,"278":0.04275849827051206,"279":0.0013446539368916943,"280":-0.025532139442826236,"281":-0.005632704052713816,"282":-0.0782008296611193,"283":-0.06475806272169102,"284":-0.007591976553905969,"285":0.04844789253398201,"286":-0.03209034620734811,"287":0.013928412087177999,"288":-0.0871077615063985,"289":0.018885282081583608,"290":-0.05284550409245561,"291":-0.10024745497232991,"292":-0.08097839370414335,"293":0.030352434328000798,"294":0.00047585549772145494,"295":-0.004151175757729411,"296":-0.03505717319960422,"297":-0.09901675354422733,"298":0.027232538652528556,"299":0.014491154142653577,"300":0.0369459263721099,"301":-0.06124388412226433,"302":-0.035910459978228094,"303":-0.04430532448742521,"304":-0.03370928030829097,"305":-0.050272687310937196,"306":0.004218821974832709,"307":0.019344281478643314,"308":0.011627288827175461,"309":-0.043176253183001535,"310":-0.00027959616303136235,"311":0.0045533832480452955,"312":0.01688689295009498,"313":-0.07771070816949975,"314":-0.0057189942108464694,"315":-0.09035316966476942,"316":-0.020955879462875124,"317":-0.0009311537150051237,"318":0.012485554207273864,"319":0.034402736384586644,"320":-0.07832091365728897,